tree
version=v4
num_class=3
num_tree_per_iteration=3
label_index=0
max_feature_idx=88
objective=multiclass num_class:3
feature_names=Column_0 Column_1 Column_2 Column_3 Column_4 Column_5 Column_6 Column_7 Column_8 Column_9 Column_10 Column_11 Column_12 Column_13 Column_14 Column_15 Column_16 Column_17 Column_18 Column_19 Column_20 Column_21 Column_22 Column_23 Column_24 Column_25 Column_26 Column_27 Column_28 Column_29 Column_30 Column_31 Column_32 Column_33 Column_34 Column_35 Column_36 Column_37 Column_38 Column_39 Column_40 Column_41 Column_42 Column_43 Column_44 Column_45 Column_46 Column_47 Column_48 Column_49 Column_50 Column_51 Column_52 Column_53 Column_54 Column_55 Column_56 Column_57 Column_58 Column_59 Column_60 Column_61 Column_62 Column_63 Column_64 Column_65 Column_66 Column_67 Column_68 Column_69 Column_70 Column_71 Column_72 Column_73 Column_74 Column_75 Column_76 Column_77 Column_78 Column_79 Column_80 Column_81 Column_82 Column_83 Column_84 Column_85 Column_86 Column_87 Column_88
feature_infos=[0:7.333333333333333] [0:5] [1:40] [0:16] [0:20] [3:23] [0:7] [0.2381194999999999:4.8582000000000001] [0.20353550000000001:3.8755500000000001] [0:3] [0:7.666666666666667] [0:4] [2:36] [0:17] [0:19] [2:29] [0:7] [0.413213:4.6510049999999996] [0.088420299999999993:3.5244650000000002] [0:3] [-1.7285131666666669:4.5014750000000001] [-7.5:8.3333333333333321] [-3.333333333333333:6] [-3:5] [0.20000000000000001:6.2000000000000002] [0:4] [5:30] [0.5:13] [0:13.5] [3.5:20] [0:5] [0.30527466666666658:4.1555600000000004] [0.17325299999999999:3.2735933333333329] [0:5] [0:6.2000000000000002] [0:3.7999999999999998] [4.5:32.5] [1:13] [0:12.5] [3.5:24.5] [0:5] [0.40201500000000001:3.9884400000000002] [0.19216367000000001:3.0676666666666663] [0:5] [-1.4759246666666668:3.4760313333333333] [-6.2000000000000002:6] [-2.3999999999999999:5.2000000000000002] [-3:5.6000000000000005] [0.40000000000000002:4.5999999999999996] [0:4] [6.5999999999999996:30] [1.8:11] [1:11.199999999999999] [5:20.199999999999999] [0:4.5999999999999996] [0.52484120000000001:3.9642900000000001] [0.2212531999999999:2.6855060000000002] [0:10] [0:5] [0:2.7999999999999998] [6.4000000000000004:32.5] [1.8:14] [2:11.4] [4:19.199999999999999] [0:4.4000000000000004] [0.5533262000000001:3.8827260000000008] [0.17325299999999999:2.6384180000000002] [0:10] [-1.2753768000000001:3.1463959000000004] [-5.5:4.5999999999999996] [-1.3999999999999999:3.7999999999999998] [-3:4.2000000000000002] [0:5] [0:6] [0:3] [0:6] [0:6] [0:3] [-7:7.3333333333333339] [-3:3] [0:5] [0:6] [0:3] [0:6] [0:6] [0:3] [-6.2000000000000002:6] [-3:3] [0:1]
tree_sizes=2639 2153 2583 2649 2293 2622 2670 2484 2620 2632 2614 2609 2677 2452 2508 2673 2214 2496 2666 2235 2335 2660 2146 2642 2679 2114 2617 2665 2139 2647 2350 2240 2597 2338 2667 2663 2421 2630 2560 2452 2351 2397 2573 1999 2504 2555 2455 2595 2140 2346 2574 2121 1093 2509 2142 1707 2497 2365 1095 2646 2204 2000 2518 2197 1778 2306 2658 1617 2330 2242 2129 2425 2565 1685 2450 2621 1290 2445 2337 1690 2108 2561 1075 2587 2623 1356 2642 2235 1490 2266 2239 1050 2641 2142 1369 2078 2154 1770 2125 1921 1399 1624 2152 1377 1816 2101 1875 2144 1787 2160 2038 2204 1366 2609 1900 1371 2033 2136 1911 1920 1892 1998 1796 1901 1704 2257 2442 1173 1580 1907 1290 2644 1689 1588 2030 2295 1095 1597 2012 1163 2035 2650 1185 2143 1482 2024 1846 1778 1452 1908 2635 1604 1524 2217 1083 1787 1774 967 1552 1480 1879 2653 2268 1176 1708 1718 1702 1183 1740 1704 2154 1181 2512 1575 1605 1174 1735 1573 2232 1477 1178 1492 2212 1521 1372 1278 1579 1175 1447 1523 1173 1925 1683 1885 1171 2098 1623 1517 1390 2183 1241 1672 1070 1501 1405 2222 1995 2145 1173 2030 1676 1429 1595 1467 1676 1560 1407 1290 2028 2087 1886 1706 1409 1368 976 2158 1184 1682 1290 1619 1503 1380 1507 1182 1806 1916 1500 1964 1179 1510 2014 1311 1995 1917 1283 1605 1828 1284 1498 1948 1378 1272 1470 1613 1700 1502 1663 1701 1692 2014 2039 1180 1519 1736 1579 1691 1273 1813 1587 1603 2107 1416 1579 2045 1621 1189 1815 1778 1378 1698 2506 1589 1689 2124 1311 1712 1479 2099 1398 2158 1400 2235 2505 1684 2131 1154 1314 1974 1280 1684 1784 1685 1950 2078 1369 1559 1196 1083 1185 2029 1292 1720 1923 2644 1318 1920 1781 1764 1490 1624 2234 1513 1077 1554 2637 1690 2195 1798 1602 1429 2051 1049 1269 2102 1713 1791 1710 2347 1535 1492 1395 1915 1402 2564 1805 1895 1791 1383 2371 2214 2152 2222 1360 1531 1503 1787 1577 1501 2216 1503 1373 1291 2201 898 1686 1707 1597 1601 1190 881 978 1496 1685 2404 1684 2627 1591 1264 1265 2234 1481 1211 1499 1564 1605 2416 1591 1286 1633 2025 2321 1702 1923 1707 1393 2304 1576 1271 1923 1153 1369 2017 1806 1610 1393 1478 2215 1586 1185 2600 1563 1276 1796 1485 1199 1402 1563 1828 1341 1800 1703 1943 1467 1176 2129 2661 2115 1706 1507 2470 1486 1737 1391 2500 1663 1277 2034 1517 992 1704 1595 2436 2523 1451 1275 1173 1585 1940 1819 1264 1878 1584 1709 1817 2101 1564 1800 1385 1566 1152 1475 1570 1701 1636 1697 2352 1078 1455 2100 1923 1268 1386 2276 1600 1577 1150 1975 1891 1152 1488 1676 1259 1899 890 1476 2098 1366 1948 1280 2336 1469 1583 1628 981 1754 1570 1528 1541 1612 1646 2012 1969 2305 1490 1198 1507 1257 1373 1072 1919 2015 2172 1395 1389 1173 1740 2146 1995 1995 1814 1458 1895 2172 1697 1385 1889 1046 1939 2431 2023 1454 1728 1661 1582 1588 1504 2088 2344 1708 1268 2015 2331 1682 2185 848 1895 1392 2175 1393 1675 1052 1930 1815 1944 1688 1914 1269 1344 1992 1593 1744 1888 2633 1900 2414 1480 1491 1714 2296 1382 1372 1367 2661 1990 1471 1915 1731 1903 1908 1467 1375 1261 2671 2108 2107 2639 2200 1592 1159 1280 1489 1691 1995 1661 2013 1365 2379 2627 1603 2284 2329 1795 1903 1293 1820 1132 1250 1472 1892 1502 1602 2006 2272 1382 2023 2410 1878 1271 2194 2625 1575 1356 1336 1345 1725 1354 2395 2488 1733 1613 1830 1549 2053 1991 1392 1372 1183 2233 1501 1967 1583 1927 1816 1721 1619 1830 1281 2394 1857 1864 1686 1176 1674 1922 2006 2531 2134 1448 1695 2619 2084 1319 1295 1550 2266 1852 1713 2211 1683 1906 1907 2232 2005 2207 1578 2510 1588 2091 2075 1062 2150 2409 1483 1775 1684 1304 1717 2235 1204 2088 1712 1605 1683 2005 1494 1885 1868 2601 1775 1805 1061 1678 1362 1673 1411 1903 1461 1830 2270 1077 1917 2092 2260 1562 1184 1059 1706 1797 972 2303 2069 1987 1714 1862 1891 1604 2205 1311 1556 2088 1572 1287 2007 978 1205 1891 1309 1233 2208 2224 2101 1669 1341 2398 1819 2265 1722 2440 1464 2104 1890 2314 2390 2160 2464 1674 2001 1528 1806 2463 1806 1783 1571 1700 1737 1977 2305 1716 2077 2603 2623 1056 2102 1996 1598 1075 1387 2592 1247 2030

Tree=0
num_leaves=24
num_cat=0
split_feature=86 67 9 43 55 86 17 80 32 41 44 56 11 86 37 86 84 87 58 32 80 79 27
split_gain=106.829 35.6991 30.1441 19.8839 15.641 13.3985 10.8866 10.8941 10.8077 9.89737 8.1342 7.64022 6.6831 6.65864 5.57089 5.10932 4.86832 5.88286 4.83318 4.27333 3.06189 1.74621 0.353891
threshold=1.0000000180025095e-35 7.5000000000000009 2.5000000000000004 4.5000000000000009 1.9496980000000004 -1.2249999999999999 1.8064950000000002 1.2250000000000003 0.78575433333333344 1.9892166666666669 1.1652888000000001 1.2842264000000003 0.50000000000000011 1.7750000000000001 5.9000000000000012 -2.0333333333333328 2.9000000000000004 0.92500000000000004 2.3166666666666669 1.3883841666666668 1.5500000000000003 2.416666666666667 7.6750000000000007
decision_type=2 2 2 2 2 2 2 2 2 2 2 2 2 2 2 2 2 2 2 2 2 2 2
left_child=2 13 9 19 6 10 7 -3 -7 12 -5 18 -1 16 -8 -14 17 -2 -6 20 -4 22 -15
right_child=1 4 3 5 11 8 14 -9 -10 -11 -12 -13 15 21 -16 -17 -18 -19 -20 -21 -22 -23 -24
leaf_value=-0.78566255917267191 -0.70371305408484652 -0.76028962975023773 -0.73542198850891938 -0.77104908694133967 -0.69875291190447497 -0.71385577339017825 -0.77904603837582154 -0.72675409386597078 -0.74702530392357691 -0.78929013468604781 -0.73071565639630764 -0.7501230384306149 -0.77397676698516005 -0.69447673706913271 -0.73922627473602209 -0.75289445849645109 -0.74811793866633158 -0.72943753317504911 -0.72939950690462119 -0.69493215623670124 -0.71052488985581586 -0.71901653524364151 -0.67370467508829079
leaf_weight=26.19734525680542 92.439203977584839 31.436814308166504 41.915752410888672 80.089026927947998 43.786991357803345 28.817079782485962 25.074601888656616 96.930177450180054 146.70513343811035 40.793009042739868 13.472920417785643 11.975929260253904 39.670265674591064 51.271947145462036 15.344159364700316 139.96867322921753 7.8592035770416251 33.682301044464111 22.08061957359314 13.472920417785643 19.086637258529663 9.7304425239562971 12.724424839019774
leaf_count=70 247 84 112 214 117 77 67 259 392 109 36 32 106 137 41 374 21 90 59 36 51 26 34
internal_value=-0.738968 -0.720754 -0.752993 -0.743319 -0.733757 -0.749707 -0.742187 -0.735212 -0.741382 -0.766331 -0.764962 -0.715253 -0.761548 -0.705485 -0.764728 -0.757773 -0.71275 -0.710321 -0.7085 -0.720658 -0.727058 -0.692885 -0.689485
internal_weight=1044.53 454.337 590.189 343.559 246.629 269.084 168.786 128.367 175.522 246.629 93.5619 77.8435 205.836 207.708 40.4188 179.639 133.981 126.122 65.8676 74.4753 61.0024 73.7268 63.9964
internal_count=2791 1214 1577 918 659 719 451 343 469 659 250 208 550 555 108 480 358 337 176 199 163 197 171
is_linear=0
shrinkage=1


Tree=1
num_leaves=20
num_cat=0
split_feature=63 77 63 47 38 58 78 56 5 24 15 56 41 80 65 56 8 66 88
split_gain=12.0474 6.67251 7.66219 7.91936 7.76471 6.67636 6.02437 5.4573 5.22508 4.96347 4.79548 4.43228 4.28209 4.27349 3.9037 3.68805 3.82514 3.54521 2.62421
threshold=12.612500000000002 0.83333333333333337 14.15 0.90000000000000036 5.6750000000000007 2.3166666666666669 1.2500000000000002 1.0637637950000003 14.833333333333334 2.1000000000000005 12.16666666666667 1.2227877000000003 1.8274398000000003 1.4500000000000002 2.7086685000000004 1.6728286000000003 1.4570330000000002 0.67299750000000014 1.0000000180025095e-35
decision_type=2 2 2 2 2 2 2 2 2 2 2 2 2 2 2 2 2 2 2
left_child=6 12 3 11 -5 13 7 10 14 -10 17 -3 -2 -4 -9 16 18 -1 -8
right_child=1 2 5 4 -6 -7 15 8 9 -11 -12 -13 -14 -15 -16 -17 -18 -19 -20
leaf_value=-1.5620772544223176 -1.5597847990265405 -1.5444185077885249 -1.5672955496672309 -1.5356126533672998 -1.5847037865631208 -1.5332292827676963 -1.577064218963421 -1.5779261863022715 -1.5455505684839839 -1.5839292263634577 -1.5563922350984003 -1.4759204138030055 -1.6093816402808887 -1.6032194508770303 -1.6032194508770303 -1.5546276755367727 -1.6162605131789178 -1.5988672301654958 -1.5944462085773456
leaf_weight=6.1340767890214911 5.888713717460635 7.851618289947508 15.948599651455881 15.703236579895021 14.23105815052986 7.3608921468257895 26.253848657011986 322.16171295940876 23.06412872672081 11.286701291799544 7.8516182899475089 5.6433506458997726 11.286701291799544 15.457873508334158 15.457873508334158 5.3979875743389121 16.930051937699318 69.19238618016243 81.705902829766273
leaf_count=25 24 32 65 64 58 30 107 1313 94 46 32 23 46 63 63 22 69 282 333
internal_value=-1.57979 -1.56373 -1.55773 -1.54332 -1.55947 -1.57476 -1.58252 -1.57979 -1.57721 -1.55876 -1.59134 -1.5113 -1.59088 -1.58428 -1.57919 -1.59198 -1.59389 -1.59544 -1.59
internal_weight=684.808 99.372 82.1966 43.4293 29.9343 38.7674 585.436 455.148 371.97 34.3508 83.1781 13.495 17.1754 31.4065 337.62 130.288 124.89 75.3265 107.96
internal_count=2791 405 335 177 122 158 2386 1855 1516 140 339 55 70 128 1376 531 509 307 440
is_linear=0
shrinkage=1


Tree=2
num_leaves=24
num_cat=0
split_feature=86 86 42 65 9 46 17 50 35 9 78 45 72 18 34 42 87 65 65 83 36 20 83
split_gain=102.532 33.2301 32.6964 18.5118 17.5895 12.7273 12.3551 12.0505 11.0398 10.3702 10.2308 8.92761 6.3112 6.11889 6.06215 5.74082 5.0816 4.42051 4.06551 3.68724 3.62456 3.43646 1.95329
threshold=-0.19999999999999982 -2.0333333333333328 1.0322498333333334 2.4244640000000004 2.5000000000000004 1.7000000000000004 1.8376483333333338 15.707142857142857 0.50000000000000011 2.5000000000000004 -1.5833333333333328 -0.19999999999999982 1.5833333333333337 1.6450685000000003 2.7000000000000006 0.7061012000000001 0.57500000000000018 2.0038730000000009 2.0850237500000008 1.9000000000000001 18.450000000000003 0.85318916666666678 1.4500000000000002
decision_type=2 2 2 2 2 2 2 2 2 2 2 2 2 2 2 2 2 2 2 2 2 2 2
left_child=1 7 5 4 20 11 9 12 -5 14 -6 15 17 -11 -4 -2 19 -1 -7 -8 -3 -10 -13
right_child=2 3 6 8 10 18 16 -9 21 13 -12 22 -14 -15 -16 -17 -18 -19 -20 -21 -22 -23 -24
leaf_value=-1.1054151607982723 -1.1772751182503576 -1.1269441520247294 -1.1641773696699691 -1.1538430742098096 -1.1355185913898171 -1.1823317126172734 -1.112686331164384 -1.1516531556899152 -1.0720793443678278 -1.1819344266710217 -1.161395797467492 -1.0898492209965023 -1.1389341228665646 -1.1512527977450884 -1.1176272943831438 -1.1237923250018125 -1.1657897097176209 -1.0742653386180376 -1.1381390835667069 -1.1538430742098096 -1.1590138915838466 -1.1244645574443315 -1.1236054419507571
leaf_weight=48.33891823887825 8.4349790215492266 110.30357182025909 94.082458317279816 7.1372899413108852 52.556407749652863 13.950157612562181 13.30131307244301 12.003623992204664 15.572268962860109 254.34705972671509 133.01313072443008 15.896691232919695 11.030357182025908 19.140913933515549 6.8128676712512961 10.705934911966322 14.274579882621763 23.033981174230576 6.8128676712512961 7.1372899413108817 8.1105567514896375 6.8128676712512961 12.652468532323836
leaf_count=149 26 340 290 22 162 43 41 37 48 784 410 49 34 59 21 33 44 71 21 22 25 21 39
internal_value=-1.15083 -1.13307 -1.16675 -1.14061 -1.14442 -1.13506 -1.17213 -1.10687 -1.10302 -1.17478 -1.15391 -1.12075 -1.10008 -1.17988 -1.16064 -1.14871 -1.14423 -1.09455 -1.1667 -1.12798 -1.12938 -1.08601 -1.10322
internal_weight=905.463 427.913 477.55 333.506 303.984 68.4531 409.096 94.4069 29.5224 374.383 185.57 47.6901 82.4033 273.488 100.895 19.1409 34.7132 71.3729 20.763 20.4386 118.414 22.3851 28.5492
internal_count=2791 1319 1472 1028 937 211 1261 291 91 1154 572 147 254 843 311 59 107 220 64 63 365 69 88
is_linear=0
shrinkage=1


Tree=3
num_leaves=24
num_cat=0
split_feature=86 67 33 43 55 86 32 77 73 44 56 58 86 71 8 8 84 87 18 86 82 82 28
split_gain=95.4765 32.4074 27.0661 18.185 14.4496 12.0591 10.0639 9.88085 10.3361 7.57042 7.09037 6.81535 6.10494 5.7102 5.18268 4.97266 4.51928 5.47511 4.40856 3.86719 3.77432 3.5766 1.73739
threshold=1.0000000180025095e-35 7.5000000000000009 2.5000000000000004 4.5000000000000009 1.9496980000000004 -1.2249999999999999 0.78575433333333344 0.58333333333333337 0.58333333333333337 1.1652888000000001 1.2842264000000003 2.3166666666666669 1.7750000000000001 1.7 1.2001482500000002 1.3314616666666668 2.9000000000000004 0.92500000000000004 0.69395116666666679 -1.7416666666666665 1.4500000000000002 0.29166666666666669 6.5500000000000007
decision_type=2 2 2 2 2 2 2 2 2 2 2 2 2 2 2 2 2 2 2 2 2 2 2
left_child=2 12 11 15 7 9 -7 14 -9 -5 13 18 16 -6 -3 21 17 -2 -1 -20 -13 -4 -14
right_child=1 4 3 5 10 6 -8 8 -10 -11 -12 20 22 -15 -16 -17 -18 -19 19 -21 -22 -23 -24
leaf_value=-0.044356976772211718 0.03347587099856951 0.0082386752052898537 -0.019229278583735347 -0.030618871740925202 0.037674797925877947 0.024211594309123886 -0.0077825150481381031 0.019798814664467423 -0.016569703746088946 0.0082620768524049003 -0.010973049204093879 -0.047784954142786967 0.037604222057900413 0.0022533931943415513 0.05520987483080611 0.045547682775743704 -0.0092427362229826789 0.0086668933668837805 -0.029411537560579605 -0.012659870974038751 -0.0050269017224372587 0.01560934081001979 0.061081289551394649
leaf_weight=19.755177527666092 92.590439885854721 30.695493161678314 7.4854625463485709 79.87232694029808 49.09820419549942 28.843882858753204 146.63787245750427 22.83253014087677 107.7395778298378 13.471926152706144 11.97139713168144 45.487423986196518 56.612952083349228 16.853143006563187 7.4915643334388724 13.117182523012159 7.8601649999618521 33.71545222401619 56.309693276882172 116.9558000266552 7.4623494148254386 53.930020332336426 17.247782737016678
leaf_count=53 247 82 20 214 131 77 392 61 288 36 32 122 151 45 20 35 21 90 151 313 20 144 46
internal_value=0 0.0172005 -0.0132795 -0.00411163 0.00480431 -0.0102297 -0.00232774 -0.0032986 -0.00996811 -0.0247269 0.0225809 -0.0259416 0.0317336 0.0290845 0.0186942 0.0175429 0.0247691 0.0271109 -0.0212189 -0.0183168 -0.0423301 0.0108384 0.0437966
internal_weight=1044.04 454.709 589.329 343.359 246.682 268.826 175.482 168.759 130.572 93.3443 77.9227 245.97 208.027 65.9513 38.1871 74.5327 134.166 126.306 193.021 173.265 52.9498 61.4155 73.8607
internal_count=2791 1214 1577 918 659 719 469 451 349 250 208 659 555 176 102 199 358 337 517 464 142 164 197
is_linear=0
shrinkage=0.05


Tree=4
num_leaves=21
num_cat=0
split_feature=63 29 52 86 78 64 39 47 58 12 15 40 63 7 31 83 39 72 15 82
split_gain=11.0078 6.85129 6.73994 8.21785 5.72108 5.48487 6.47167 6.45121 5.48321 7.75609 7.76127 6.02236 4.83714 4.80678 4.79745 3.78321 3.49532 3.3147 2.59325 0.938209
threshold=12.612500000000002 14.675000000000002 6.3500000000000005 -0.92499999999999993 0.083333333333333481 2.3166666666666669 9.6750000000000025 0.90000000000000036 2.4500000000000006 13.833333333333334 13.16666666666667 2.2250000000000005 15.563492063492065 1.7762500000000003 2.969583333333333 2.3666666666666667 14.900000000000002 1.5833333333333337 13.500000000000002 1.2250000000000003
decision_type=2 2 2 2 2 2 2 2 2 2 2 2 2 2 2 2 2 2 2 2
left_child=1 5 3 -3 -5 14 -7 -8 9 10 11 -2 -12 -11 15 -1 18 -15 -10 -4
right_child=8 2 19 4 -6 6 7 -9 16 13 12 -13 -14 17 -16 -17 -18 -19 -20 -21
leaf_value=-0.0025226175334523101 0.015985915234738836 0.07922535244774967 0 -0.0149925120605378 0.036406181762183097 -0.016859712821810702 -0.0019176028913738118 0.050854449329226739 0.021205010111321212 0.035112215799302696 0.02073034431794429 0.087371957644124129 -0.023940092218353585 0 -0.034776643574773461 -0.01443182314355774 0.0035094508896593834 -0.031887459635850025 0.077651393680449377 -0.026354363286217299
leaf_weight=420.44440470635891 7.1767195314168912 6.4682145267725017 5.6750526279211027 8.6034930646419543 11.561313450336455 9.3026172369718569 8.1246603578329104 13.996444165706633 5.7419012188911456 5.2616250962018958 20.890538170933727 6.7923223376274109 7.5968008488416663 20.496489360928535 13.267494633793829 81.081601053476334 5.9762068241834632 13.970881804823874 6.5492088198661804 5.6416337490081787
leaf_count=1718 29 26 23 35 47 38 33 57 23 21 84 27 31 83 55 331 24 57 26 23
internal_value=0 -0.00262301 0.0176607 0.0314997 0.0134345 -0.00409286 0.0158315 0.0307531 0.0152562 0.00922394 0.0240816 0.0542444 0.00774804 -0.00613422 -0.00537177 -0.00451023 0.0400946 -0.0135577 0.0550961 -0.0127474
internal_weight=684.62 584.167 37.9497 26.633 20.1648 546.217 31.4237 22.1211 100.453 82.1854 42.4564 13.969 28.4873 39.729 514.794 501.526 18.2673 34.4674 12.2911 11.3167
internal_count=2791 2386 154 108 82 2232 128 90 405 332 171 56 115 161 2104 2049 73 140 49 46
is_linear=0
shrinkage=0.05


Tree=5
num_leaves=24
num_cat=0
split_feature=86 42 86 33 17 46 17 41 33 62 82 45 41 18 86 42 63 87 85 71 78 39 17
split_gain=92.0762 30.3494 28.921 14.8804 13.5819 11.5571 11.3687 10.0785 9.7601 9.32972 8.41508 8.10823 6.85958 5.77712 5.76836 5.37487 4.79873 4.65636 4.57398 3.88714 2.85326 2.2232 1.50554
threshold=-0.19999999999999982 1.0322498333333334 -2.0333333333333328 4.5000000000000009 3.2230266666666672 1.7000000000000004 1.8376483333333338 1.9353131000000001 2.5000000000000004 7.8166666666666673 1.5500000000000003 -0.19999999999999982 1.838916 1.6450685000000003 -0.08333333333333319 0.7061012000000001 12.414285714285716 0.57500000000000018 2.5500000000000003 1.3166666666666673 0.33333333333333309 11.900000000000002 2.2307875000000004
decision_type=2 2 2 2 2 2 2 2 2 2 2 2 2 2 2 2 2 2 2 2 2 2 2
left_child=2 5 10 7 9 11 8 18 14 -5 12 15 16 -10 -3 -2 -1 20 -4 -7 -8 -13 -19
right_child=1 6 3 4 -6 19 17 -9 13 -11 -12 21 -14 -15 -16 -17 -18 22 -20 -21 -22 -23 -24
leaf_value=0.039870519732548217 -0.025947585270377084 0.015996005153446274 0.019671522958777152 -0.0038367472902756262 0.069128839017097848 -0.03068615852486592 0.0005923331316701687 0.056638532402796593 -0.030107946536511394 0.040042268019481707 -0.0089096854414118781 0.057807287142064671 0.06409495669520747 -0.00021896133614801062 -0.014938722885000406 0.025803966892505099 0.00010402815839567121 0 -0.01829459867020964 0.01260264324300395 0.039949109158845184 0.023134228425036419 -0.029514140386084905
leaf_weight=46.382581442594528 8.3645431101322192 17.226341307163239 98.831355690956116 190.81734630465508 6.6433447897434226 13.745354831218721 10.511779904365541 19.234932422637939 249.97297078371048 12.403712898492811 6.9057672917842856 17.187285661697391 32.758367419242859 19.095764875411987 83.045041739940643 10.822423189878462 10.569009959697722 6.7974877059459669 7.5534266829490653 6.8184144198894492 10.152804315090178 11.881353259086607 7.3968065083026886
leaf_count=140 26 53 301 588 20 43 32 58 784 38 21 52 98 59 258 33 32 21 23 21 31 36 23
internal_value=0 -0.0152386 0.0166713 0.00960132 0.00131424 0.0151636 -0.020489 0.0231877 -0.0230776 -0.000944146 0.0407874 0.0286334 0.0449183 -0.0280838 -0.00932314 0.00188703 0.032991 0.00616958 0.016669 -0.0151874 0.0215971 0.0451115 -0.0145596
internal_weight=905.118 473.018 432.1 335.484 209.864 68.8194 404.199 125.62 369.34 203.221 96.6157 48.2556 89.71 269.069 100.271 19.187 56.9516 34.8589 106.385 20.5638 20.6646 29.0686 14.1943
internal_count=2791 1472 1319 1028 646 211 1261 382 1154 626 291 147 270 843 311 59 172 107 324 64 63 88 44
is_linear=0
shrinkage=0.05


Tree=6
num_leaves=24
num_cat=0
split_feature=19 82 57 55 65 87 56 42 82 21 69 69 44 55 18 65 42 42 59 83 83 82 5
split_gain=68.9521 39.9887 30.9469 20.9304 15.8014 12.695 11.9844 9.50464 8.64211 7.96359 6.30514 5.96397 5.15728 4.6897 4.36885 4.86472 4.78276 4.02149 4.08477 3.68192 3.49057 3.27731 1.63857
threshold=1.0000000180025095e-35 1.1000000000000003 5.5000000000000009 1.9496980000000004 1.9539015500000003 -0.68333333333333324 1.2842264000000003 0.84127866666666684 0.29166666666666669 -2.8333333333333326 0.4125000000000002 -0.29999999999999966 1.2371908000000005 2.0707670000000005 1.7042624166666667 1.9902399000000004 1.9983495000000002 0.97147180000000011 1.4142857142857144 0.90000000000000013 0.90000000000000013 1.4500000000000002 11.833333333333334
decision_type=2 2 2 2 2 2 2 2 2 2 2 2 2 2 2 2 2 2 2 2 2 2 2
left_child=2 10 5 4 7 -1 11 -3 -4 -6 14 -5 -8 20 15 -2 -16 -12 -19 -7 -10 -21 -15
right_child=1 3 8 6 9 19 12 -9 13 -11 17 -13 -14 22 16 -17 -18 18 -20 21 -22 -23 -24
leaf_value=-0.031313571732231531 -0.026200015956811359 -0.026465983497921348 -0.014383529903992399 0.00091614059165699669 0.017545652249646857 0.018800114194721777 -0.028785551500342118 0.0032383851392750957 0.037875487719828432 -0.029753780358263329 -0.032748562197112085 0.031394157355173861 0.018504760892552093 0.053604100699232542 0.017716847297286797 -0.046179435520395745 -0.032312508390874767 0.019480857946416862 -0.01974917054737408 -0.0089695774572116724 0.021386980207588155 0.015964686359938984 0.023013004806670453
leaf_weight=27.570777177810669 130.66650769114494 30.203130125999451 9.7249757051467878 22.458329498767853 8.9528928399085981 38.202113837003708 17.185838967561725 217.20798927545547 58.104018747806549 82.065654456615448 9.7056426107883436 76.798127055168152 7.4834937155246726 32.609661787748337 9.6704523861408251 48.56381294131279 8.1933616995811445 16.4454500079155 10.073979258537291 40.744629114866257 111.32401245832443 18.722204387187958 10.119927287101744
leaf_count=74 351 81 26 60 24 102 46 581 155 220 26 205 20 87 26 131 22 44 27 109 297 50 27
internal_value=0 -0.00908957 0.0181775 -0.000511976 -0.00700248 -0.00150678 0.016969 -0.000333048 0.029379 -0.0247576 -0.0259429 0.0247878 -0.013364 0.0315316 -0.0294949 -0.0318661 -0.00412311 -0.0057981 0.00356353 0.00676929 0.0272835 -0.000634858 0.0472873
internal_weight=1042.8 695.675 347.122 462.355 338.43 125.24 123.926 247.411 221.883 91.0185 233.319 99.2565 24.6693 212.158 197.094 179.23 17.8638 36.2251 26.5194 97.6689 169.428 59.4668 42.7296
internal_count=2791 1864 927 1237 906 335 331 662 592 244 627 265 66 566 530 482 48 97 71 261 452 159 114
is_linear=0
shrinkage=0.05


Tree=7
num_leaves=23
num_cat=0
split_feature=39 30 39 60 11 80 37 59 39 56 78 45 25 81 29 80 50 70 36 61 3 82
split_gain=9.49888 8.80127 5.20569 6.68044 5.20414 4.92607 5.06759 4.6444 5.07381 5.06557 4.51526 3.74225 3.11853 3.79082 2.859 9.52352 3.41317 4.12858 2.66338 2.4534 2.35913 2.27293
threshold=13.675000000000002 1.6333333333333335 14.700000000000001 15.350000000000003 2.5000000000000004 1.9000000000000001 5.3000000000000016 0.63333333333333341 9.3000000000000025 1.1472552000000003 -0.33333333333333331 0.39999999999999991 0.90000000000000013 1.4500000000000002 8.4500000000000011 1.7750000000000001 15.21111111111111 1.2500000000000002 17.100000000000005 7.1500000000000012 7.166666666666667 2.1000000000000005
decision_type=2 2 2 2 2 2 2 2 2 2 2 2 2 2 2 2 2 2 2 2 2 2
left_child=1 14 5 12 7 6 -2 8 -3 -9 -8 -6 -4 -14 15 20 17 -16 -5 -18 -1 -17
right_child=2 4 3 18 11 -7 10 9 -10 -11 -12 -13 13 -15 16 21 19 -19 -20 -21 -22 -23
leaf_value=0.006664161606379628 0.074354854042020552 -0.01520407492071494 -0.028398300941618965 0.051172519205249095 0.057198062744187365 0 -0.00067319717938231591 -0.0047500400329580743 0.018743512129290818 0.0094408849358016151 0.055283366704928297 0 0.026029444487016364 -0.013101148661264687 -0.012935897980024575 -0.037426366371461579 -0.02918643302164883 0.027322458022073334 0.00087022110244943307 0.003295970665015214 0.058906993696688795 0
leaf_weight=5.5968770235776919 8.8789325356483513 12.449288621544836 10.270561084151266 8.5451998263597471 6.497390463948248 7.4643342196941367 7.7979960590600994 316.71662244200706 56.12183740735054 77.20488178730011 5.082600355148311 5.6363071501255035 10.436474844813349 13.133974090218542 44.202166944742203 9.9426332116126996 50.385054543614388 6.6482941806316367 5.2157666832208625 4.9252425730228415 5.4057409763336182 5.7552600651979438
leaf_count=23 35 51 42 34 26 30 31 1296 227 315 20 23 42 53 181 41 207 27 21 20 22 24
internal_value=0 -0.00207665 0.0165287 0.00557199 0.0010624 0.0331408 0.0449429 0.000143029 0.0121528 -0.00189693 0.0207792 0.032734 -0.00581858 0.00336718 -0.0134398 0.000289532 -0.0171124 -0.0069708 0.0345586 -0.0258424 0.0359501 -0.0234996
internal_weight=684.313 607.488 76.8258 47.602 474.626 29.2239 21.7595 462.493 68.5711 393.922 12.8806 12.1337 33.841 23.5704 132.861 26.7005 106.161 50.8505 13.761 55.3103 11.0026 15.6979
internal_count=2791 2483 308 192 1938 116 86 1889 278 1611 51 49 137 95 545 110 435 208 55 227 45 65
is_linear=0
shrinkage=0.05


Tree=8
num_leaves=24
num_cat=0
split_feature=87 72 42 65 87 68 53 63 33 39 81 22 41 65 54 10 7 65 59 8 10 10 2
split_gain=62.963 26.5345 25.1631 21.8392 14.9408 13.8453 12.2361 10.4445 9.09075 8.86508 7.56224 6.58572 6.48438 5.35355 6.00893 5.1569 5.31871 4.47528 4.26616 3.73196 3.7119 3.098 3.00226
threshold=-0.28333333333333333 1.5833333333333337 1.0508981000000002 1.9970185 0.43333333333333351 0.87580709999999995 11.121428571428572 9.8166666666666682 2.5000000000000004 11.300000000000002 1.2250000000000003 1.4166666666666672 1.8806343333333337 1.5531569500000002 1.9500000000000002 2.166666666666667 2.1985675000000007 2.0653404000000006 1.6333333333333335 1.0516641666666671 2.416666666666667 1.5000000000000002 18.833333333333339
decision_type=2 2 2 2 2 2 2 2 2 2 2 2 2 2 2 2 2 2 2 2 2 2 2
left_child=1 3 5 6 8 13 22 12 20 -10 -8 -5 -3 -2 -15 21 -17 18 -6 -7 -4 -9 -1
right_child=2 7 4 11 17 19 10 15 9 -11 -12 -13 -14 14 -16 16 -18 -19 -20 -21 -22 -23 -24
leaf_value=-0.02661399395802342 0.0010848480295220064 -0.0036896270588886353 0.0020095504503283438 0.058436037228413333 -0.028132517266633905 -0.023458779516836614 0 -0.0055284666842030823 0.0092319881687239879 -0.020408895001268072 0.026373079945146146 0.010655841118145541 0.054769568909450818 0.050801532159222874 0.0041030183808969762 0.014723928228496625 -0.034383953728565647 0.005956110790261592 0.0046251309846834119 0.0069558434447013363 0.033370865113150842 -0.03116191219441497 0.0061454338692431033
leaf_weight=17.513211041688923 14.240729033946989 7.1894964873790768 68.097947895526886 50.194932699203491 202.51385992765427 21.516731411218643 35.285786598920822 22.487940907478333 30.628264278173447 115.38865035772324 139.80666017532349 10.259287118911741 9.9936063289642316 28.274995595216751 10.772239953279493 24.39586773514748 6.4631318747997275 9.6174683272838575 8.9486115574836713 16.528873085975647 10.928724080324171 33.64139586687088 9.4553383290767652
leaf_count=54 43 22 209 148 644 67 108 69 95 363 421 31 30 85 33 74 20 30 28 51 33 104 29
internal_value=0 0.0159547 -0.0109021 0.0244315 -0.0158207 0.012806 0.0162854 -0.00518284 -0.00657765 -0.0140106 0.0211684 0.0508916 0.0294835 0.0292641 0.0387654 -0.0124457 0.00325728 -0.0250805 -0.0266207 -0.00967777 0.00684346 -0.021473 -0.0143154
internal_weight=904.144 366.687 537.457 262.515 446.124 91.3336 202.061 104.171 225.044 146.017 175.092 60.4542 17.1831 53.288 39.0472 86.9883 30.859 221.08 211.462 38.0456 79.0267 56.1293 26.9685
internal_count=2791 1110 1681 791 1402 279 612 319 700 458 529 179 52 161 118 267 94 702 672 118 242 173 83
is_linear=0
shrinkage=0.05


Tree=9
num_leaves=24
num_cat=0
split_feature=86 67 57 43 55 86 32 77 73 41 44 56 11 7 86 39 71 8 85 78 82 86 79
split_gain=78.3249 26.6992 22.5852 14.9556 12.15 10.3126 9.07164 8.93993 9.52518 7.88612 6.68557 6.14741 6.04362 5.78537 5.4573 5.35691 5.217 4.80522 4.16443 4.42302 3.88575 2.59933 1.70394
threshold=1.0000000180025095e-35 7.5000000000000009 5.5000000000000009 4.5000000000000009 1.9496980000000004 -1.2249999999999999 0.78575433333333344 0.58333333333333337 0.58333333333333337 1.9892166666666669 1.1652888000000001 1.2842264000000003 0.50000000000000011 1.7726095000000004 1.7750000000000001 11.550000000000002 1.7 1.2001482500000002 0.45000000000000007 1.9166666666666672 2.5500000000000003 -1.45 2.416666666666667
decision_type=2 2 2 2 2 2 2 2 2 2 2 2 2 2 2 2 2 2 2 2 2 2 2
left_child=2 14 9 13 7 10 -7 17 -9 12 -5 16 -1 -4 18 -14 -6 -3 19 -2 -20 -15 -16
right_child=1 4 3 5 11 6 -8 8 -10 -11 -12 -13 15 21 22 -17 -18 -19 20 -21 -22 -23 -24
leaf_value=-0.042400440635119253 0.016339891453356202 0.0076658452209954625 0.037614131462408405 -0.028227076276236576 0.034859951799299654 0.023364446000487368 -0.0070297346752348812 0.019050507863885555 -0.015855562643467408 -0.04436489284251257 0.008295164503181178 -0.010578721613611704 -0.010356027715627139 -0.018952121406301915 0.043432063348386576 -0.030464770179482188 0.001040554517094477 0.052907826308192553 0.030825332163295874 -0.023938010449825017 -0.0036297255054336557 0.01138360499253111 0.015190304464399723
leaf_weight=25.867555916309357 30.734178453683853 30.696369826793671 22.107809394598007 78.94417080283165 49.077025800943375 28.844986647367477 146.0482462644577 22.834061086177826 107.50719827413559 39.945934236049652 13.458811759948729 11.958296954631804 133.87865576148033 7.4763528108596793 63.968712240457535 47.509445250034332 16.864596962928772 7.4976885318756095 88.054145902395248 7.8691855370998374 7.4979442954063407 42.728158950805664 9.7392872869968397
leaf_count=70 82 82 59 213 131 77 391 61 288 109 36 32 360 20 171 128 45 20 235 21 20 114 26
internal_value=0 0.0155565 -0.0120832 -0.00361636 0.00428787 -0.00913475 -0.001822 -0.00313959 -0.00949998 -0.0235832 -0.0226224 0.0205935 -0.0193603 0.0163612 0.0287538 -0.0158297 0.0266598 0.0177621 0.0221729 0.00728892 0.0278566 0.00623068 0.0401648
internal_weight=1041.11 454.299 586.81 339.609 246.435 267.296 174.893 168.535 130.341 247.202 92.403 77.8999 207.256 72.3123 207.863 181.388 65.9416 38.1941 134.155 38.6034 95.5521 50.2045 73.708
internal_count=2791 1214 1577 910 659 717 468 451 349 667 249 208 558 193 555 488 176 102 358 103 255 134 197
is_linear=0
shrinkage=0.05


Tree=10
num_leaves=24
num_cat=0
split_feature=39 30 0 29 56 24 39 62 80 60 60 25 81 29 80 60 55 60 26 13 82 3 58
split_gain=8.64626 8.21942 5.09094 5.94895 5.57619 4.959 4.70444 8.41311 6.31813 6.16772 4.7976 2.97924 3.51184 2.7416 8.89409 3.37956 3.55752 2.6777 3.43061 2.37918 2.22115 1.99112 1.92834
threshold=13.675000000000002 1.6333333333333335 2.8333333333333335 14.550000000000002 1.2227877000000003 2.2250000000000005 14.700000000000001 6.5500000000000007 1.9000000000000001 15.350000000000003 12.750000000000002 0.90000000000000013 1.4500000000000002 8.4500000000000011 1.7750000000000001 14.350000000000003 1.3918438000000002 14.750000000000002 14.100000000000001 6.166666666666667 2.1000000000000005 7.166666666666667 1.7250000000000003
decision_type=2 2 2 2 2 2 2 2 2 2 2 2 2 2 2 2 2 2 2 2 2 2 2
left_child=1 13 3 5 -5 -3 7 8 10 11 -2 -8 -13 14 21 22 -17 -4 -19 -11 -16 -1 -15
right_child=6 2 17 4 -6 -7 9 -9 -10 19 -12 12 -14 15 20 16 -18 18 -20 -21 -22 -23 -24
leaf_value=0.006706957702201647 0.018429074225472034 -0.00086008288608875301 0.011852537260756449 0.01025686862512061 0.061545899437622544 0.017203665097361424 -0.028040277651960134 -0.018878486628349834 0 0.05412042088822662 0.078962600901271537 0.024681755683291152 -0.012857518988969344 -0.0085355317676471826 -0.036997357732620972 0.0067839355287868984 -0.023031999800883843 0.012872571127205468 -0.02827861809215548 0.0079270635329438868 0 0.055106351399733459 0.030928301511035539
leaf_weight=5.5923077464103716 6.7702542990446188 361.73513713479042 5.9154085367918006 24.179086387157444 7.1431553661823264 41.757765531539917 10.132300868630407 5.7447350025176993 5.9671066999435416 6.6884433478116971 11.340612158179281 10.614588335156443 13.058416917920111 5.3686685562133771 9.6981866955757123 9.7006839811801893 84.89805381000042 4.8964146822690955 29.030816242098808 7.3529409319162369 5.7333319932222357 5.6043845564126968 4.9249936640262604
leaf_count=23 26 1476 24 97 28 172 42 23 24 26 43 42 53 22 41 40 353 20 121 29 24 22 20
internal_value=1.14467e-05 -0.00196862 0.00105099 0.00267386 0.0235224 0.000966443 0.0156986 0.0312964 0.0444253 0.00523634 0.0587802 -0.00577557 0.00310263 -0.0130184 0.000416182 -0.016652 -0.019692 -0.0158538 -0.0215128 0.0327543 -0.0229709 0.0343902 0.00858778
internal_weight=683.848 606.178 474.658 434.815 31.3222 403.493 77.6694 29.8227 24.078 47.8467 18.1109 33.8053 23.673 131.521 26.6282 104.892 94.5987 39.8426 33.9272 14.0414 15.4315 11.1967 10.2937
internal_count=2791 2483 1938 1773 125 1648 308 116 93 192 69 137 95 545 110 435 393 165 141 55 65 45 42
is_linear=0
shrinkage=0.05


Tree=11
num_leaves=24
num_cat=0
split_feature=86 86 42 65 9 46 78 65 35 82 41 81 65 21 74 26 34 20 46 7 42 26 58
split_gain=76.2135 27.7112 20.02 19.2495 20.6412 9.25556 8.84028 8.34235 7.42652 7.04594 6.4952 6.33227 5.95454 4.98874 4.47921 4.12118 3.90495 3.44706 3.43092 2.65188 1.27131 0.542765 0.219106
threshold=1.0000000180025095e-35 -2.0333333333333328 1.0545463000000004 2.5880490000000003 2.5000000000000004 2.100000000000001 -1.5833333333333328 2.0435776000000003 0.50000000000000011 1.5500000000000003 1.9353131000000001 0.90000000000000013 2.0038730000000009 -0.83333333333333304 0.83333333333333337 15.550000000000002 2.1000000000000005 1.0583483333333332 -0.49999999999999989 2.1670213333333339 0.73962106666666683 15.100000000000001 2.2250000000000005
decision_type=2 2 2 2 2 2 2 2 2 2 2 2 2 2 2 2 2 2 2 2 2 2 2
left_child=1 9 5 4 10 11 -6 14 -5 12 -3 17 15 -13 16 -1 -4 -2 -16 -9 -7 -10 -14
right_child=2 3 7 8 6 20 -8 19 21 -11 -12 13 22 -15 18 -17 -18 -19 -20 -21 -22 -23 -24
leaf_value=0.034437448357479687 0.017476610197252596 0.013741573234364297 -0.015562003957931923 0 0.012024189655105396 -0.0041748483857641846 -0.010634864661316717 -0.0043695265333398223 0.076101610944443843 -0.0091616339549860266 0.0450959815463675 0 0.042769401784919024 0.05182092900348495 0.0002222329007399205 -0.0015801295338542045 0.021475624681325384 -0.024792979782189074 -0.027435682811938113 0.031206314725386014 -0.040823137821185067 0.038217133537101752 0.06827526247676835
leaf_weight=54.286181956529617 10.626855880022051 139.01422461867332 33.873451381921768 6.6115279793739345 54.863828152418137 6.3376737833023054 183.38607960939407 11.763313829898836 11.635433942079546 6.9220748841762534 19.619303494691849 7.5706811249256125 13.618409603834154 17.536698848009113 9.8503953218460065 7.7071630656719199 8.0552313625812513 7.9907017946243277 253.33094358444214 7.6697272956371298 6.607952356338501 6.7829172611236563 17.197668731212616
leaf_count=159 32 417 108 20 167 20 571 36 34 21 57 23 39 52 31 23 25 25 817 24 21 20 49
internal_value=0 0.0124014 -0.0169935 0.00670535 0.00392454 0.0100558 -0.00529801 -0.0218019 0.0488793 0.0360952 0.017906 0.0213366 0.0397696 0.0374759 -0.0238471 0.0295828 -0.00768798 0 -0.0263072 0.00884773 -0.0255633 0.0648502 0.0586647
internal_weight=902.858 521.645 381.214 421.913 396.883 56.6706 238.25 324.543 25.0299 99.7315 158.634 43.7249 92.8094 25.1074 305.11 61.9933 41.9287 18.6176 263.181 19.433 12.9456 18.4184 30.8161
internal_count=2791 1577 1214 1286 1212 173 738 1041 74 291 474 132 270 75 981 182 133 57 848 60 41 54 88
is_linear=0
shrinkage=0.05


Tree=12
num_leaves=24
num_cat=0
split_feature=86 67 57 43 55 86 32 17 72 41 44 56 11 7 62 86 39 87 84 0 58 86 28
split_gain=70.1567 24.2694 20.3325 13.7382 11.2241 9.29132 8.45018 8.33742 8.06665 7.18582 6.24922 5.75538 5.71007 5.46121 5.38192 5.12755 4.99078 3.95528 3.97452 3.9229 3.87769 2.25 1.72762
threshold=1.0000000180025095e-35 7.5000000000000009 5.5000000000000009 4.5000000000000009 1.9496980000000004 -1.2249999999999999 0.78575433333333344 1.8064950000000002 1.1666666666666667 1.9892166666666669 1.1652888000000001 1.2842264000000003 0.50000000000000011 1.7726095000000004 5.9500000000000011 1.7750000000000001 11.550000000000002 0.92500000000000004 2.7750000000000004 2.5000000000000004 2.3166666666666669 1.3333333333333337 6.5500000000000007
decision_type=2 2 2 2 2 2 2 2 2 2 2 2 2 2 2 2 2 2 2 2 2 2 2
left_child=2 15 9 13 7 10 -7 8 -3 12 -5 20 -1 -4 -9 17 -14 18 -2 -15 -6 -19 -17
right_child=1 4 3 5 11 6 -8 14 -10 -11 -12 -13 16 19 -16 22 -18 21 -20 -21 -22 -23 -24
leaf_value=-0.040869216405851477 0.029341367180102468 -0.017113254899932633 0.036358447325075115 -0.027025758750404624 0.034248281627711707 0.02250362993122635 -0.0068276524014301166 0.0016759053784767967 0.010744941782532344 -0.042419137028314291 0.0082717733153739002 -0.01048211704100132 -0.0096679366533331118 -0.0041321795319449756 -0.035553730160353285 0.032422282653661844 -0.029122736679567537 -0.0033376262048564866 -0.0018957301573778356 0.024144421714230965 0.0067964184375828773 0.022227285904667195 0.05515958688051046
leaf_weight=25.673124760389328 89.780424922704697 35.102930724620819 22.096084594726562 78.552318722009659 43.747571587562561 28.848126173019409 145.96062541007996 12.999587148427961 93.186894804239273 39.436242699623108 13.451421916484831 11.950542420148848 133.59490802884102 31.838137894868851 27.098431497812271 56.344207167625427 47.267761588096619 22.112908273935318 9.7374638915061933 18.352162837982178 22.105784684419632 12.367411613464354 17.105512857437134
leaf_count=70 240 94 59 213 117 77 391 35 249 109 36 32 360 85 73 151 128 59 26 49 59 33 46
internal_value=-1.17873e-05 0.0147125 -0.0114739 -0.00343783 0.00396166 -0.0087373 -0.00179422 -0.00317504 0.00289136 -0.0224215 -0.021578 0.0196482 -0.0183892 0.0157049 -0.0229963 0.0273107 -0.0149565 0.0209302 0.0260408 0.00585018 0.0255306 0.00530396 0.0383927
internal_weight=1038.71 453.64 585.071 339.099 246.192 266.812 174.809 168.388 128.29 245.972 92.0037 77.8039 206.536 72.2864 40.098 207.448 180.863 133.998 99.5179 50.1903 65.8534 34.4803 73.4497
internal_count=2791 1214 1577 910 659 717 468 451 343 667 249 208 558 193 108 555 488 358 266 134 176 92 197
is_linear=0
shrinkage=0.05


Tree=13
num_leaves=22
num_cat=0
split_feature=30 39 12 75 17 10 52 34 55 86 80 74 24 84 29 37 75 55 80 60 79
split_gain=8.02238 5.65638 5.4616 4.76757 6.45064 6.37875 7.66483 7.16852 4.81139 4.63645 4.44547 4.64638 3.11966 5.78458 4.15353 3.51121 6.57236 4.04848 3.06756 2.39069 1.83572
threshold=1.6333333333333335 13.675000000000002 8.8333333333333339 1.1666666666666667 2.2939200000000004 2.166666666666667 4.1714285714285726 2.7000000000000006 1.6222758000000002 1.3333333333333337 1.9000000000000001 1.1666666666666667 2.7000000000000006 0.70833333333333337 8.3000000000000025 6.7000000000000002 1.8333333333333337 1.3918438000000002 0.63333333333333341 12.750000000000002 0.33333333333333343
decision_type=2 2 2 2 2 2 2 2 2 2 2 2 2 2 2 2 2 2 2 2 2
left_child=2 3 -1 5 9 6 -2 -7 -6 -5 11 18 15 -14 -15 17 -17 -4 -3 -13 -12
right_child=1 10 12 4 8 7 -8 -9 -10 -11 20 19 13 14 -16 16 -18 -19 -20 -21 -22
leaf_value=0.037498058831401018 0.042289886109604866 0.032060592467586281 0.0041725534241743925 0.010240637761249775 0.019148085217022399 0.035828167607784171 -0.012773155995796814 -0.0098633867546470862 -0.020971032574306398 -0.012026237852870552 -0.027368876928442573 0.0093724091228152961 0.047178437743922393 0.021358275885260982 -0.017742228438467615 0.033295538564402136 -0.029214100266361384 -0.024817210491145218 -0.0025655033627078397 0.052997591532582322 0.0081602630118866957
leaf_weight=5.0701782405376425 5.9622038900852194 8.7898382842540759 12.427696943283079 232.50366632640362 8.4048435986042005 17.390170395374298 135.44691242277622 14.945591449737547 35.211320221424103 24.567517042160034 5.9683908969163877 6.1494048237800625 5.0709855407476416 8.1524288803338987 26.497055396437645 8.709489092230795 7.0564707070589057 76.588455095887184 16.851851493120193 15.044345602393149 6.3866269737482071
leaf_count=20 24 34 51 942 34 70 560 61 145 102 24 24 21 34 111 35 29 321 66 57 26
internal_value=4.31783e-05 0.00294933 -0.0101337 0.00106686 0.00491802 -0.00544957 -0.0101346 0.0141196 -0.012544 0.00799638 0.0174839 0.0246001 -0.0121009 0 -0.00765835 -0.0166059 0.00374275 -0.0204899 0.008734 0.0419998 -0.00745514
internal_weight=683.195 533.623 149.573 474.432 300.687 173.745 141.409 32.3358 43.6162 257.071 59.1905 46.8354 144.503 39.7205 34.6495 104.782 15.766 89.0162 25.6417 21.1938 12.355
internal_count=2791 2169 622 1938 1223 715 584 131 179 1044 231 181 602 166 145 436 64 372 100 81 50
is_linear=0
shrinkage=0.05


Tree=14
num_leaves=23
num_cat=0
split_feature=86 86 42 65 9 50 46 78 65 44 81 41 72 21 74 63 34 66 20 17 66 84
split_gain=68.5864 24.6904 18.6716 17.6308 18.3552 9.10658 8.59637 8.11844 7.84574 6.76428 5.72595 5.70221 4.63755 4.49818 4.25581 3.84946 3.58167 3.38306 3.23844 2.52984 1.25178 0.7526
threshold=1.0000000180025095e-35 -2.0333333333333328 1.0545463000000004 2.5880490000000003 2.5000000000000004 15.707142857142857 2.100000000000001 -1.5833333333333328 2.0435776000000003 1.0766384333333334 0.90000000000000013 1.9353131000000001 1.5833333333333337 -0.83333333333333304 0.83333333333333337 11.816666666666668 2.1000000000000005 1.4311541500000002 1.0583483333333332 2.2758975000000006 0.89809290000000008 1.1000000000000003
decision_type=2 2 2 2 2 2 2 2 2 2 2 2 2 2 2 2 2 2 2 2 2 2
left_child=1 5 6 4 11 12 10 -6 14 21 18 -3 15 -12 16 -1 -4 -16 -2 -10 -8 -5
right_child=2 3 8 9 7 -7 20 -9 19 -11 13 -13 -14 -15 17 -17 -18 -19 -20 -21 -22 -23
leaf_value=0.049614723037563958 0.017012303960427144 0.012772460500275801 -0.01486509544622161 0.034864513702531248 0.011385243410089098 -0.0042770767437870956 -0.0036137402144352584 -0.010286755438764875 0.027290085744396023 0 0 0.041939254508797201 0.0069123724042418483 0.049188387379593183 -0.027268176695323561 0.017231239400425827 0.020502542884844432 -0.0057031253931589723 -0.024076970590209607 -0.0067132640182547892 -0.040088520147718534 0.072770762858692439
leaf_weight=62.545609086751938 10.669115066528322 140.18367129564285 33.506884127855301 6.943535238504416 55.176686018705368 12.443552196025847 6.2857319414615613 182.51601195335388 9.3624467551708239 6.6358153820037833 7.5749001502990714 20.001482963562012 11.553942412137983 17.832017213106159 235.48938089609146 14.577751725912092 8.1288720965385419 23.282946109771729 7.8897459208965293 10.103669911622999 6.4785091876983643 11.839033097028731
leaf_count=178 32 417 108 20 167 37 20 571 29 20 23 57 34 52 774 42 25 74 25 31 21 34
internal_value=0 0.0116668 -0.0162857 0.00627275 0.00359695 0.0338588 0.00978297 -0.00513764 -0.0209951 0.0463154 0.0205587 0.0166891 0.0394845 0.035749 -0.0230111 0.0439661 -0.00720532 -0.025439 0 0.00866277 -0.0248246 0.0613215
internal_weight=901.021 524.417 376.604 423.296 397.878 101.121 56.73 237.693 319.874 25.4184 43.9658 160.185 88.6773 25.4069 300.408 77.1234 41.6358 258.772 18.5589 19.4661 12.7642 18.7826
internal_count=2791 1577 1214 1286 1212 291 173 738 1041 74 132 474 254 75 981 220 133 848 57 60 41 54
is_linear=0
shrinkage=0.05


Tree=15
num_leaves=24
num_cat=0
split_feature=19 82 57 32 87 66 78 20 51 82 69 18 78 66 49 81 55 7 28 83 82 28 78
split_gain=50.5648 31.0929 24.3954 19.6179 10.0943 9.85784 9.35763 8.90646 7.74176 7.31787 5.55161 5.36901 6.14613 5.57924 4.40791 4.27181 4.20274 3.67711 3.31102 2.90131 2.61148 1.91221 1.2296
threshold=1.0000000180025095e-35 1.1000000000000003 5.5000000000000009 1.0750330000000001 -0.68333333333333324 0.87573455000000011 1.6666666666666667 1.1931865000000001 5.7250000000000005 0.29166666666666669 0.29999999999999977 1.7328555000000001 -1.3333333333333333 1.8112515000000005 1.2500000000000002 1.6333333333333335 2.0707670000000005 1.9339825000000002 8.4500000000000011 0.90000000000000013 1.4500000000000002 5.5500000000000007 0.66666666666666674
decision_type=2 2 2 2 2 2 2 2 2 2 2 2 2 2 2 2 2 2 2 2 2 2 2
left_child=2 11 4 8 -1 7 -7 -5 10 -4 -3 12 15 -13 -10 -2 18 -14 -11 22 -21 -18 -6
right_child=1 3 9 5 19 6 -8 -9 14 16 -12 13 17 -15 -16 -17 21 -19 -20 20 -22 -23 -24
leaf_value=-0.028660404968433396 -0.011640662477556336 -0.016540026231200215 -0.014667731589424172 -0.038299405935418619 0.0045896697056597036 -0.0066363885292114568 0.022075317620068396 0.01075088115242176 0.025979718510872114 0.02131791099729171 0.025446088202164242 0.019315322568834767 -0.019296288436082484 -0.03295266673363216 -0.0078531591090335549 -0.038376233493524564 0.021918846373845682 0.0080777225490689507 0.052173430295715008 -0.0086155918659200706 0.013612342957039524 0.050577243271475031 0.024804554279691766
leaf_weight=27.310514479875565 22.005095690488815 26.095543563365936 9.7102606296539289 39.770118951797485 17.930037677288055 240.97274094820023 31.413535416126251 10.828123658895491 91.504493534564972 158.21319171786308 10.466778069734572 14.029888033866884 83.4520183801651 7.3528794050216666 9.306244492530821 90.443680614233017 13.399583101272581 12.68364644050598 10.413902193307875 40.619720667600632 18.681045234203339 28.945866376161575 20.179444909095764
leaf_count=74 60 70 26 108 48 648 84 29 245 424 28 38 226 20 25 249 36 34 28 109 50 78 54
internal_value=-2.93656e-05 -0.00786708 0.0155516 -0.00030623 -0.00193818 -0.00709011 -0.00319916 -0.0273108 0.0154302 0.0255311 -0.00366489 -0.0228607 -0.0253033 0 0.0225864 -0.0334404 0.0275298 -0.0154029 0.0235199 0.00540659 -0.00113998 0.0424538 0.0161238
internal_weight=1035.73 690.325 345.404 460.358 124.721 322.985 272.386 50.5982 137.373 220.683 36.5623 229.967 208.584 21.3828 100.811 112.449 210.973 96.1357 168.627 97.4102 59.3008 42.3454 38.1095
internal_count=2791 1864 927 1237 335 869 732 137 368 592 98 627 569 58 270 309 566 260 452 261 159 114 102
is_linear=0
shrinkage=0.05


Tree=16
num_leaves=20
num_cat=0
split_feature=63 29 52 86 77 63 47 54 78 64 31 41 83 36 36 37 80 66 82
split_gain=7.83475 5.90223 6.01274 6.66526 5.43683 6.45975 6.33171 5.87304 5.2694 4.67162 4.31505 3.82339 3.74014 3.38986 4.69285 3.18759 5.21937 2.98416 0.902469
threshold=12.612500000000002 14.675000000000002 6.3500000000000005 -0.92499999999999993 0.83333333333333337 14.15 0.90000000000000036 1.788888888888889 0.083333333333333481 2.3166666666666669 2.969583333333333 1.8274398000000003 2.3666666666666667 9.7000000000000011 16.300000000000001 6.7000000000000002 1.1000000000000003 1.0965330500000003 1.2250000000000003
decision_type=2 2 2 2 2 2 2 2 2 2 2 2 2 2 2 2 2 2 2
left_child=1 9 3 -3 11 6 17 -8 -5 10 12 -2 -1 -11 -15 16 -7 -6 -4
right_child=4 2 18 8 5 15 7 -9 -10 13 -12 -13 -14 14 -16 -17 -18 -19 -20
leaf_value=-0.0019704127740336245 0.016607782935613442 0.070821604538437402 0 -0.014798231629451054 0.089627254355858971 0.022283097960423482 -0.026536416069368227 0.026834993720472662 0.034347751758358566 -0.017638684446871382 -0.033539888334922559 -0.029463747926156154 -0.013875900237582416 0.039146538659860008 -0.0014648301190829012 0.029404312884190445 -0.019204421127024553 0.033062065978363107 -0.025914310605481224
leaf_weight=415.83500921726227 6.1742200255394009 6.9134806245565441 5.6680303961038572 8.5504237264394778 5.4658162593841544 10.932044476270677 5.5304145067930248 25.947173848748207 11.824704945087431 5.4501690864563015 12.43422296643257 11.205468609929083 79.928955867886543 16.017747998237613 10.440211564302443 8.4018230438232404 20.953036695718765 9.2683464735746366 5.5430487245321274
leaf_count=1718 24 26 23 35 20 42 22 100 47 22 55 46 331 64 42 32 84 35 23
internal_value=7.6732e-05 -0.00215918 0.016517 0.0293081 0.0127211 0.0179525 0.0306635 0.0164079 0.0126656 -0.00355074 -0.00475761 -0.0116916 -0.00395228 0.0146764 0.0224641 0.0025621 -0.00408373 0.0579396 -0.0124047
internal_weight=682.484 578.606 38.4997 27.2886 103.878 86.4987 46.2118 31.4776 20.3751 540.106 508.198 17.3797 495.764 31.9081 26.458 40.2869 31.8851 14.7342 11.2111
internal_count=2791 2386 154 108 405 335 177 122 82 2232 2104 70 2049 128 106 158 126 55 46
is_linear=0
shrinkage=0.05


Tree=17
num_leaves=23
num_cat=0
split_feature=86 86 42 65 9 65 50 74 44 35 41 38 87 72 26 48 0 17 29 42 17 26
split_gain=62.0612 22.2032 16.9265 16.1782 16.4522 8.74114 8.36223 7.25322 7.16071 6.61451 5.02739 4.32497 6.35494 4.19139 3.99917 3.71397 3.08423 3.04734 2.75725 2.75344 2.46255 0.397181
threshold=1.6653345369377351e-16 -2.0333333333333328 1.0322498333333334 2.5880490000000003 2.5000000000000004 2.0606152000000004 15.707142857142857 0.41666666666666669 1.0995297333333334 0.50000000000000011 1.9353131000000001 5.2250000000000005 0.77500000000000013 1.5833333333333337 13.900000000000002 2.3500000000000001 1.8333333333333337 1.5928747500000002 11.550000000000002 0.90808850000000019 2.4624292500000005 15.100000000000001
decision_type=2 2 2 2 2 2 2 2 2 2 2 2 2 2 2 2 2 2 2 2 2 2
left_child=1 6 8 4 10 11 13 -6 18 -5 -3 12 -4 14 -1 -13 -7 -10 -2 -20 -19 -11
right_child=2 3 5 9 7 16 -8 -9 17 21 -12 15 -14 -15 -16 -17 -18 20 19 -21 -22 -23
leaf_value=0.078143324201056699 0 0.011909798764056746 0.015160031167162828 0 0.0133421734518454 -0.013538498897806235 -0.0045717490082851061 -0.0091399045270120129 0.017296157011454639 0.068745834650528415 0.039131428082395649 -0.020760124100282971 -0.026686757223890707 0.0062420421006882977 0.036492583884421857 -0.035715954042542929 0.026038198950107186 -0.034610989247401268 0.046901108548496787 0.0052785417082316516 0 0.034455409578216266
leaf_weight=7.8096095919609061 7.0573287010192898 142.09606677293777 17.712339580059052 6.7245182394981411 42.698741227388382 6.5185921192169216 12.476204186677931 195.66276699304581 6.3444312214851406 12.071911692619326 20.319651544094086 198.78451025485992 17.042014867067337 11.619190216064451 70.358944475650787 63.276377111673355 12.756182998418806 11.165196776390077 15.152314931154253 7.4602548480033866 6.7172412872314444 6.9550105035305014
leaf_count=22 21 420 56 20 131 20 37 611 20 34 57 659 56 34 198 213 39 36 44 22 21 20
internal_value=0 0.0109618 -0.0157198 0.00585564 0.00329311 -0.0201582 0.0318837 -0.00498843 0.00979665 0.0439624 0.0155786 -0.0223064 -0.00473813 0.0372234 0.0414418 -0.0245277 0.0113855 -0.00953231 0.0263047 0.0346621 -0.0206222 0.058695
internal_weight=898.779 528.793 369.987 426.529 400.777 316.09 102.264 238.362 53.8968 25.7514 162.416 296.815 34.7544 89.7877 78.1686 262.061 19.2748 24.2269 29.6699 22.6126 17.8824 19.0269
internal_count=2791 1584 1207 1293 1219 1043 291 742 164 74 477 984 112 254 220 872 59 77 87 66 57 54
is_linear=0
shrinkage=0.05


Tree=18
num_leaves=24
num_cat=0
split_feature=19 82 57 32 65 44 78 51 82 75 69 18 78 66 85 82 81 13 7 78 56 80 78
split_gain=46.0691 28.1354 22.3671 18.0044 9.93259 10.8286 8.16498 7.15089 6.70125 6.33135 5.19289 5.04529 5.63464 5.24114 4.5189 4.41285 3.99955 3.84192 3.39901 2.2571 4.61208 1.16673 1.06084
threshold=1.0000000180025095e-35 1.1000000000000003 5.5000000000000009 1.0750330000000001 1.9539015500000003 1.106655366666667 1.6666666666666667 5.7250000000000005 0.29166666666666669 1.5833333333333337 0.29999999999999977 1.7328555000000001 -1.3333333333333333 1.8112515000000005 1.1000000000000003 0.90000000000000013 1.6333333333333335 3.5000000000000004 1.9339825000000002 2.7500000000000004 0.80953380000000008 0.90000000000000013 -1.0000000180025095e-35
decision_type=2 2 2 2 2 2 2 2 2 2 2 2 2 2 2 2 2 2 2 2 2 2 2
left_child=2 11 9 7 6 -6 -5 10 -4 14 -3 12 16 -13 21 -11 -2 -9 -14 20 -10 -1 -16
right_child=1 3 8 4 5 -7 -8 17 19 15 -12 13 18 -15 22 -17 -18 -19 -20 -21 -22 -23 -24
leaf_value=0.0012435981690824931 -0.010933310877290886 -0.016087241780812188 -0.014003085122331114 -0.0051880537445335414 -0.029558737689028683 0.018982525857720846 0.022341870385095882 -0.00051816991917314533 0.049104415971347341 -0.036866291233910845 0.024515768844396921 0.018990668075296105 -0.01849381716321823 -0.031743561253014328 -0.002511552343117071 0 -0.036900687123775672 0.025618452348683197 0.0077902721791073548 0.041867316731876533 0.021000581484866016 0.017674614531909646 -0.024504591696712999
leaf_weight=19.355035692453384 21.921595603227615 26.066523462533951 9.6949653923511487 209.27979406714439 70.155622363090515 12.706963717937468 30.262136965990067 14.541522085666655 17.764776825904846 18.001822471618652 10.462922424077986 14.036752521991732 83.151270776987076 7.3010551631450644 20.000226020812992 16.736865043640137 89.473667621612549 86.173300743103027 12.680153697729109 25.45910656452179 167.05624604225159 41.055397301912308 9.3125013411045057
leaf_count=52 60 70 26 563 191 34 81 39 48 49 28 38 226 20 54 45 249 231 34 69 449 110 25
internal_value=-4.28422e-05 -0.00753723 0.0148483 -0.000347345 -0.00685607 -0.0217458 -0.00156666 0.0147304 0.0244233 -0.00190467 -0.00360842 -0.0218548 -0.0242366 0.000157038 0.0049015 -0.0200132 -0.0320857 0.0216138 -0.0147341 0.0263426 0.023962 0.0128741 -0.010631
internal_weight=1032.65 688.213 344.437 459.649 322.405 82.8626 239.542 137.244 219.975 124.462 36.5294 228.564 207.227 21.3378 89.7232 34.7387 111.395 100.715 95.8314 210.28 184.821 60.4104 29.3127
internal_count=2791 1864 927 1237 869 225 644 368 592 335 98 627 569 58 241 94 309 270 260 566 497 162 79
is_linear=0
shrinkage=0.05


Tree=19
num_leaves=20
num_cat=0
split_feature=30 63 29 12 35 63 0 64 2 0 77 58 36 26 69 77 61 50 84
split_gain=7.37478 7.44009 4.99195 4.88763 4.70747 4.70264 4.64621 4.59638 3.83978 3.43157 3.35352 5.03058 4.41303 3.31148 3.25979 3.01061 4.77193 4.07081 1.44215
threshold=1.6333333333333335 12.612500000000002 14.100000000000001 8.8333333333333339 0.90000000000000013 16.100000000000005 2.8333333333333335 2.3166666666666669 13.500000000000002 3.8333333333333335 0.83333333333333337 1.1500000000000001 14.100000000000001 17.100000000000005 0.85000000000000031 2.166666666666667 6.9500000000000011 14.050000000000002 1.1000000000000003
decision_type=2 2 2 2 2 2 2 2 2 2 2 2 2 2 2 2 2 2 2
left_child=3 2 6 -1 18 10 7 -2 -6 15 12 -12 -3 -11 -8 16 -5 -17 -4
right_child=1 5 4 9 8 -7 14 -9 -10 13 11 -13 -14 -15 -16 17 -18 -19 -20
leaf_value=0.034579228535036644 -0.0011209044785024176 0.027255071178347714 0.063973534942037752 -0.022864006979516221 0.021784303717985863 -0.021356104980286575 -0.027961616280630354 0.022264092511997055 -0.013243535868208065 0.039553032191867718 -0.011235242484605444 0.03002736593418022 -0.029189231476664735 -0.0071068601971702484 0.0063473363873377195 0.027148193891825587 0.0076830960131080862 -0.012225194047886368 0.01664060303667873
leaf_weight=5.2373771965503684 355.13973766565323 5.8794046938419324 5.5262877792119962 85.413189813494682 16.514204517006878 6.4771264791488639 25.260340929031372 21.808791488409042 13.242547973990439 5.5819312483072272 7.2648486644029608 56.649624526500702 6.9140257239341736 8.1351217776536924 7.7680995762348166 8.8748105615377444 13.415792062878607 21.3631711602211 5.3436318635940552
leaf_count=20 1462 23 21 364 65 26 108 86 54 23 28 214 28 35 33 37 54 89 21
internal_value=0.000104516 0.00288028 0.00028072 -0.00971302 0.0169332 0.0165773 -0.00132717 0.000193528 0.00540847 -0.0116272 0.0202217 0.0248983 -0.00131934 0.0108454 -0.0191724 -0.0142411 -0.0184478 0 0.0446586
internal_weight=681.81 533.789 450.604 148.021 40.6267 83.185 409.977 376.949 29.7568 142.784 76.7079 63.9145 12.7934 13.7171 33.0284 129.067 98.829 30.238 10.8699
internal_count=2791 2169 1850 622 161 319 1689 1548 119 602 293 242 51 58 141 544 418 126 42
is_linear=0
shrinkage=0.05


Tree=20
num_leaves=21
num_cat=0
split_feature=86 86 42 65 9 46 50 78 65 65 20 20 55 39 72 26 11 7 69 65
split_gain=56.28 19.775 15.7434 14.8875 15.4495 7.99785 7.61012 7.08357 6.82422 4.94213 4.23426 4.96954 3.92535 4.71972 3.79844 3.63224 2.92325 2.53715 1.7869 1.36599
threshold=1.6653345369377351e-16 -2.0333333333333328 1.0545463000000004 2.6959870000000001 2.5000000000000004 1.7000000000000004 15.707142857142857 -1.5833333333333328 2.0435776000000003 2.1120572500000003 0.83311650000000015 1.1559299166666668 2.0823403000000007 11.450000000000001 1.5833333333333337 13.900000000000002 0.83333333333333337 2.1670213333333339 1.0500000000000003 1.8524129500000004
decision_type=2 2 2 2 2 2 2 2 2 2 2 2 2 2 2 2 2 2 2 2
left_child=1 6 5 4 9 10 14 -6 12 -3 -2 -12 13 -4 15 -1 -5 -10 -7 -14
right_child=2 3 8 16 7 18 -8 -9 17 -11 11 -13 19 -15 -16 -17 -18 -19 -20 -21
leaf_value=0.073750966676824611 -0.0067556464060645367 0.012345030142515569 -0.00064546475517596158 0.022388135274678273 0.010474229751803371 -0.0031051170922677548 -0.0047078634291363546 -0.0095625008947997445 -0.0049827679286023338 0.046401942820685708 0.043365850528381343 0 -0.012315170574637673 -0.021352095012000673 0.0055562414361770666 0.034312627302555097 0.064950526021193986 0.029712156253833583 -0.039203024468114502 -0.038319448381221456
leaf_weight=7.960469275712966 8.6901369392871839 152.81953421235085 34.820974767208099 11.438225179910662 56.492415547370911 10.670742213726045 12.486921966075895 184.00558796525002 11.831559121608736 11.809289604425429 21.270662814378742 9.2964487969875318 9.829883396625517 200.83323669433594 11.684917867183684 71.141352206468582 10.722337543964384 7.7654801905155173 6.3043543100357047 44.423870205879211
leaf_count=22 26 447 112 33 170 34 37 580 36 33 61 29 33 676 34 198 30 24 21 155
internal_value=-2.28542e-06 0.0103687 -0.015109 0.00553475 0.00325798 0.00886157 0.030005 -0.00474022 -0.019552 0.0150725 0.0214848 0.0302977 -0.0215055 -0.0184061 0.035053 0.0390339 0.0450638 0.00791858 -0.0186802 -0.03422
internal_weight=896.298 530.561 365.737 427.287 405.127 56.2323 103.274 240.498 309.505 164.629 39.2572 30.5671 289.908 235.654 90.7867 79.1018 22.1606 19.597 16.9751 54.2538
internal_count=2791 1584 1207 1293 1230 171 291 750 1036 480 116 90 976 788 254 220 63 60 55 188
is_linear=0
shrinkage=0.05


Tree=21
num_leaves=24
num_cat=0
split_feature=86 67 86 56 8 55 7 15 7 18 72 43 29 69 42 26 80 60 87 86 3 88 56
split_gain=51.2276 18.2981 15.6362 10.6668 12.1227 9.29625 6.37522 6.1409 5.98559 5.92725 6.12023 6.04808 5.47855 5.12052 4.90756 4.87002 4.25383 3.69805 2.99345 2.68636 2.40037 2.16208 1.69711
threshold=1.0000000180025095e-35 9.5000000000000018 -1.2249999999999999 0.75848855000000004 1.4782565000000003 1.9496980000000004 1.1309428500000003 12.16666666666667 0.98216800000000004 1.7042624166666667 1.1666666666666667 4.5000000000000009 12.450000000000001 -0.40000000000000019 1.7543995666666667 18.700000000000006 0.90000000000000013 12.050000000000002 -0.22500000000000001 2.1500000000000008 7.416666666666667 1.0000000180025095e-35 1.1731814999999999
decision_type=2 2 2 2 2 2 2 2 2 2 2 2 2 2 2 2 2 2 2 2 2 2 2
left_child=2 15 9 18 8 6 22 -8 -5 10 20 -12 -6 -7 -11 16 21 -15 -4 -18 -1 -2 -3
right_child=1 5 3 4 12 13 7 -9 -10 14 11 -13 -14 17 -16 -17 19 -19 -20 -21 -22 -23 -24
leaf_value=-0.030936674799224097 -0.020991939521363301 0.042018222754143797 0.0057050216849072804 0.031852896078119169 0.030592230563481843 -0.0082022975681035025 -0.013276582812983296 0.0089801917871061288 -0.010510261090751592 0.034897797824608466 0.026338089275711275 -0.016122687626653639 -0.011138747005068107 -0.001916439513934868 -0.017429177858634234 0.04794181824393963 0.019042831869702924 0.028859666729003315 0.045061943122898997 0.035200799971668063 0 0.011992906289093667 0.0060535247421114255
leaf_weight=125.15696632862091 7.8427017033100137 7.838907957077029 10.465384334325792 7.8344597816467276 29.819641083478928 14.19722658395767 107.40779513120651 41.706042796373367 291.44994994997978 8.0512969493865985 8.9294871687889081 58.692279607057571 9.2921513319015485 10.035668849945067 8.3608931601047498 19.746895134449005 127.20893830060959 53.141485601663589 12.695953637361525 40.730216473340988 8.0295970737934095 11.53230208158493 8.9441896080970746
leaf_count=349 21 21 28 21 80 38 289 112 788 22 24 161 25 27 23 54 343 143 34 111 22 31 24
internal_value=-6.14948e-05 0.0125532 -0.00992218 -0.00345892 -0.00578207 0.00312285 -0.00343198 -0.00687522 -0.00926664 -0.0205326 -0.0229218 -0.00999657 0.0200312 0.0174298 0.00703536 0.023478 0.0206451 0.0236016 0.0288316 0.0232029 -0.0292353 -0.000293193 0.0250277
internal_weight=1029.11 450.332 578.778 361.558 338.396 243.271 165.897 149.114 299.284 217.221 200.808 67.6218 39.1118 77.3744 16.4122 207.061 187.314 63.1772 23.1613 167.939 133.187 19.375 16.7831
internal_count=2791 1214 1577 976 914 654 446 401 809 601 556 185 105 208 45 560 506 170 62 454 371 52 45
is_linear=0
shrinkage=0.05


Tree=22
num_leaves=19
num_cat=0
split_feature=30 63 29 56 59 12 63 0 24 0 69 26 61 83 65 12 40 88
split_gain=6.86577 6.71265 4.63367 4.59088 5.70064 4.52194 4.3688 4.33187 5.24943 3.26218 3.11968 3.04396 2.80766 4.98536 3.87639 2.5984 6.41313 3.49837
threshold=1.6333333333333335 12.612500000000002 14.100000000000001 1.2326953000000003 0.95000000000000007 8.8333333333333339 16.100000000000005 2.8333333333333335 2.2250000000000005 3.8333333333333335 0.85000000000000031 17.100000000000005 6.9500000000000011 1.7750000000000001 1.9151202000000003 13.833333333333334 2.4500000000000006 1.0000000180025095e-35
decision_type=2 2 2 2 2 2 2 2 2 2 2 2 2 2 2 2 2 2
left_child=5 2 7 4 -4 -1 15 8 -2 12 -9 -11 14 -14 -7 17 -17 -3
right_child=1 6 3 -5 -6 9 -8 10 -10 11 -12 -13 13 -15 -16 16 -18 -19
leaf_value=0.032755721128316671 -0.0016648048583711766 0.0035626137407018805 0.040914640188908329 0.047773170728099362 -0.0053864155683565548 -0.021754985081156589 -0.020989117351247782 -0.027392965508786241 0.018024653858924333 0.037717651464170519 0.0061909671712207766 -0.0067464837546790356 0.029868387594940083 -0.019234951281768792 0.00073692825370211864 0.022244893990438046 -0.021598338558187997 0.038278964927231304
leaf_weight=5.3473400175571433 339.5963993370533 12.205195456743239 8.3792176544666273 8.7775699943304044 23.79244989156723 86.36943282186985 6.406427100300788 24.70104093849659 37.052710145711899 5.6980446130037299 7.7879777401685706 8.0684354752302152 9.060816094279291 10.465537771582602 21.818508550524712 26.88962396979332 11.058579489588736 27.487665086984634
leaf_count=20 1394 46 32 33 96 373 26 108 154 23 33 35 35 44 92 102 43 102
internal_value=0.00014285 0.00281238 0.00032695 0.0163009 0.00634926 -0.00937532 0.0157459 -0.00122874 0.000227179 -0.0112535 -0.0186129 0.0105821 -0.0138343 0.00247896 -0.0170065 0.0192119 0.00870348 0.0284031
internal_weight=680.963 534.135 450.087 40.9492 32.1717 146.828 84.0475 409.138 376.649 141.481 32.489 13.7665 127.714 19.5264 108.188 77.6411 37.9482 39.6929
internal_count=2791 2169 1850 161 128 622 319 1689 1548 602 141 58 544 79 465 293 145 148
is_linear=0
shrinkage=0.05


Tree=23
num_leaves=24
num_cat=0
split_feature=86 86 42 65 7 7 21 65 46 50 35 45 38 87 77 40 42 38 69 0 69 73 26
split_gain=51.3631 17.7022 14.6613 13.6924 13.7138 12.7601 8.1284 7.63193 7.33474 6.95988 5.77366 4.27014 3.97318 5.87315 3.72491 3.57884 3.51408 3.02411 2.92395 2.83189 1.60264 1.56865 0.415028
threshold=1.6653345369377351e-16 -2.0333333333333328 1.0322498333333334 2.5880490000000003 1.7584867500000001 2.1110825000000006 -0.83333333333333304 2.0606152000000004 1.7000000000000004 15.707142857142857 0.50000000000000011 -1.0000000180025095e-35 5.2250000000000005 0.77500000000000013 1.8333333333333337 1.5500000000000003 0.79574500000000004 5.4500000000000011 -1.6874999999999993 1.8333333333333337 1.0500000000000003 2.5833333333333335 15.100000000000001
decision_type=2 2 2 2 2 2 2 2 2 2 2 2 2 2 2 2 2 2 2 2 2 2 2
left_child=1 9 8 4 6 -6 -3 12 11 14 -5 16 13 -4 21 -16 -2 -13 -14 -9 -10 -1 -12
right_child=2 3 7 10 5 -7 -8 19 20 -11 22 17 18 -15 15 -17 -18 -19 -20 -21 -22 -23 -24
leaf_value=0.069151091523695016 -0.023181946839530732 0.0054500625318300577 0.015014837415090358 0 0.011499531966721054 -0.016111437204058939 -0.028365419104820457 -0.013428719690963403 -0.0028885325138060538 -0.0047971389955808429 0.0630049645039195 0.0058641452746067933 0.0055549998744462356 -0.025489599148098951 0.043674605653336841 0.016538163824639698 0.023900122430507889 0.0483782371235848 -0.023985649031559839 0.024410373010371789 -0.037969821835849037 0.034876211220661722 0.030631492539084926
leaf_weight=10.186330646276476 7.3602953851222974 25.912530124187469 17.727907687425613 6.7805775701999691 278.95914331078529 48.093590795993805 48.574649959802628 6.5070021450519588 10.638843923807146 12.490717470645903 12.364639997482302 7.9860175848007229 7.085063010454177 16.607792407274246 20.335927575826645 45.140767991542816 7.4848374128341675 14.692524462938307 246.88873544335365 12.925253331661223 5.8403064012527457 15.911619931459425 7.1131680011749259
leaf_count=28 23 79 56 20 833 152 155 20 34 37 34 23 23 56 56 126 22 42 849 39 20 44 20
internal_value=-1.01005e-05 0.00984462 -0.0145618 0.00525819 0.00287947 0.00734458 -0.0163104 -0.0188015 0.00909049 0.0283444 0.0399654 0.0215227 -0.0208754 -0.0039437 0.0331379 0.0256123 0 0.0349354 -0.023054 0.0104665 -0.0175459 0.0502425 0.0534963
internal_weight=893.608 531.864 361.745 427.798 401.54 327.053 74.4872 307.742 54.0028 104.065 26.2584 37.5237 288.309 34.3357 91.5746 65.4767 14.8451 22.6785 253.974 19.4323 16.4792 26.098 19.4778
internal_count=2791 1584 1207 1293 1219 985 234 1043 164 291 74 110 984 112 254 182 45 65 872 59 54 72 54
is_linear=0
shrinkage=0.05


Tree=24
num_leaves=24
num_cat=0
split_feature=19 55 57 65 80 56 87 49 84 82 5 82 8 32 15 44 31 55 28 8 83 81 28
split_gain=38.2034 24.1721 18.9608 17.6214 11.8048 8.79124 7.92655 7.27487 6.7767 6.52714 6.12124 5.88405 4.45017 4.13542 4.09271 3.7567 4.19187 3.59843 3.13547 2.7897 2.30334 2.25169 1.89886
threshold=1.0000000180025095e-35 1.9844660000000003 5.5000000000000009 1.9601560000000002 1.5500000000000003 1.2273909000000003 -0.68333333333333324 0.61250000000000016 0.90000000000000013 1.5500000000000003 10.833333333333334 0.29166666666666669 1.1255410833333335 1.0750330000000001 11.41666666666667 1.3242826333333335 2.0516193333333339 2.0707670000000005 8.4500000000000011 1.4622383333333333 0.90000000000000013 2.1000000000000005 5.5500000000000007
decision_type=2 2 2 2 2 2 2 2 2 2 2 2 2 2 2 2 2 2 2 2 2 2 2
left_child=2 3 6 4 10 8 -1 -6 12 19 -2 -4 -3 -11 -10 16 -7 18 -13 -5 -8 -22 -19
right_child=1 5 11 9 7 15 20 -9 14 13 -12 17 -14 -15 -16 -17 -18 22 -20 -21 21 -23 -24
leaf_value=-0.02580664366961127 0.0078289425369212889 0.012997153512682711 -0.013576681575174183 -0.038492912887066862 0.026710979810941317 0.00077310660332947044 0.014158742755380711 -0.00050850816318086863 0.035982936165125767 0.0049228357394506365 -0.01575123450387524 0.018368973646994479 -0.029146461386227309 -0.022233338625247692 0.0072807081640160172 0.012791761888336528 -0.038955417857063961 0.018085173546537842 0.048422879623490914 -0.0034058235964985585 0.0035155456259650247 -0.019582573294263633 0.046214689949098338
leaf_weight=26.880307465791702 29.607981204986572 17.840199530124668 9.6604442000389081 77.523473858833313 29.465688228607178 10.719651669263841 37.903919845819473 126.65169179439545 49.743719220161438 19.315175294876099 221.4822635948658 156.74676823616028 8.9556898772716504 39.476794391870499 20.056607633829117 11.927392750978468 12.971307098865507 13.189939409494398 10.221852123737333 7.9277186393737784 46.128734916448593 12.915028393268583 28.265216439962387
leaf_count=74 80 48 26 219 79 29 102 341 134 52 607 424 24 108 54 32 35 36 28 22 124 35 78
internal_value=-7.31845e-05 -0.00692104 0.0135364 -0.011547 -0.00613191 0.0121555 -0.00190318 0.00453816 0.0200353 -0.0265873 -0.0128613 0.0224017 -0.000448035 -0.0129237 0.0282016 -0.00850366 -0.0203012 0.0242175 0.0204972 -0.0355673 0.00456631 -0.00123901 0.0381827
internal_weight=1025.58 683.665 341.912 551.451 407.208 132.215 123.828 156.117 96.5962 144.243 251.09 218.084 26.7959 58.792 69.8003 35.6184 23.691 208.424 166.969 85.4512 96.9477 59.0438 41.4552
internal_count=2791 1864 927 1508 1107 356 335 420 260 401 687 592 72 160 188 96 64 566 452 241 261 159 114
is_linear=0
shrinkage=0.05


Tree=25
num_leaves=19
num_cat=0
split_feature=30 63 12 63 0 11 59 82 0 77 58 12 77 37 52 3 78 41
split_gain=6.39619 6.11214 4.17344 4.08312 3.94955 4.54535 3.97385 3.57956 3.08393 3.07668 4.50956 2.95227 2.84031 4.39189 3.79718 2.7929 1.23724 1.21715
threshold=1.6333333333333335 12.612500000000002 8.8333333333333339 16.100000000000005 2.8333333333333335 2.5000000000000004 0.73888888888888904 1.3666666666666669 3.8333333333333335 0.83333333333333337 1.1500000000000001 12.500000000000002 2.166666666666667 6.7000000000000002 5.1055555555555561 7.8333333333333348 -0.33333333333333359 2.1447243333333339
decision_type=2 2 2 2 2 2 2 2 2 2 2 2 2 2 2 2 2 2
left_child=2 4 -1 9 5 6 -2 16 12 11 -11 -3 13 -4 -14 -10 -6 -9
right_child=1 3 8 -5 7 -7 -8 17 15 10 -12 -13 14 -15 -16 -17 -18 -19
leaf_value=0.030978067976208074 0.011301313747482404 0.022161598843288843 -0.022216632048013121 -0.020648557215637076 -0.0071377807765602959 0.034634026365644589 -0.0014007983997398642 -0.03137779732483971 0.035706047405682527 -0.011372332750280295 0.027512801521223901 -0.023753644615316101 0.026425157995391791 0.0058714826265455844 -0.011587911716237768 -0.0065748804800164528 0.023334122620529252 0
leaf_weight=5.4561606496572486 74.795276820659637 5.5552004575729352 81.463591575622559 6.3404750078916541 5.1919485777616501 9.8227091729640943 328.9564610272646 19.866371944546703 5.8700297474861127 7.2842667251825324 58.20553070306778 7.4202716052532196 8.9547253698110598 14.942946642637251 21.028294399380684 7.9586075395345688 5.610588386654852 5.4433734267950049
leaf_count=20 298 21 358 26 22 39 1355 88 24 28 214 30 37 60 89 34 24 24
internal_value=0.000175141 0.00274354 -0.00905468 0.0150217 0.000358374 0.0018039 0.000901501 -0.0153122 -0.0108946 0.0183332 0.0227555 -0.00214778 -0.0134362 -0.0175972 0 0.0102476 0.00680886 -0.0256714
internal_weight=680.167 534.492 145.674 84.8057 449.687 413.574 403.752 36.1123 140.218 78.4653 65.4898 12.9755 126.39 96.4065 29.983 13.8286 10.8025 25.3097
internal_count=2791 2169 622 319 1850 1692 1653 158 602 293 242 51 544 418 126 58 46 112
is_linear=0
shrinkage=0.05


Tree=26
num_leaves=24
num_cat=0
split_feature=86 42 65 74 9 17 44 9 46 58 47 83 30 26 37 34 87 65 14 83 30 44 17
split_gain=46.4503 19.2808 13.7413 12.609 12.1982 8.14811 7.19859 7.08395 6.9087 6.58473 5.47018 5.07777 4.92909 4.80921 4.5901 4.23229 3.67468 3.5972 3.14878 2.86216 1.79805 1.53644 1.32926
threshold=-0.19999999999999982 1.0322498333333334 2.5276067000000002 0.58333333333333337 2.5000000000000004 1.8376483333333338 1.1652888000000001 2.5000000000000004 1.7000000000000004 2.9500000000000006 1.0750000000000004 1.7750000000000001 1.3 16.900000000000002 4.4500000000000011 2.7000000000000006 0.57500000000000018 2.0850237500000008 4.8333333333333348 1.9000000000000001 1.7750000000000001 0.78033366666666681 2.2307875000000004
decision_type=2 2 2 2 2 2 2 2 2 2 2 2 2 2 2 2 2 2 2 2 2 2 2
left_child=2 8 3 9 14 7 21 15 10 13 18 -6 -9 -1 -5 -3 19 -10 -2 -7 -12 -4 -18
right_child=1 5 6 4 11 16 -8 12 17 -11 20 -13 -14 -15 -16 -17 22 -19 -20 -21 -22 -23 -24
leaf_value=0.019892496583254621 0.0062964523229571013 -0.0097434610007387165 0.022998254751236024 -0.00706794667761997 -0.018320590403376406 0.033036621005630207 -0.0044499538724655013 -0.008313384350586461 -0.02770537671098508 0.063646442127268818 0.018732528788513343 0 -0.026745721012427882 -0.015260010816319336 0.021051943440352733 0.02865577040393303 0.00039616934651257995 0.014950655704668733 0.04389662539214343 -0.0027464902643621709 -0.013411903603632182 0.055583174937396319 -0.027046702362303165
leaf_weight=126.7084424495697 9.6612657308578473 88.964372605085373 8.9638513624668104 15.971388429403303 56.894946813583374 13.788720905780794 6.8431794941425315 50.668478548526764 12.843507379293444 8.2325976192951185 6.6778935492038753 110.26781895756721 191.97494569420815 9.3599902093410474 79.38249346613884 7.0536453425884238 6.6695702970027906 6.6231315732002249 23.508019775152206 7.0899644196033469 10.487066090106962 25.218866050243378 6.9869078695774078
leaf_count=362 28 290 25 46 180 41 20 175 43 23 20 339 668 28 227 21 21 21 67 22 32 69 23
internal_value=-2.14504e-05 -0.0115225 0.0112995 0.0084125 0.00177072 -0.016061 0.0388796 -0.0184381 0.0123293 0.0202749 0.0222282 -0.00625978 -0.0230245 0.0172443 0.0160689 -0.00652974 0.00646635 -0.0119295 0.0339434 0.019936 0 0.0482139 -0.0123375
internal_weight=890.841 442.997 447.844 406.818 262.517 373.197 41.0259 338.661 69.8009 144.301 50.3342 167.163 242.643 136.068 95.3539 96.018 34.5352 19.4666 33.1693 20.8787 17.165 34.1827 13.6565
internal_count=2791 1472 1319 1205 792 1261 114 1154 211 413 147 519 843 390 273 311 107 64 95 63 52 94 44
is_linear=0
shrinkage=0.05


Tree=27
num_leaves=24
num_cat=0
split_feature=86 67 56 8 65 5 55 21 77 73 20 69 69 51 27 28 8 72 8 80 60 82 84
split_gain=41.4425 15.1913 13.4408 11.9357 9.76682 8.59451 7.80257 7.77038 7.43173 8.03425 4.77032 4.69305 4.68304 5.37684 4.55585 4.33447 4.23907 4.14176 4.02314 3.87071 3.30685 2.89748 2.59429
threshold=1.0000000180025095e-35 7.5000000000000009 1.0516804000000002 1.5326435000000003 1.9658160000000002 10.833333333333334 1.9496980000000004 -1.0000000180025095e-35 0.58333333333333337 0.58333333333333337 0.77363900000000008 -0.40000000000000019 -0.050000000000000017 5.4500000000000011 8.1000000000000014 5.9000000000000012 1.2001482500000002 1.5833333333333337 0.94494050000000007 0.90000000000000013 12.050000000000002 2.1000000000000005 0.77500000000000013
decision_type=2 2 2 2 2 2 2 2 2 2 2 2 2 2 2 2 2 2 2 2 2 2 2
left_child=2 14 12 4 5 -4 8 10 16 -10 -5 -8 13 -1 18 -6 -3 -15 21 -20 -13 -2 -14
right_child=1 6 3 7 15 -7 11 -9 9 -11 -12 20 22 17 -16 -17 -18 -19 19 -21 -22 -23 -24
leaf_value=-0.030051109074469496 0.044481569918913742 0.0063626994967338705 0.01049480835555861 -0.026979104369891111 -0.004549710821027563 -0.013886188703865328 -0.0085750666381879722 0.033592550597515779 0.017195863436882727 -0.014902547751025536 0.011681846776833822 -0.002152350254478819 0 -0.0079917625183982943 0.048689560858879898 -0.035086932130237926 0.048974391860829115 0.035055558612452874 -0.0060888580105880347 0.017971791515842557 0.026903429984030326 0.0086107999519069393 0.024142734702395426
leaf_weight=13.143518179655073 24.292967647314072 30.584504812955856 39.410714834928513 13.820386350154878 16.305846750736237 306.48142465949059 14.174688696861265 20.740928292274475 22.738413542509079 106.54458007216454 16.646665304899216 10.007481247186659 13.013463735580443 11.787245482206346 15.031028687953947 73.033635526895523 7.4454435706138602 8.9426478743553144 17.108144909143448 136.56020593643188 52.754907548427582 10.093806415796278 40.897212743759155
leaf_count=36 67 82 106 38 45 841 38 56 61 288 45 27 35 32 42 209 20 24 46 372 143 28 110
internal_value=-8.66501e-05 0.0112917 -0.00899628 -0.0122664 -0.0149759 -0.0110249 0.0027602 0.0102013 -0.00318049 -0.00901992 -0.00520058 0.0159392 0.00880807 -0.00515463 0.0213976 -0.029848 0.0158813 0.00978905 0.0189603 0.0151199 0.0218949 0.0349431 0.0180074
internal_weight=1021.56 447.336 574.224 486.44 435.232 345.892 244.25 51.208 167.313 129.283 30.4671 76.9371 87.7841 33.8734 203.086 89.3395 38.0299 20.7299 188.055 153.668 62.7624 34.3868 53.9107
internal_count=2791 1214 1577 1340 1201 947 659 139 451 349 83 208 237 92 555 254 102 56 513 418 170 95 145
is_linear=0
shrinkage=0.05


Tree=28
num_leaves=19
num_cat=0
split_feature=30 63 29 5 35 30 0 12 63 48 0 77 36 64 77 61 52 51
split_gain=5.89461 5.50958 4.21272 4.20344 4.80486 4.00343 3.99109 3.86553 3.78349 3.11447 2.93287 2.82078 3.87903 3.30077 2.68491 4.19227 3.54962 2.68487
threshold=1.6333333333333335 12.612500000000002 14.100000000000001 18.166666666666668 0.90000000000000013 2.7000000000000006 1.8333333333333337 8.8333333333333339 16.100000000000005 2.3500000000000001 3.8333333333333335 0.83333333333333337 14.100000000000001 2.9500000000000006 2.166666666666667 6.9500000000000011 5.1055555555555561 6.8819444444444455
decision_type=2 2 2 2 2 2 2 2 2 2 2 2 2 2 2 2 2 2
left_child=7 2 5 4 -4 6 -2 -1 11 -7 14 12 -3 -13 15 -9 -16 -12
right_child=1 8 3 -5 -6 9 -8 10 -10 -11 17 13 -14 -15 16 -17 -18 -19
leaf_value=0.029462888016954476 0.0093403838437980079 0.023522921071077126 0.051726657580967519 -0.019890545470431446 0.0093085010283259547 -0.027162352413881954 -0.0026271893620369163 -0.021449551476917118 -0.020249888426726974 0.012573810928241747 0.037981939969902144 0.026133410767649603 -0.028828339308825158 -0.0035848636364444152 0.025337684427915938 0.0071198127271814432 -0.011289804337713623 -0.0043792704657668567
leaf_weight=5.5508240014314643 91.130777776241302 6.1577155888080579 9.8915779292583448 5.9903218746185294 25.439864262938499 23.107783541083339 288.79873086512089 81.534396663308144 6.2651250511407843 4.9615218341350547 5.0354965776205054 57.048413574695587 6.812156468629837 9.3103655874729139 9.0787874311208743 13.512822940945624 20.875294595956802 8.8245775550603849
leaf_count=20 376 23 36 24 101 96 1196 364 26 21 20 208 28 34 37 54 89 38
internal_value=0.000205882 0.00266285 0.000384909 0.0155394 0.0224379 -0.00110587 0.000186169 -0.00870018 0.0142587 -0.0191664 -0.0105053 0.017407 -0.00216694 0.0215943 -0.0130154 -0.0171102 0 0.0100566
internal_weight=679.327 534.914 449.321 41.3218 35.3314 407.999 379.93 144.412 85.5938 28.0693 138.861 79.3287 12.9699 66.3588 125.001 95.0472 29.9541 13.8601
internal_count=2791 2169 1850 161 137 1689 1572 622 319 117 602 293 51 242 544 418 126 58
is_linear=0
shrinkage=0.05


Tree=29
num_leaves=24
num_cat=0
split_feature=86 65 31 42 9 74 65 46 74 83 26 11 77 48 7 45 65 42 48 15 38 59 58
split_gain=42.3657 15.4168 16.8222 12.7671 12.7581 9.27843 6.88446 6.33632 6.2745 5.93144 5.63639 4.97883 4.2478 3.98348 3.9119 3.90043 3.65756 3.22728 3.21206 3.18274 2.61156 2.49795 2.41985
threshold=1.6653345369377351e-16 1.9970185 1.9501303333333337 1.0322498333333334 2.5000000000000004 0.41666666666666669 2.0606152000000004 1.7000000000000004 2.166666666666667 1.7750000000000001 16.900000000000002 0.50000000000000011 1.8333333333333337 2.3500000000000001 1.6937591666666669 -1.0000000180025095e-35 2.6016635000000004 0.79574500000000004 2.2250000000000005 10.41666666666667 5.4500000000000011 1.1833333333333336 2.3166666666666669
decision_type=2 2 2 2 2 2 2 2 2 2 2 2 2 2 2 2 2 2 2 2 2 2 2
left_child=1 4 8 7 11 10 13 15 14 -7 -6 12 -1 18 -3 17 22 -2 -5 -13 -17 -8 -4
right_child=3 2 16 6 5 9 21 -9 -10 -11 -12 19 -14 -15 -16 20 -18 -19 -20 -21 -22 -23 -24
leaf_value=0.049480080221544293 -0.022939365657850406 0.017362501834018607 -0.0013350200033386888 -0.017144969069684584 0.021937302725081206 -0.020743367158515564 0.029304299368278705 -0.016509474647592969 -0.0055525059985528516 -0.0012902519236357391 -0.02122576602779995 -0.00501042193985533 0.0043522742184001813 -0.030486574385063199 0.043741314882055335 0.005373218809460463 0.015493025557473254 0.02212411560516515 0.012584729407461146 0.012970676893547813 0.045045572188976389 -0.0043890511974778385 -0.0389669914210777
leaf_weight=16.149793416261677 7.317270100116728 23.378990411758423 9.9827517867088371 203.81219878792763 41.716700911521912 73.387120217084885 8.9441306293010729 16.149004876613617 8.1345363557338697 89.911750972270966 8.2287630140781385 27.336064487695694 9.6340311765670759 68.246520474553108 68.177764356136322 7.998839437961581 8.7596422731876356 7.5793105363845825 8.1831834912300092 139.75040912628174 14.931861966848372 10.494306325912474 9.6387974321842176
leaf_count=45 23 68 31 708 124 238 27 54 24 280 25 78 27 247 189 23 25 22 29 400 42 32 30
internal_value=-2.9721e-05 0.00882616 0.0239561 -0.0134704 0.00396969 -0.00436725 -0.0175261 0.00854246 0.0336428 -0.0102218 0.0141905 0.0133041 0.033973 -0.0195535 0.037408 0.0199656 -0.00919675 0 -0.0158528 0.00987354 0.0326837 0.0102064 -0.0215725
internal_weight=887.844 534.187 128.072 353.657 406.115 213.244 299.68 53.9763 99.6913 163.299 49.9455 192.87 25.7838 280.242 91.5568 37.8273 28.3812 14.8966 211.995 167.086 22.9307 19.4384 19.6215
internal_count=2791 1584 367 1207 1217 667 1043 164 281 518 149 550 72 984 257 110 86 45 737 478 65 59 61
is_linear=0
shrinkage=0.05


Tree=30
num_leaves=21
num_cat=0
split_feature=86 86 56 19 18 63 72 40 69 31 10 4 20 65 86 70 64 5 73 46
split_gain=37.8436 21.552 13.6611 12.1179 7.6423 11.6553 7.29103 9.75661 6.89768 5.61136 5.23294 5.02298 3.71069 3.91319 3.62886 3.88648 2.38663 2.34727 2.02434 1.28509
threshold=-0.99999999999999978 1.4250000000000005 0.75421810000000011 1.0000000180025095e-35 1.7042624166666667 11.105555555555556 1.1666666666666667 1.4500000000000002 -1.0000000180025095e-35 1.9582900000000001 1.5000000000000002 8.5000000000000018 0.99661833333333327 2.0261933000000005 0.60000000000000009 0.85000000000000031 1.2428571428571431 9.5000000000000018 0.83333333333333337 1.3000000000000003
decision_type=2 2 2 2 2 2 2 2 2 2 2 2 2 2 2 2 2 2 2 2
left_child=4 2 14 11 6 -6 12 19 18 -5 -9 -4 13 -1 15 -2 -10 -18 -3 -8
right_child=1 8 3 9 5 -7 7 10 16 -11 -12 -13 -14 -15 -16 -17 17 -19 -20 -21
leaf_value=-0.02164930101309671 0.0022492876966431021 0.011128619740376919 0.0069717063457663325 -0.0094280594143361495 -0.032081171855320022 0.042483334485431998 -0.050858014388894424 -0.02330221026818563 0 0.0063052111991757434 0.0077810194035412943 0.039116907271351455 0.0046809955576778894 -0.042847330629141207 0.0020792645678490624 0.047629782500968422 0.045785204831700815 0.024648241170666815 -0.018393957991183037 -0.01608600109055159
leaf_weight=125.70517629384995 7.4367398619651821 10.759423077106478 176.43528288602829 280.08898022770882 7.8836918175220516 12.770641297101973 11.030022978782656 16.693138897418976 6.6774449348449698 68.657081812620163 62.184896677732468 13.120789617300032 8.8015816807746869 31.336140871047974 11.401702135801314 23.206469088792801 20.046793431043625 104.73742467164993 10.773289591073988 7.6977241337299338
leaf_count=352 20 29 478 762 22 35 31 46 18 185 171 36 24 94 31 63 56 288 29 21
internal_value=-9.68478e-05 0.00588076 0.00142674 -0.000683025 -0.0155976 0.0127549 -0.0179351 -0.00668817 0.0225535 -0.0062545 0.000782512 0.00942534 -0.0243642 -0.0261604 0.0287163 0.0376322 0.0268554 0.0284126 -0.00258972 -0.0386557
internal_weight=1017.44 733.341 580.347 538.302 284.103 20.6543 263.449 97.6058 152.994 348.746 78.878 189.556 165.843 157.041 42.0449 30.6432 131.462 124.784 21.5327 18.7277
internal_count=2791 1995 1575 1461 796 57 739 269 420 947 217 514 470 446 114 83 362 344 58 52
is_linear=0
shrinkage=0.05


Tree=31
num_leaves=20
num_cat=0
split_feature=30 63 29 5 30 0 24 12 63 69 24 84 29 27 37 62 14 86 2
split_gain=5.48419 4.99403 3.88438 3.91437 4.5674 3.78724 5.00284 3.56361 3.52234 3.03224 2.83485 5.04746 4.03954 3.53756 3.09508 2.55105 3.53807 3.04895 2.40098
threshold=1.6333333333333335 12.612500000000002 14.100000000000001 18.166666666666668 3.2250000000000005 2.8333333333333335 2.2250000000000005 8.8333333333333339 16.100000000000005 0.85000000000000031 2.7000000000000006 0.70833333333333337 8.3000000000000025 4.1000000000000005 6.7000000000000002 6.6500000000000012 7.166666666666667 -0.20000000000000015 12.833333333333334
decision_type=2 2 2 2 2 2 2 2 2 2 2 2 2 2 2 2 2 2 2
left_child=7 2 5 4 -4 6 -2 -1 15 -7 13 -12 -13 18 -15 16 -3 -17 -9
right_child=1 8 3 -5 -6 9 -8 10 -10 -11 11 12 -14 14 -16 17 -18 -19 -20
leaf_value=0.027892075368018944 -0.0015267713489325362 0.015235735739810309 0.029916465497637441 -0.019463549453307739 -0.013941076987088767 -0.02647913705665797 0.017656507489683334 -0.0079871976810154122 -0.019862773065037059 0.0069910898779618133 0.044864959783702564 0.02297524690509611 -0.016259832510702853 -0.023738452278933751 0.00098771795205816379 -0.016950960477328636 0.049767348610174539 0.024956845131908167 0.027178981798806318
leaf_weight=5.6495333760976783 338.54549403488636 53.340793445706367 29.489117413759232 5.9174256771802893 6.2275606095790854 23.784090086817745 37.213121965527534 12.853626534342768 6.1916840374469748 7.6707416474819174 5.188582554459571 7.9556580781936637 25.319821611046791 66.324928224086761 13.209307178854941 10.529696494340898 9.5659032315015775 6.6496960222721091 6.7634540647268286
leaf_count=20 1394 195 113 24 24 108 154 56 26 33 21 34 111 297 53 39 35 24 30
internal_value=0.000242726 0.0026056 0.00042464 0.014916 0.0214923 -0.00101214 0.000327533 -0.00838757 0.0135958 -0.0175529 -0.0101535 0.000761288 -0.00593789 -0.0146212 -0.019339 0.0166 0.0212321 0 0.00326863
internal_weight=678.39 535.125 448.848 41.6341 35.7167 407.213 375.759 143.265 86.2778 31.4548 137.615 38.4641 33.2755 99.1513 79.5342 80.0861 62.9067 17.1794 19.6171
internal_count=2791 2169 1850 161 137 1689 1548 622 319 141 602 166 145 436 350 293 230 63 86
is_linear=0
shrinkage=0.05


Tree=32
num_leaves=24
num_cat=0
split_feature=86 42 86 65 7 21 7 17 20 9 46 45 82 18 63 41 42 34 87 78 72 66 34
split_gain=38.2631 16.9049 11.6128 8.75724 8.96098 8.68916 7.63962 7.30889 6.97603 6.25289 5.89531 5.46109 4.94446 4.83744 4.34266 4.45615 3.90834 3.77969 3.31793 2.87027 2.64396 2.28084 1.82439
threshold=-0.19999999999999982 1.0322498333333334 -2.0333333333333328 2.4368901000000007 1.7584867500000001 -0.83333333333333304 1.9760766666666669 1.8376483333333338 0.83654075000000006 2.5000000000000004 2.100000000000001 -0.19999999999999982 1.5500000000000003 1.6450685000000003 11.816666666666668 1.441523466666667 0.79574500000000004 2.7000000000000006 0.57500000000000018 0.33333333333333309 2.166666666666667 0.88452930000000018 1.9000000000000001
decision_type=2 2 2 2 2 2 2 2 2 2 2 2 2 2 2 2 2 2 2 2 2 2 2
left_child=2 10 12 4 5 -4 -6 9 -5 17 11 16 14 -11 15 -1 -2 -3 19 -9 -13 -12 -16
right_child=1 7 3 8 6 -7 -8 18 -10 13 21 20 -14 -15 22 -17 -18 -19 -20 -21 -22 -23 -24
leaf_value=-0.00027946476002815802 -0.021785527644598728 -0.0091611166291409012 0.0096797285735234009 0.047580718020046819 0.010997430230478208 -0.029626437266751571 -0.011692324122277756 0 0 -0.023768282169566359 0 0.020169756274939596 -0.012479728874079049 0.0019525355378129867 0.020576146081795688 0.036950734474793398 0.019947681827203009 0.026916635412118629 -0.011665721588713533 0.037218879731377545 0.054545088513431594 -0.037873049082418175 -0.007992557851491628
leaf_weight=7.5576499402523032 10.787578105926515 88.034959375858307 21.24557101726532 20.440663009881977 211.77317130565643 36.174448370933533 43.52251535654068 10.682710677385332 11.364069432020186 217.38743637502193 6.9910806119441968 25.649574041366577 7.1282430291175833 17.932581394910812 10.011270672082903 70.687042862176895 10.592106014490126 7.1445738971233359 13.476504206657408 10.304375767707823 9.5549982488155347 6.238323763012886 10.011055737733839
leaf_count=21 34 290 64 56 620 117 138 32 33 784 23 74 21 59 28 193 31 21 44 31 27 22 28
internal_value=-4.65423e-05 -0.0106462 0.0101414 0.00558696 0.0029331 -0.0146934 0.00701628 -0.0149865 0.0304576 -0.0172905 0.0116332 0.0188535 0.0246964 -0.0217022 0.0276958 0.0330582 0 -0.00606517 0.00632394 0.0190418 0.0308331 -0.01699 0.00522705
internal_weight=884.693 434.777 449.916 344.52 312.716 57.42 255.296 364.963 31.8047 330.5 69.8137 56.5843 105.395 235.32 98.267 78.2447 21.3797 95.1795 34.4636 20.9871 35.2046 13.2294 20.0223
internal_count=2791 1472 1319 1028 939 181 758 1261 89 1154 211 166 291 843 270 214 65 311 107 63 101 45 56
is_linear=0
shrinkage=0.05


Tree=33
num_leaves=21
num_cat=0
split_feature=86 86 56 67 18 63 72 40 69 55 10 4 0 86 70 65 64 5 73 46
split_gain=34.1725 19.7664 12.7413 10.9141 7.14963 10.8885 6.77791 9.20382 6.48508 5.14936 4.9438 4.71214 3.52248 3.42875 3.62198 2.5583 2.24583 2.23486 1.91581 1.21581
threshold=-0.99999999999999978 1.4250000000000005 0.75421810000000011 1.0000000180025095e-35 1.7042624166666667 11.105555555555556 1.1666666666666667 1.4500000000000002 -1.0000000180025095e-35 1.9496980000000004 1.5000000000000002 8.5000000000000018 2.8333333333333335 0.60000000000000009 0.85000000000000031 1.8931298000000003 1.2428571428571431 9.5000000000000018 0.83333333333333337 1.3000000000000003
decision_type=2 2 2 2 2 2 2 2 2 2 2 2 2 2 2 2 2 2 2 2
left_child=4 2 13 11 6 -6 12 19 18 -5 -9 -4 15 14 -2 -1 -10 -18 -3 -8
right_child=1 8 3 9 5 -7 7 10 16 -11 -12 -13 -14 -15 -16 -17 17 -19 -20 -21
leaf_value=-0.020721487354354792 0.002143098596406262 0.01054411263101029 0.0064960124560945812 -0.008977690801807315 -0.031048016551303043 0.041123294623373996 -0.049555315211977299 -0.022541536309274916 0 0.0063854501166639953 0.0077156757688871987 0.037758630587306725 0.0022207404993516379 0.0017742265626909408 0.046135335678999634 -0.0368594565885677 0.044384042513774528 0.023633986370586425 -0.018138666502185555 -0.015471888973336704
leaf_weight=112.07886841893196 7.430124223232272 10.747146874666216 176.14133021235466 282.92466554045677 7.8126484155654934 12.81627571582794 10.871657103300096 16.61587381362915 6.6715390086174002 65.201448619365692 62.135901480913162 13.00144377350807 10.65252900123596 11.378054112195967 23.041187226772308 41.568963885307312 19.77979651093483 104.10616108775139 10.766631901264189 7.6713138818740836
leaf_count=316 20 29 478 771 22 35 31 46 18 176 171 36 29 31 63 125 56 288 29 21
internal_value=-0.000109321 0.0055704 0.00130507 -0.000730249 -0.0148967 0.0125192 -0.0171738 -0.00631416 0.0215923 -0.00602355 0.000914304 0.00887068 -0.0234142 0.0277253 0.0364232 -0.0253551 0.0257912 0.0273131 -0.00276057 -0.0375441
internal_weight=1013.41 731.19 579.118 537.269 282.224 20.6289 261.595 97.2947 152.071 348.126 78.7518 189.143 164.3 41.8494 30.4713 153.648 130.557 123.886 21.5138 18.543
internal_count=2791 1995 1575 1461 796 57 739 269 420 947 217 514 470 114 83 441 362 344 58 52
is_linear=0
shrinkage=0.05


Tree=34
num_leaves=24
num_cat=0
split_feature=30 63 29 56 59 30 31 24 29 84 24 27 63 31 61 75 47 77 58 36 77 2 45
split_gain=5.09118 4.53337 3.54151 3.98986 4.67743 3.77893 3.68746 3.39644 4.00156 4.24303 4.41622 3.6683 3.28888 2.64865 2.58656 6.59397 3.06556 2.51775 3.98322 3.58002 2.22798 2.31885 0.200185
threshold=1.6333333333333335 12.612500000000002 14.100000000000001 1.2326953000000003 0.95000000000000007 2.7000000000000006 3.094867666666667 2.7000000000000006 8.3000000000000025 1.4500000000000002 3.1000000000000005 4.1000000000000005 16.100000000000005 1.9000366666666666 7.2250000000000005 1.8333333333333337 -0.34999999999999981 0.83333333333333337 1.1500000000000001 14.100000000000001 2.166666666666667 12.833333333333334 0.99999999999999978
decision_type=2 2 2 2 2 2 2 2 2 2 2 2 2 2 2 2 2 2 2 2 2 2 2
left_child=7 2 5 4 -4 6 -2 11 22 10 -10 20 17 -7 16 -16 -13 19 -19 -3 21 -1 -9
right_child=1 12 3 -5 -6 13 -8 8 9 -11 -12 14 -14 -15 15 -17 -18 18 -20 -21 -22 -23 -24
leaf_value=-0.018327504746506722 0.0010944981417847618 0.021520295466616275 0.03533362842687638 0.042803974784248439 -0.005777917130214973 -0.026424651984517811 -0.034280437872692027 0.04260789938028748 0.035503426972945833 -0.028562259219539917 -0.010749850501673878 0.012456059626193105 -0.019503866538326919 0.0090253985078585508 0.042672117788950276 -0.033118609379127743 -0.024310161761912093 -0.012085194065966691 0.024127745612464682 -0.028528296706784331 0.033802394305539572 0.01869010149278038 0.012617018197230429
leaf_weight=10.311206415295606 371.77118901908398 6.3123279064893705 8.8655333966016752 9.1968299895524961 23.936764076352119 22.260295972228054 7.000415787100791 4.7747216522693616 8.4667673557996803 11.391834795475004 10.608067899942396 4.9642905443906775 6.1224262267351142 5.3586770296096793 5.2667630761861783 5.0688247531652451 65.644648209214211 7.3926573097705832 60.369514659047127 6.7293369024991989 4.6501450538635245 6.1143897771835318 4.8884215950965881
leaf_count=46 1539 23 32 33 96 94 33 20 35 52 45 21 26 23 20 22 296 28 214 28 18 27 20
internal_value=0.000279263 0.00254943 0.000460167 0.0142306 0.00494635 -0.000917257 0.000330456 -0.00807355 0.00374144 -0.00454414 0.00888594 -0.0129604 0.0129762 -0.0186193 -0.0178437 0.00338221 -0.0213043 0.0158495 0.0197512 -0.00255784 0.00461483 -0.00292568 0.031263
internal_weight=677.466 535.316 448.39 41.9991 32.8023 406.391 378.772 142.15 40.1298 30.4667 19.0748 102.02 86.9263 27.619 80.9445 10.3356 70.6089 80.8038 67.7622 13.0417 21.0757 16.4256 9.66314
internal_count=2791 2169 1850 161 128 1689 1572 622 172 132 80 450 319 117 359 42 317 293 242 51 91 73 40
is_linear=0
shrinkage=0.05


Tree=35
num_leaves=24
num_cat=0
split_feature=86 65 31 42 9 82 64 18 4 46 74 20 41 70 42 82 72 82 14 65 87 48 58
split_gain=34.8962 13.1492 14.2629 11.0848 10.591 8.30628 6.89235 6.23414 5.93835 6.2035 5.63948 5.2306 4.76653 4.51142 3.61051 3.52246 3.48822 4.41098 4.13112 3.35544 3.01737 2.96937 2.28174
threshold=1.6653345369377351e-16 1.9970185 1.9501303333333337 1.0545463000000004 2.5000000000000004 0.45000000000000007 1.5857142857142861 1.0545717500000003 7.166666666666667 1.9000000000000006 2.166666666666667 0.83311650000000015 1.6696784666666669 0.50000000000000011 0.6598845900000001 0.77500000000000013 1.5833333333333337 1.7750000000000001 2.8333333333333335 2.6016635000000004 0.57500000000000018 2.0500000000000003 2.3166666666666669
decision_type=2 2 2 2 2 2 2 2 2 2 2 2 2 2 2 2 2 2 2 2 2 2 2
left_child=1 4 10 8 16 13 -7 15 9 11 14 -2 -9 -6 -3 -5 18 -18 -1 22 -14 -17 -4
right_child=3 2 19 7 5 6 -8 12 -10 -11 -12 -13 20 -15 -16 21 17 -19 -20 -21 -22 -23 -24
leaf_value=0.051395454214430369 -0.0085199557454955221 0.012121483155471291 -0.0011543258837289532 0.00068093970604370384 0.055827054827071433 0.011148981813140287 -0.012898926794171687 -0.017182464664762538 -0.031085651887109218 -0.014656072950803595 -0.0063204176769129025 0.034979180915280197 0.026785236001534009 0.0074856711645953089 0.039356761306787849 -0.016936716947937348 -0.012095485116543458 0.026175107280482779 0.012981633155275635 0.014661773913270868 -0.0028606844896335807 -0.030237820951171432 -0.037987888302037844
leaf_weight=7.4877649843692771 7.7389612793922415 18.6743024289608 9.9421815276145988 16.67376309633255 6.700630575418475 35.677099764347076 149.49090278148651 25.737753301858902 7.6692802906036368 12.255547612905501 8.1721688807010633 28.438561409711838 15.737444192171099 20.392777591943741 73.747655034065247 141.00559157133102 27.586613804101944 9.6870882809162122 149.72917273640633 8.7815716266632062 15.216405868530272 75.414187148213387 9.4196841418743116
leaf_count=21 23 52 31 57 19 109 479 88 24 42 24 82 48 60 205 507 79 28 422 25 50 286 30
internal_value=-6.06537e-05 0.00790434 0.0218354 -0.0124575 0.00341234 -0.00422068 -0.00811332 -0.0164193 0.00752898 0.0144096 0.0306621 0.0250031 -0.00106423 0.0211422 0.0342176 -0.0200366 0.0118605 -0.00127266 0.0151268 -0.00882566 0.0116032 -0.0217459 -0.020838
internal_weight=881.377 535.49 128.738 345.887 406.752 212.261 185.168 289.785 56.1024 48.4331 100.594 36.1775 56.6916 27.0934 92.422 233.094 194.491 37.2737 157.217 28.1434 30.9539 216.42 19.3619
internal_count=2791 1584 367 1207 1217 667 588 1036 171 147 281 105 186 79 257 850 550 107 443 86 98 793 61
is_linear=0
shrinkage=0.05


Tree=36
num_leaves=22
num_cat=0
split_feature=86 56 19 80 32 65 69 15 69 27 23 44 0 35 86 17 63 13 5 36 74
split_gain=31.1307 15.6819 12.3018 9.11016 7.70126 7.38595 6.95881 6.38495 5.52857 5.31967 5.19391 4.70518 4.61346 4.31551 3.95307 3.5857 3.15968 3.05444 2.92202 2.4393 2.17971
threshold=0.92500000000000027 1.0590378500000002 1.0000000180025095e-35 1.7750000000000001 1.1432486000000002 2.1033968888888901 -0.69999999999999951 12.833333333333334 -1.1499999999999997 8.4500000000000011 1.166666666666667 1.0781815666666674 2.8333333333333335 0.63333333333333341 1.4250000000000005 1.2456556666666672 13.738888888888892 3.5000000000000004 11.833333333333334 13.900000000000002 2.166666666666667
decision_type=2 2 2 2 2 2 2 2 2 2 2 2 2 2 2 2 2 2 2 2 2
left_child=1 6 4 11 12 8 10 15 -2 -5 -1 -4 -3 -12 16 -8 -10 -16 -6 -9 -7
right_child=5 2 3 9 18 20 7 19 14 -11 13 -13 -14 -15 17 -17 -18 -19 -20 -21 -22
leaf_value=-0.040381132106726982 -0.016514025939762207 -0.0050085075617875563 -0.018643554021004715 -0.0039981530581473515 0.036141614497944882 0 -0.0080556303103476844 0.0053397445667108454 0.013144981880575991 0.035200229382379947 0.030667466602624538 0.0074447558477609066 0.025207583029743304 -0.020242337695683857 -0.0054703976297072378 0.024184079297858572 -0.019008154372454834 0.026021442012655351 0 -0.030833587885093428 -0.036463383046486345
leaf_weight=9.8303217589855212 10.432936280965803 138.95495691895485 313.52735638618469 103.17678195238113 20.01448214054108 7.3483431339263898 8.1238471865653974 7.7889338433742514 80.782069444656372 8.9198163747787458 7.7750040590763074 16.618522197008133 13.247279882431028 7.5189177989959717 6.634513944387435 83.768854022026062 7.3977334797382346 132.21019142866135 9.5430938601493818 8.1778931319713575 7.3390523493289948
leaf_count=27 28 379 886 282 55 20 22 21 220 24 21 45 36 21 18 229 20 369 26 22 20
internal_value=-0.000123678 -0.00521739 -0.00856136 -0.0130665 0.00226869 0.0150497 0.0102596 0.0158748 0.0172387 -0.000514544 -0.0127106 -0.0172455 -0.00214093 0.00420743 0.0189325 0.0210351 0.0100737 0.024323 0.025465 -0.012043 -0.018096
internal_weight=1009.13 756.986 624.002 442.242 181.76 252.145 132.984 107.86 237.457 112.097 25.1242 330.146 152.202 15.2939 227.025 91.8927 88.1798 138.845 29.5576 15.9668 14.6874
internal_count=2791 2096 1733 1237 496 695 363 294 655 306 69 931 415 42 627 251 240 387 81 43 40
is_linear=0
shrinkage=0.05


Tree=37
num_leaves=24
num_cat=0
split_feature=30 63 0 11 34 82 24 41 82 27 82 72 85 38 60 83 8 55 61 75 62 81 78
split_gain=4.73853 4.11106 3.37485 4.01887 3.89615 3.39044 3.22339 3.95216 4.1594 3.49266 3.32641 3.1355 3.6054 4.9043 3.59433 2.65764 3.816 2.60423 2.44434 6.12603 2.12799 1.58743 1.19659
threshold=1.6333333333333335 12.612500000000002 2.8333333333333335 2.5000000000000004 1.1000000000000003 1.3666666666666669 2.7000000000000006 1.7290230000000004 2.1000000000000005 4.1000000000000005 1.7750000000000001 1.0000000180025095e-35 1.1000000000000003 5.9000000000000012 10.657142857142858 1.5500000000000003 1.2947865000000003 2.3020761000000003 7.2250000000000005 1.8333333333333337 4.2250000000000005 1.1000000000000003 -0.33333333333333359
decision_type=2 2 2 2 2 2 2 2 2 2 2 2 2 2 2 2 2 2 2 2 2 2 2
left_child=6 2 3 4 -2 22 9 -8 10 15 -9 -3 13 -13 -14 21 -17 -10 20 -20 -11 -1 -4
right_child=1 11 5 -5 -6 -7 7 8 17 18 -12 12 14 -15 -16 16 -18 -19 19 -21 -22 -23 -24
