tree
version=v4
num_class=1
num_tree_per_iteration=1
label_index=0
max_feature_idx=189
objective=binary sigmoid:1
feature_names=Column_0 Column_1 Column_2 Column_3 Column_4 Column_5 Column_6 Column_7 Column_8 Column_9 Column_10 Column_11 Column_12 Column_13 Column_14 Column_15 Column_16 Column_17 Column_18 Column_19 Column_20 Column_21 Column_22 Column_23 Column_24 Column_25 Column_26 Column_27 Column_28 Column_29 Column_30 Column_31 Column_32 Column_33 Column_34 Column_35 Column_36 Column_37 Column_38 Column_39 Column_40 Column_41 Column_42 Column_43 Column_44 Column_45 Column_46 Column_47 Column_48 Column_49 Column_50 Column_51 Column_52 Column_53 Column_54 Column_55 Column_56 Column_57 Column_58 Column_59 Column_60 Column_61 Column_62 Column_63 Column_64 Column_65 Column_66 Column_67 Column_68 Column_69 Column_70 Column_71 Column_72 Column_73 Column_74 Column_75 Column_76 Column_77 Column_78 Column_79 Column_80 Column_81 Column_82 Column_83 Column_84 Column_85 Column_86 Column_87 Column_88 Column_89 Column_90 Column_91 Column_92 Column_93 Column_94 Column_95 Column_96 Column_97 Column_98 Column_99 Column_100 Column_101 Column_102 Column_103 Column_104 Column_105 Column_106 Column_107 Column_108 Column_109 Column_110 Column_111 Column_112 Column_113 Column_114 Column_115 Column_116 Column_117 Column_118 Column_119 Column_120 Column_121 Column_122 Column_123 Column_124 Column_125 Column_126 Column_127 Column_128 Column_129 Column_130 Column_131 Column_132 Column_133 Column_134 Column_135 Column_136 Column_137 Column_138 Column_139 Column_140 Column_141 Column_142 Column_143 Column_144 Column_145 Column_146 Column_147 Column_148 Column_149 Column_150 Column_151 Column_152 Column_153 Column_154 Column_155 Column_156 Column_157 Column_158 Column_159 Column_160 Column_161 Column_162 Column_163 Column_164 Column_165 Column_166 Column_167 Column_168 Column_169 Column_170 Column_171 Column_172 Column_173 Column_174 Column_175 Column_176 Column_177 Column_178 Column_179 Column_180 Column_181 Column_182 Column_183 Column_184 Column_185 Column_186 Column_187 Column_188 Column_189
feature_infos=[0:37] [0:30] [2.3029999999999999:193] [2.7894999999999999:116.75] [0.020346300676465:7.1416776310652486] [0.020989025011658599:6.1184201743453732] [0.019707433258493699:0.76116901636123657] [0.010022390633821401:0.50099195539951324] [0:5.333333333333333] [0:5.333333333333333] [0.33050099999999999:4.4938499999999992] [0.14320686666666665:4.3048899999999994] [4:29] [0.33333333333333331:12.666666666666666] [1:13.666666666666666] [4.4275000000000002:84.945933333333329] [0:27.333333333333332] [0.30303875263780333:4.65057199448347] [0.029363820230355348:0.4082791765686124] [0:5.666666666666667] [0:5] [0.167602:4.2171866666666666] [0.24252733333333332:4.2970433333333338] [2.6666666666666665:27.333333333333332] [0.33333333333333331:11.666666666666666] [0.33333333333333331:11.666666666666666] [4.6660000000000004:51.600000000000001] [0.5:21.333333333333332] [0.16760198989262157:4.4914219146594396] [0.029778013510319001:0.31013856209400625] [0:4.7999999999999998] [0:4.4000000000000004] [0.33050099999999999:4.0464766666666669] [0.18546151999999999:4.0729039999999994] [4.2000000000000002:28.199999999999999] [1.3999999999999999:11.4] [1:12.6] [4.6467799999999997:58.853999999999999] [0:22.800000000000001] [0.33086202596314201:4.053268974646925] [0.029363820230355348:0.29393343321728299] [0:4] [0:4.2000000000000002] [0.238315:3.6216240000000006] [0.3991768:3.890835] [3.5:25] [0.5:9.5999999999999996] [1:10.6] [4.6790666666666665:41.443750000000001] [1:18.600000000000001] [0.238916548900306:3.8876953648868939] [0.038186514426747024:0.30032677886386705] [0:4.666666666666667] [0:3.7999999999999998] [0.33050099999999999:4.0464766666666669] [0.37148795999999995:3.5279179999999997] [6.5999999999999996:27.600000000000001] [2:10.699999999999999] [1.5:11.199999999999999] [5.0460500000000001:36.101849999999999] [0:21.5] [0.33086202596314201:4.053268974646925] [0.029363820230355348:0.21190902254041316] [0:4] [0.20000000000000001:3.5] [0.238315:3.1571860000000003] [0.51888849999999997:3.890835] [3.5:20.5] [0.5:8.6999999999999993] [1:8.8000000000000007] [4.7407500000000002:31.856824999999997] [1:16.100000000000001] [0.238916548900306:3.1603069910779586] [0.038206815471251702:0.30032677886386705] [0:3] [0:1] [0:1] [0:5] [0:5.333333333333333] [0:1] [0:3] [0:1] [0:1] [0:5.666666666666667] [0:4.666666666666667] [0:1] [0:3] [0:1] [0:1] [0:4.7999999999999998] [0:4] [0:1] [0:3] [0:1] [0:1] [0:4.5999999999999996] [0:4] [0:1] [0:3] [0:1] [0:1] [0:3.8571428571428572] [0.10000000000000001:4] [0:0.90000000000000002] [0:3] [0:1] [0:1] [0:4] [0:3.6666666666666665] [0:1] [3.3333333333333335:18.333333333333332] [0:5.333333333333333] [4:19] [0:5] [4.5999999999999996:17.800000000000001] [0:5] [5:17] [0:4.4000000000000004] [5.7999999999999998:15.6] [0:5] [5:16] [0:3.6000000000000001] [-4.666666666666667:4.333333333333333] [-4.333333333333333:5] [-2.8806406:3.0608003333333338] [-73.317966666666663:43.256066666666669] [-15:24.333333333333332] [-2.8699568463489409:3.3497298383153966] [-0.19527868885491384:0.32439331024459467] [-1.9888533333333336:2.25536] [-2.1839600000000003:2.7741266666666671] [-3:3] [-6:5.6666666666666679] [-3.7000000000000002:3.3999999999999999] [-3.6000000000000005:3.3999999999999999] [-2.6953765999999999:3.0408246666666665] [-44.883340000000011:29.475540000000002] [-11.800000000000001:19.600000000000001] [-2.3609232265967872:2.9559005260467526] [-0.20875076885814919:0.20597379459438325] [-1.5711539999999999:2.0680160000000001] [-1.6701386:1.6839095999999998] [-3:2.7999999999999998] [-5.4000000000000004:5.5999999999999996] [-2.7000000000000002:3.3333333333333339] [-3.1999999999999997:3] [-2.8152651:3.0408246666666665] [-27.615049999999993:22.985150000000001] [-11.166666666666668:15.699999999999999] [-1.8549195694116254:2.5298035088926554] [-0.20531450110609334:0.12106779398155809] [-1.3043848:1.4892219999999998] [-1.24064:1.3604118000000001] [-2.6000000000000001:2.3999999999999999] [-3.7999999999999998:4] [0:1] [0:1] [0:6] [2:813] [2:454] [0:1] [0:1] [1.5:4.4000000000000004] [0:2] [1522.7600097699999:2088.2619628900002] [1525.6278076200001:2090.1362304700001] [-482.20227051000006:493.09851073999994] [1:100] [1:100] [-98:98] [0.049896049896049892:0.89438223571835251] [0.072914197677174691:0.33876221498371334] [0.032691212753843235:0.83160083160083165] [1.0298245614035089:1.1666666666666665] [0.28571428571428575:0.78749999999999998] [0.21249999999999997:0.7142857142857143] [1.1756052141527:2.6253174010455567] [1.1756052141527:2.6253174010455567] [-1.4497121868928566:1.4497121868928566] [30.100000000000001:123.60000000000002] [30.100000000000001:123.60000000000002] [0:2] [0:2] [14.720000000000001:59.220000000000013] [14.720000000000001:59.220000000000013] [0.23828995753023718:0.8377269485021186] [0.31549997661261864:0.73067962750348125] [0.028827833293812298:0.92762948990771532] [0.055416905979702509:0.36934052390457472] [0.014175149555687086:0.87215214234426153]
tree_sizes=1585 1572 1546 1547 1613 1700 1590 1607 1386 1418 1589 1728 1371 1603 1416 1702 1369 1675 1493 1682 1714 1206 1179 1844 1183 1320 1082 1289 1061 1465 1383 1196 1702 1522 1575 1411 1583 1105 1151 1733 860 1086 1388 1390 1309 1166 935 1511 1707 1067 1591 1827 1466 1763 1208 1133 1677 1497 1605 1402 1260 1598 1150 1298 1815 1495 1399 1281 1269 990 1485 1254 989 1593 1708 1509 1407 1074 1488 1198 1700 1513 1084 1281 1468 1484 1180 758 1794 1555 1503 851 1581 1602 1686 1077 960 1285 1506 1075 1520 1600 985 1493 1072 967 1703 1600 956 1719 1598 1160 1066 1300 1504 931 1381 1773 1781 1091 1273 1780 1694 1058 1049 1413 1565 1690 1684 1821 962 1181 1171 1474 862 1287 1786 1714 1075 1272 1690 1208 1563 1370 1797 1725 1699 1555 974 1358 1135 1281 1600 1354 1094 1183 1092 1520 1581 1558

Tree=0
num_leaves=14
num_cat=0
split_feature=2 1 54 0 7 186 186 98 6 0 73 114 186
split_gain=28.6553 20.3873 16.8778 15.2726 12.8469 11.549 10.1869 8.58527 8.48748 10.9302 6.24226 3.7419 3.06664
threshold=6.7611500000000015 14.500000000000002 1.8735382500000004 7.5000000000000009 0.12375297738860046 0.64019019446707148 0.47856972078454518 1.3541666666666667 0.12853855808498332 6.5000000000000009 0.12354787140570887 10.900000000000002 0.61995211774486514
decision_type=2 2 2 2 2 2 2 2 2 2 2 2 2
left_child=2 3 8 4 -2 -5 -4 10 9 -1 -3 -10 -8
right_child=1 7 6 5 -6 -7 12 -9 11 -11 -12 -13 -14
leaf_value=-0.18404169820921307 -0.17701034930846637 -0.1546123832241752 -0.1712159403814453 -0.17063710912113864 -0.1985202330134444 -0.12223709384883166 -0.096195688530759868 -0.1712159403814453 -0.1712159403814453 -0.1294446660225281 -0.090187856833840438 -0.22279891571314747 -0.15111521436759009
leaf_weight=13.401543885469435 209.7093441337347 10.423423022031789 8.4380091130733472 183.89896331727505 109.94229520857334 12.408836930990217 22.584083214402202 9.6788928061723691 6.4525952041149122 20.598669305443764 9.9270695447921735 6.2044184654951096 6.9489486813545218
leaf_count=54 845 42 34 741 443 50 91 39 26 83 40 25 28
internal_value=-0.171216 -0.175426 -0.14432 -0.177863 -0.184627 -0.167092 -0.119853 -0.136303 -0.165941 -0.152145 -0.118521 -0.198024 -0.106399
internal_weight=630.617 545.989 84.6283 515.959 319.652 196.308 37.971 30.0294 46.6572 34.0002 20.3505 12.657 29.533
internal_count=2541 2200 341 2079 1288 791 153 121 188 137 82 51 119
is_linear=0
shrinkage=1


Tree=1
num_leaves=14
num_cat=0
split_feature=2 1 61 4 180 114 150 98 120 112 120 117 141
split_gain=25.8871 18.5299 14.4423 14.4414 12.7854 10.3694 8.68381 7.86351 7.6684 7.2994 15.3982 6.88624 5.21487
threshold=6.7611500000000015 14.500000000000002 1.8369506179937158 0.71128888078965191 80.850000000000009 9.4500000000000011 -0.0019968182528575166 1.3541666666666667 12.535714285714286 10.833333333333334 10.366666666666669 1.9000000000000001 -0.37553570000000003
decision_type=2 2 2 2 2 2 2 2 2 2 2 2 2
left_child=2 3 9 5 -5 -2 7 -3 12 10 -1 -11 -4
right_child=1 6 8 4 -6 -7 -8 -9 -10 11 -12 -13 -14
leaf_value=-0.015112968962532928 0.0020794359918367865 0.069988371305251179 0.0089375182050240708 -0.0078924037744061912 0.011215634859565393 -0.036295246859970223 -0.0029859188527837852 0 0 0.014445949977544207 0.059389398621977618 -0.037847371329028018 0.07010550004986453
leaf_weight=11.172931969165804 21.319912821054459 14.450945377349859 6.7193519771099117 316.24045597016811 118.58555004000664 59.485351383686066 8.9443665444850904 6.7007719427347174 7.7149440497159949 9.1912266016006487 13.413518548011778 12.654263287782667 23.904729723930359
leaf_count=45 86 58 27 1275 478 240 36 27 31 37 54 51 96
internal_value=0 -0.00398213 0.0255629 -0.00631297 -0.00255277 -0.0256575 0.0332626 0.050291 0.0480457 0.0053231 0.0243113 -0.0139877 0.0589725
internal_weight=630.498 545.727 84.771 515.631 434.826 80.8053 30.0961 21.1517 38.339 46.4319 24.5865 21.8455 30.6241
internal_count=2541 2200 341 2079 1753 326 121 85 154 187 99 88 123
is_linear=0
shrinkage=0.05


Tree=2
num_leaves=14
num_cat=0
split_feature=2 1 54 0 114 186 186 6 0 157 42 120 114
split_gain=23.4944 16.7859 13.9774 13.4067 12.3233 10.3466 9.03428 7.50087 9.99985 7.13024 6.11479 3.98124 3.35139
threshold=6.7611500000000015 14.500000000000002 1.8735382500000004 7.5000000000000009 12.633333333333335 0.64019019446707148 0.47856972078454518 0.12853855808498332 6.5000000000000009 2.379807692307693 1.5500000000000003 11.121428571428572 10.900000000000002
decision_type=2 2 2 2 2 2 2 2 2 2 2 2 2
left_child=2 3 7 4 -2 -5 -4 8 -1 -3 -11 -8 -9
right_child=1 9 6 5 -6 -7 11 12 -10 10 -12 -13 -14
leaf_value=-0.012855081913807066 -0.016396041726970238 -0.0078933537621539169 0 0.00070054507103470211 0.011109145232222138 0.046473048881937512 0.080378710089290595 0 0.039293337264136349 0.058827792775382304 0 0.031429213318533419 -0.049136269063548683
leaf_weight=13.396877914667128 274.16446250677109 6.4697130322456387 8.4598217904567701 183.85522828996181 44.829157367348671 12.454396113753317 14.734532594680788 6.4532165676355344 20.666183829307556 17.439135938882831 6.2242740839719763 14.975098490715025 6.1631432622671127
leaf_count=54 1107 26 34 741 181 50 59 26 83 70 25 60 25
internal_value=0 -0.00377481 0.0243615 -0.00599981 -0.0123518 0.0040787 0.0465559 0.0045687 0.0175759 0.0316391 0.0443566 0.0591608 -0.0255891
internal_weight=630.285 545.436 84.8489 515.303 318.994 196.31 38.1695 46.6794 34.0631 30.1331 23.6634 29.7096 12.6164
internal_count=2541 2200 341 2079 1288 791 153 188 137 121 95 119 51
is_linear=0
shrinkage=0.05


Tree=3
num_leaves=14
num_cat=0
split_feature=2 1 54 4 6 114 186 150 98 6 0 150 120
split_gain=21.258 15.1444 12.7872 12.7294 12.0177 9.53081 8.20863 7.7153 7.14813 6.82563 9.08564 3.59507 3.51458
threshold=6.7611500000000015 14.500000000000002 1.8735382500000004 0.71128888078965191 0.098048933008403408 9.4500000000000011 0.47856972078454518 -0.0019968182528575166 1.3541666666666667 0.12853855808498332 6.5000000000000009 0.0023781772150089091 11.121428571428572
decision_type=2 2 2 2 2 2 2 2 2 2 2 2 2
left_child=2 3 9 5 -5 -2 -4 8 -3 10 -1 -11 -8
right_child=1 7 6 4 -6 -7 12 -9 -10 11 -12 -13 -14
leaf_value=-0.012270253297833527 0.0026325258621797123 0.064842947671184162 0 0.01162032432751429 -0.0071849642113906839 -0.03414065512844177 0.076573732475321399 -0.0038538403237901257 0 0 0.03734580354088797 -0.048990428914799794 0.029931755315131366
leaf_weight=13.381688416004179 21.296190053224564 14.491634190082555 8.4598217904567701 113.25955687463284 321.19178496301174 59.1910320520401 14.742632150650026 8.9543676078319532 6.7183841317892066 6.4229462742805463 20.70769014954567 6.1545083224773407 14.987739175558088
leaf_count=54 86 58 34 457 1296 240 59 36 27 26 83 25 60
internal_value=0 -0.00356571 0.0231975 -0.00568569 -0.00215226 -0.0238843 0.0444187 0.0300415 0.0461317 0.00421444 0.0166496 -0.0245507 0.0564267
internal_weight=629.96 545.103 84.857 514.939 434.451 80.4872 38.1902 30.1644 21.21 46.6668 34.0894 12.5775 29.7304
internal_count=2541 2200 341 2079 1753 326 153 121 85 188 137 51 119
is_linear=0
shrinkage=0.05


Tree=4
num_leaves=14
num_cat=0
split_feature=2 1 180 4 144 98 186 113 150 159 98 115 130
split_gain=19.2792 13.7204 12.5854 14.9743 12.1513 11.9449 11.3034 8.42511 7.08219 7.05474 6.47149 5.15094 3.78254
threshold=6.7611500000000015 14.500000000000002 68.750000000000014 1.5290042855776842 1.0000000180025095e-35 1.3166666666666669 0.47856972078454518 1.4166666666666667 -0.0019968182528575166 8.5000000000000018 1.3541666666666667 1.9000000000000001 -0.1410308333333333
decision_type=2 2 2 2 2 2 2 2 2 2 2 2 2
left_child=5 2 4 -4 -2 7 12 -1 10 -8 -3 -9 -7
right_child=1 8 3 -5 -6 6 9 11 -10 -11 -12 -13 -14
leaf_value=0.035954535436172823 -0.0015758282978421342 0.061859871294906638 -0.0095777270668452735 0.01199372777676104 -0.027180370670747474 -0.030643002978003615 0.059058314334310913 -0.039756549865701443 -0.0036814136793735688 0.0041085537194815325 0 0.0048086124221750955 0.019208016607763473
leaf_weight=8.4537413269281405 91.997933238744736 14.479355081915861 167.45854057371616 152.49861098825932 102.6392770409584 6.1951205134391785 32.653213366866112 12.666670337319376 8.9519731402397138 9.7064377218484861 6.7183841317892066 8.6560217142105085 6.4643893688917142
leaf_count=34 372 58 677 615 415 25 131 51 36 39 27 35 26
internal_value=3.85055e-06 -0.00338062 -0.00540334 0.000553253 -0.0154035 0.0221152 0.0357804 -0.00185215 0.028603 0.0480052 0.0440412 -0.0200203 -0.00198426
internal_weight=629.54 544.744 514.594 319.957 194.637 84.7956 55.0192 29.7764 30.1497 42.3597 21.1977 21.3227 12.6595
internal_count=2541 2200 2079 1292 787 341 221 120 121 170 85 86 51
is_linear=0
shrinkage=0.05


Tree=5
num_leaves=15
num_cat=0
split_feature=0 1 6 4 4 40 40 59 15 114 5 64 114 13
split_gain=18.76 15.7999 13.4006 14.2333 10.9857 10.7507 10.272 14.1317 11.4089 10.2295 9.21799 8.91763 8.2838 8.09818
threshold=7.5000000000000009 5.5000000000000009 0.10957197570727047 1.6476386636495584 0.72884343704208721 0.10004670564434169 0.10865524049569104 9.4344500000000018 13.100600000000002 13.550000000000002 1.3572287559509275 1.267857142857143 8.9000000000000021 4.8333333333333348
decision_type=2 2 2 2 2 2 2 2 2 2 2 2 2 2
left_child=1 9 3 10 5 -3 8 -8 -4 12 -2 -5 -1 -6
right_child=2 4 6 11 13 -7 7 -9 -10 -11 -12 -13 -14 -15
leaf_value=0.0029665627986254998 -0.0037996221785407697 0.0072181371211208645 -0.042291993570794592 0 -0.00072339934207879162 -0.032635875539929464 0.036295858537574985 -0.0020573879760624682 0.016265505921182422 0.026079996951746998 0.0305808528551645 0.063940557912747262 -0.031311402027344483 0.021072512008399019
leaf_weight=18.05347914993763 41.951297357678413 24.869631886482239 23.571867108345032 6.4635435938835135 115.82324488461018 41.100452184677124 31.053566098213196 87.323319211602211 10.419402584433554 8.6704811304807645 32.042000785470009 26.132942661643028 98.825049340724945 62.818055585026741
leaf_count=73 169 101 95 26 468 167 125 352 42 35 129 105 400 254
internal_value=1.1517e-05 -0.00712331 0.0103907 0.023914 9.38162e-05 -0.0169815 0.000510181 0.00780466 -0.0229615 -0.0214694 0.010631 0.0513639 -0.0256123 0.0067373
internal_weight=629.118 370.16 258.958 106.59 244.611 65.9701 152.368 118.377 33.9913 125.549 73.9933 32.5965 116.879 178.641
internal_count=2541 1498 1043 429 990 268 614 477 137 508 298 131 473 722
is_linear=0
shrinkage=0.05


Tree=6
num_leaves=14
num_cat=0
split_feature=2 1 177 0 52 146 53 61 73 113 58 128 179
split_gain=17.1065 12.7192 14.5706 15.0084 10.923 10.3489 9.77499 10.8557 7.57897 6.45193 5.36802 4.94232 4.57154
threshold=6.7611500000000015 12.500000000000002 2.1830463387098873 9.5000000000000018 1.4722222222222225 0.20032652500000006 1.4365079365079367 1.7312739770160983 0.089877958913762823 1.4166666666666667 5.9500000000000011 -0.032595144273708666 80.850000000000009
decision_type=2 2 2 2 2 2 2 2 2 2 2 2 2
left_child=4 2 3 -2 9 -4 7 -3 -6 -1 -11 -10 -8
right_child=1 6 5 -5 8 -7 12 -9 11 10 -12 -13 -14
leaf_value=0.03578773269212298 -0.0072421185704880583 -0.020509462686156599 -0.0047933542344855071 0.014840151081112319 -0.0012200565625801996 -0.035862954714214239 0.055605130011198038 0.044598584559787963 0 -0.031057762110780197 0.014883280094834467 0.050530613679380845 0.0018613891776111261
leaf_weight=7.2248621135950115 268.86724077165127 20.04973624646664 56.780009984970093 106.27984203398228 9.4240722805261594 58.946325406432152 17.33943542838097 8.1928793638944608 7.202366590499877 16.80561958253384 7.4589985311031333 36.54712176322937 7.6898395121097556
leaf_count=29 1088 81 230 428 38 239 70 33 29 68 30 147 31
internal_value=2.0262e-05 -0.00316422 -0.00577216 -0.000830424 0.0208692 -0.021219 0.0196089 0 0.0345275 -0.0010082 -0.0149262 0.0432004 0.04172
internal_weight=628.808 544.145 490.873 375.147 84.663 115.726 53.2719 28.2426 53.1736 31.4895 24.2646 43.7495 25.0293
internal_count=2541 2200 1985 1516 341 469 215 114 214 127 98 176 101
is_linear=0
shrinkage=0.05


Tree=7
num_leaves=14
num_cat=0
split_feature=0 1 6 40 7 25 114 40 59 178 130 2 116
split_gain=15.6356 14.1021 12.1584 11.5714 9.93649 10.3092 9.2593 9.20215 12.6316 8.39174 8.18993 7.66589 7.65616
threshold=7.5000000000000009 5.5000000000000009 0.10957197570727047 0.087912024598983299 0.1477543326992807 5.8333333333333348 13.550000000000002 0.11220821132718113 9.384675555555555 -0.44015339825923833 0.45192900000000008 9.4781000000000031 11.100000000000001
decision_type=2 2 2 2 2 2 2 2 2 2 2 2 2
left_child=1 6 3 -2 10 -6 12 9 -9 -4 -3 -5 -1
right_child=2 4 7 11 5 -7 -8 8 -10 -11 -12 -13 -14
leaf_value=-0.035651319568517657 -0.02290505305557837 0.011592531824077431 0.021877322292224697 0.039781022123247772 0 -0.043845697524046892 0.025016830751412727 0.035655322896169274 -0.0016815293637953673 -0.031019441295765567 -0.01400419299170487 0.0087062472307532536 -0.0081746917229907103
leaf_weight=64.711948052048683 10.697064951062201 148.89285713434219 7.6880018413066855 57.692878738045692 36.733694151043892 21.631189808249474 8.6836401820182783 29.114415034651756 82.358152374625206 33.178216204047203 37.055373638868332 38.232394188642502 51.691435024142265
leaf_count=263 43 603 31 232 149 88 35 117 332 134 150 154 210
internal_value=3.08303e-05 -0.00648638 0.00950896 0.0223793 0.000320588 -0.0172839 -0.020075 8.77212e-05 0.00785587 -0.019589 0.00617659 0.0281292 -0.0240492
internal_weight=628.361 369.4 258.961 106.622 244.313 58.3649 125.087 152.339 111.473 40.8662 185.948 95.9253 116.403
internal_count=2541 1498 1043 429 990 237 508 614 449 165 753 386 473
is_linear=0
shrinkage=0.05


Tree=8
num_leaves=12
num_cat=0
split_feature=4 5 6 2 180 7 54 133 165 159 185
split_gain=15.8025 15.7908 13.3271 12.677 10.4831 10.0786 9.97605 8.85251 7.96486 6.46467 4.98418
threshold=0.57208093442022767 1.7871940089389675 0.12184891032853291 6.7611500000000015 80.850000000000009 0.12015919843414681 1.8735382500000004 -0.97499999999999987 1739.3667602550001 12.500000000000002 0.46412666795309121
decision_type=2 2 2 2 2 2 2 2 2 2 2
left_child=7 3 8 6 -5 -4 -2 -1 -3 10 -9
right_child=1 2 5 4 -6 -7 -8 9 -10 -11 -12
leaf_value=0.015194948030608278 -1.690298921287731e-07 0.057393144467097514 0.039334844745898941 -0.010831281054209047 0.0078366101204636867 -0.0098886010258256631 0.037036562513296789 0 0.01874238406715642 0.00088829968839905483 -0.047372825181832966
leaf_weight=9.8250619173049909 33.372398138046265 22.552272617816925 12.144422501325606 266.35557250678539 100.70967248082161 48.690317794680595 33.016887813806534 6.1300050467252722 49.91878654062748 9.0459393113851529 36.233931243419647
leaf_count=40 135 91 49 1078 406 197 133 25 202 37 148
internal_value=1.6508e-05 0.00271745 0.0177337 -0.0018158 -0.00556625 0 0.0179533 -0.0238207 0.0320681 -0.0323787 -0.0404919
internal_weight=627.995 566.76 133.306 433.455 367.065 60.8347 66.3893 61.2349 72.4711 51.4099 42.3639
internal_count=2541 2291 539 1752 1484 246 268 250 293 210 173
is_linear=0
shrinkage=0.05


Tree=9
num_leaves=12
num_cat=0
split_feature=4 5 139 103 7 63 35 133 159 16 11
split_gain=14.2634 14.3161 14.0069 13.5438 12.3664 11.4573 10.1288 8.09956 5.96417 7.28693 1.87762
threshold=0.57208093442022767 1.7871940089389675 0.017941626145318624 0.15476190476190479 0.11141358156158931 1.3875000000000002 4.4500000000000011 -0.97499999999999987 12.500000000000002 3.8333333333333335 1.2851921666666668
decision_type=2 2 2 2 2 2 2 2 2 2 2
left_child=7 2 6 -4 10 -6 -2 -1 9 -9 -3
right_child=1 4 3 -5 5 -7 -8 8 -10 -11 -12
leaf_value=0.014482732370616072 -0.01838159953746803 0.022420880116355846 0.038425276380848292 0.0019138343461053066 0.027577594123453338 -0.0028840825923161879 0.00016946395458075625 0.00097067374636974457 0.00084820472534725467 -0.047976650519187813 0.078313225478135962
leaf_weight=9.8415553420782071 132.12089696526527 6.9568588733673087 32.910119831562042 115.33400358259678 53.778186082839966 64.487455934286118 152.77664114534855 7.0985342413187018 9.0470985174179059 35.02182525396347 8.1950650662183744
leaf_count=40 535 28 133 466 217 261 618 29 37 144 33
internal_value=3.21373e-05 0.00259886 -0.00171664 0.0105575 0.0168897 0.0106634 -0.00829289 -0.0226549 -0.0308971 -0.0387368 0.0587233
internal_weight=627.568 566.559 433.142 148.244 133.418 118.266 284.898 61.009 51.1675 42.1204 15.1519
internal_count=2541 2291 1752 599 539 478 1153 250 210 173 61
is_linear=0
shrinkage=0.05


Tree=10
num_leaves=14
num_cat=0
split_feature=2 55 35 186 114 98 120 167 124 58 186 42 12
split_gain=13.4218 12.0429 12.3222 11.4446 10.3161 9.30385 10.2502 8.82591 8.24377 8.04539 6.67628 3.81077 6.3218
threshold=6.7611500000000015 1.4814152500000002 4.9000000000000012 0.64019019446707148 7.4500000000000011 1.3166666666666669 12.950000000000001 30.500000000000004 0.087628666666666702 6.8500000000000005 0.47856972078454518 1.9000000000000001 12.833333333333334
decision_type=2 2 2 2 2 2 2 2 2 2 2 2 2
left_child=5 3 7 4 -2 11 10 -3 -4 -5 -7 12 -1
right_child=1 2 8 9 -6 6 -8 -9 -10 -11 -12 -13 -14
leaf_value=0.036649154191672161 0.030353297917457306 0.019232700529583809 0.0046043113580588385 0.0016701962403418936 -0.012852701599975633 0 -0.020258137928052526 -0.0081609154538067642 0.0500350752775836 0.060799543173035701 0.048273967535546698 -0.026403813194916553 -0.016651644654232575
leaf_weight=9.88913038372994 12.87186163663864 40.939213320612907 21.762380063533783 21.764962568879131 316.7791044563055 9.6850572079420072 6.7148422896862021 97.371380552649498 23.489604398608208 7.9358372092247 38.329822808504105 10.598533496260641 9.1230336129665357
leaf_count=40 52 166 88 88 1284 39 27 395 95 32 155 43 37
internal_value=5.86091e-05 -0.00275411 0.00749853 -0.00813635 -0.0109277 0.0185706 0.0306937 0 0.0298397 0.0205635 0.0391073 -0.00247408 0.00902013
internal_weight=627.255 542.914 183.563 359.352 329.651 84.3404 54.7297 138.311 45.252 29.7008 48.0149 29.6107 19.0122
internal_count=2541 2200 744 1456 1336 341 221 561 183 120 194 120 77
is_linear=0
shrinkage=0.05


Tree=11
num_leaves=15
num_cat=0
split_feature=0 7 5 5 48 36 180 166 103 5 153 172 112 179
split_gain=12.873 10.7514 12.52 10.0535 9.76756 9.68781 9.05996 9.87323 8.83275 7.69254 12.8102 5.84412 5.13253 3.82624
threshold=7.5000000000000009 0.1477543326992807 1.8066796474158757 2.2649734700098634 25.735620000000004 4.366666666666668 70.450000000000017 -42.133483885000025 0.38750000000000007 3.3001928920857604 0.19999999999999987 0.34095201377510226 10.41666666666667 73.050000000000011
decision_type=2 2 2 2 2 2 2 2 2 2 2 2 2 2
left_child=1 2 4 6 -1 -4 8 -8 -2 10 -3 -5 -11 -13
right_child=3 9 5 11 -6 -7 7 -9 -10 12 -12 13 -14 -15
leaf_value=-0.0037208688333170443 0.0058735172550320285 -0.040884703750522965 0.058518730959181697 0.064564376695140549 -0.062892171628757973 0.0061115755942123123 -0.014126721122872686 0.023202015490993277 -0.021172303386885354 -0.015495753482835757 0.0052384221074317054 -0.012388194869375507 0.037600835477286584 0.036029738427736234
leaf_weight=230.23115557432175 81.134462967514992 52.150781616568565 12.585289627313612 11.414522364735605 6.373195841908454 33.822238311171532 19.623095139861107 88.124658137559891 45.517263740301132 7.5846202373504621 18.184138596057892 6.2097036093473417 7.3971565663814545 6.4616874754428864
leaf_count=936 328 213 51 46 26 137 79 355 184 31 74 25 30 26
internal_value=7.80646e-05 -0.00583797 -0.000937582 0.00869081 -0.00578313 0.0223132 0.00519999 0.0158765 -0.00354448 -0.021315 -0.028353 0.0391081 0.00830414 0.00947434
internal_weight=626.814 368.329 283.012 258.485 236.604 46.4075 234.399 107.748 126.652 85.3167 70.3349 24.0859 14.9818 12.6714
internal_count=2541 1498 1150 1043 962 188 946 434 512 348 287 97 61 51
is_linear=0
shrinkage=0.05


Tree=12
num_leaves=12
num_cat=0
split_feature=4 6 4 4 1 5 82 133 128 118 52
split_gain=12.5089 13.4485 14.298 13.7122 12.992 11.8181 11.5218 7.37259 7.04852 5.80331 3.96484
threshold=0.57208093442022767 0.11234242140370251 1.627566537354141 2.8504451056942339 10.500000000000002 1.8184147649444633 1.0000000180025095e-35 -0.97499999999999987 -0.02760856240626924 9.4142857142857164 0.84523809523809534
decision_type=2 2 2 2 2 2 2 2 2 2 2
left_child=7 2 5 4 -3 -2 -5 -1 -4 -9 -11
right_child=1 3 8 6 -6 -7 -8 9 -10 10 -12
leaf_value=0.014038861648163795 -0.0027793609942137979 -0.01396672144280079 0 -0.006247514149741615 0.017362114710737807 0.024680431884727981 0.032974115400525687 0.00081248148550120379 0.044630662713062978 0 -0.043767879351039679
leaf_weight=9.8469403237104398 132.48026148974895 223.65331622958183 9.653973922133444 30.899869486689568 36.62166602909565 53.2023935765028 39.649173572659492 9.7333116531372053 39.635089889168739 6.3040878921747199 34.75147932767868
leaf_count=40 537 907 39 125 148 215 160 40 160 26 144
internal_value=7.85498e-05 0.00248379 0.011659 -0.00389786 -0.00931769 0.00491073 0.0152493 -0.0212298 0.035484 -0.0291722 -0.0373201
internal_weight=626.432 565.796 234.972 330.824 260.275 185.683 70.549 60.6358 49.2891 50.7889 41.0556
internal_count=2541 2291 951 1340 1055 752 285 250 199 210 170
is_linear=0
shrinkage=0.05


Tree=13
num_leaves=14
num_cat=0
split_feature=2 1 177 114 98 120 68 102 144 169 186 42 12
split_gain=11.3776 11.17 12.5799 10.071 8.35293 9.18214 8.28576 8.18244 9.44506 7.09378 6.07546 3.54517 5.76642
threshold=6.7611500000000015 10.500000000000002 2.1830463387098873 12.450000000000001 1.3166666666666669 12.950000000000001 3.7888888888888892 1.4142857142857144 0.70000000000000007 -31.499999999999996 0.47856972078454518 1.9000000000000001 12.833333333333334
decision_type=2 2 2 2 2 2 2 2 2 2 2 2 2
left_child=4 2 3 -2 11 10 -4 8 -3 -9 -6 12 -1
right_child=1 7 6 -5 5 -7 -8 9 -10 -11 -12 -13 -14
leaf_value=0.034773100384873211 -0.0049092391470249548 -0.022140092649210127 0.0048998880145017104 0.018527845232670859 0 -0.019312050659710044 -0.029017629489556107 0.0038383526204617854 0.03247299512804494 0.041982343524775471 0.045507397777514537 -0.025819925235465658 -0.016136212226854654
leaf_weight=9.8859603106975609 301.39735747873783 24.723033174872398 19.916527912020683 52.698749229311943 9.6818646192550641 6.7085930556058875 77.742063537240028 26.13879568874836 10.103663533926008 29.199528202414513 38.099469229578972 10.571532770991324 9.091292589902876
leaf_count=40 1222 101 81 213 39 27 318 106 41 118 155 43 37
internal_value=8.0488e-05 -0.00250307 -0.0057913 -0.00123803 0.0171619 0.0286989 -0.0216141 0.0133064 -0.00443639 0.0252406 0.0367224 -0.00271935 0.0082946
internal_weight=625.958 541.92 451.755 354.096 84.0387 54.4899 97.6586 90.165 34.8267 55.3383 47.7813 29.5488 18.9773
internal_count=2541 2200 1834 1435 341 221 399 366 142 224 194 120 77
is_linear=0
shrinkage=0.05


Tree=14
num_leaves=12
num_cat=0
split_feature=4 6 4 4 131 5 104 22 80 121 133
split_gain=11.1451 13.3887 15.3604 11.07 11.8346 9.85367 8.78999 8.06316 7.02918 6.17602 5.22283
threshold=0.69928400451317396 0.10227254513566457 1.4779217573814087 2.8504451056942339 -0.58333333333333315 1.8184147649444633 1.9500000000000002 1.1837283333333335 0.58333333333333337 1.0500000000000003 -0.97499999999999987
decision_type=2 2 2 2 2 2 2 2 2 2 2
left_child=8 2 5 4 -3 -2 -5 -4 -1 -10 -11
right_child=1 3 7 6 -6 -7 -8 -9 9 10 -12
leaf_value=0.020339256400350343 -0.0038153028733534169 0.0062922084629701688 -0.006325886381653662 0.02162385938114085 -0.014356444505501177 0.026747816460969215 -0.028624577295498378 0.047631183045152244 0.020316286766677173 0.0035342770579654664 -0.030406225167301494
leaf_weight=9.7887203246355039 86.852837562561035 105.10787597298622 6.1921743899583808 64.145441561937332 187.53708824515343 35.654113054275513 8.3761614710092527 39.347321107983589 6.2934158444404593 10.340807184576986 65.726886674761772
leaf_count=40 352 427 25 259 761 144 34 159 26 42 272
internal_value=8.22884e-05 0.00294408 0.0146204 -0.00231797 -0.00677372 0.00481942 0.0148298 0.0392418 -0.0157941 -0.0208809 -0.0251575
internal_weight=625.363 533.213 168.046 365.167 292.645 122.507 72.5216 45.5395 92.1498 82.3611 76.0677
internal_count=2541 2161 680 1481 1188 496 293 184 380 340 314
is_linear=0
shrinkage=0.05


Tree=15
num_leaves=15
num_cat=0
split_feature=116 112 180 30 132 129 30 102 73 149 16 106 125 142
split_gain=10.9292 14.4011 10.5858 11.0968 10.6897 8.74699 9.85196 9.09494 8.11666 8.10799 6.8525 6.71639 6.50537 5.24967
threshold=11.100000000000001 11.16666666666667 76.850000000000009 1.5500000000000003 1.4166666666666672 -0.22704333333333335 2.1000000000000005 1.0500000000000003 0.093956522090464484 0.76028195238258289 5.166666666666667 0.35416666666666669 1.4806416666666691 0.90000000000000036
decision_type=2 2 2 2 2 2 2 2 2 2 2 2 2 2
left_child=2 8 4 11 9 6 -3 -7 -2 -1 -10 -4 -5 -6
right_child=1 5 3 12 13 7 -8 -9 10 -11 -12 -13 -14 -15
leaf_value=-0.012162853955826902 -0.015311990667707149 0.0064454919955621156 -0.015575967054770733 0 0.033299705330210927 -0.032626947467640693 0.057722929344989828 0 0.00050643622296309913 -0.043213328971318729 0.047320143205326667 0.020247563750628601 0.038759039424561444 -0.0018625433638187043
leaf_weight=170.55651164054871 6.6701336205005637 80.35717286169529 51.533921763300896 20.256259948015213 15.239389836788176 25.899681702256203 10.307898342609404 99.14752434194088 12.554546743631361 25.584147334098816 37.957570225000381 15.573626235127447 29.610264629125595 23.605274170637131
leaf_count=697 27 326 209 82 62 105 42 403 51 104 154 63 120 96
internal_value=8.66028e-05 0.00765915 -0.00564824 0.00633079 -0.0118248 0.00145309 0.0133869 -0.00684037 0.029784 -0.0166653 0.0368912 -0.00635306 0.0241723 0.0111668
internal_weight=624.854 272.895 351.959 116.974 234.985 215.712 90.6651 125.047 57.1823 196.141 50.5121 67.1075 49.8665 38.8447
internal_count=2541 1108 1433 474 959 876 368 508 232 801 205 272 202 158
is_linear=0
shrinkage=0.05


Tree=16
num_leaves=12
num_cat=0
split_feature=4 1 6 4 4 119 30 115 7 118 144
split_gain=10.0919 12.5084 10.3914 14.7873 13.1171 5.73888 7.1162 5.2133 4.37192 4.11894 0.849377
threshold=0.57208093442022767 14.500000000000002 0.11636988535368185 1.5515790358185764 2.8504451056942339 1.4142857142857144 0.90000000000000013 1.9000000000000001 0.13758486367909137 9.4722222222222232 0.38750000000000001
decision_type=2 2 2 2 2 2 2 2 2 2 2
left_child=5 2 3 -2 -4 8 -7 10 -1 -8 -3
right_child=1 7 4 -5 -6 6 9 -9 -10 -11 -12
leaf_value=0.025538072192493041 0.00053814383767393557 0.025227785756445242 -0.012970842081416032 0.027622764286024989 0.012112264850939615 0.00030216088343368617 0 0 -0.022359328294233809 -0.049635708521458217 0.072729300614709239
leaf_weight=9.9415408819913882 206.70519104599953 8.1422852128744143 198.33620780706406 67.427195623517036 67.82722881436348 11.894447594881056 6.0658041834831264 8.9113495796918851 6.9007181823253623 25.234007716178894 7.1902818828821173
leaf_count=41 839 33 807 273 274 49 25 36 29 106 29
internal_value=9.29471e-05 0.0022567 0.00055426 0.00745795 -0.00637028 -0.0191378 -0.0287566 0.0366913 0.00295765 -0.0410149 0.0536543
internal_weight=624.576 564.54 540.296 274.132 266.163 60.0365 43.1943 24.2439 16.8423 31.2998 15.3326
internal_count=2541 2291 2193 1112 1081 250 180 98 70 131 62
is_linear=0
shrinkage=0.05


Tree=17
num_leaves=15
num_cat=0
split_feature=116 112 180 164 1 132 5 7 57 73 145 158 28 157
split_gain=9.92881 12.9893 9.58456 13.3323 10.932 11.8598 8.16285 10.6203 7.85763 7.44014 6.97881 6.6318 5.78586 5.2989
threshold=11.100000000000001 11.16666666666667 80.850000000000009 1858.0114135700003 15.500000000000002 1.4166666666666672 0.76171200349926915 0.099942557685650218 4.3166666666666673 0.093956522090464484 -0.40000000000000002 9.5000000000000018 1.0955291260809945 2.9583333333333335
decision_type=2 2 2 2 2 2 2 2 2 2 2 2 2 2
left_child=2 9 4 10 5 -1 8 -8 -3 -2 -4 -11 -5 -6
right_child=1 6 3 12 13 -7 7 -9 -10 11 -12 -13 -14 -15
leaf_value=-0.018314314855445202 -0.014693717562954857 -0.041045979405230207 0.018968139779631847 0.00050555712506683797 0 0.0096620424967455831 0.031049243345765788 0 -0.00062516839566338254 0.043379554274312296 -0.013257392194548781 0 0.06061682190712997 0.058268220221925196
leaf_weight=199.71489180624485 6.658095493912696 17.61158399283886 23.966136857867241 7.9325624257326153 7.1633330285549146 43.495903715491295 35.992746382951736 120.28278169035912 41.631116688251495 41.656127765774727 48.530671268701553 8.9096129834651929 13.573741376399992 6.9050609171390533
leaf_count=818 27 72 97 32 29 177 146 489 169 169 197 36 55 28
internal_value=0.000108222 0.00732907 -0.00536114 0.00794546 -0.0104285 -0.0130872 0.00141584 0.00761172 -0.0139533 0.0283341 -0.00181078 0.0351444 0.0416741 0.0300336
internal_weight=624.024 272.742 351.282 94.0031 257.279 243.211 215.518 156.276 59.2427 57.2238 72.4968 50.5657 21.5063 14.0684
internal_count=2541 1108 1433 381 1052 995 876 635 241 232 294 205 87 57
is_linear=0
shrinkage=0.05


Tree=18
num_leaves=13
num_cat=0
split_feature=2 55 186 1 114 167 14 73 2 58 51 43
split_gain=9.27336 10.5375 9.85868 9.19914 8.97075 8.35759 7.99866 9.02852 7.8077 6.77386 5.99149 5.30532
threshold=6.7611500000000015 1.4814152500000002 0.64019019446707148 6.5000000000000009 7.4500000000000011 37.500000000000007 3.8333333333333335 0.09044960184973995 10.192900000000002 6.8500000000000005 0.13487350209490975 0.79585370000000022
decision_type=2 2 2 2 2 2 2 2 2 2 2 2
left_child=6 2 4 5 -2 -3 -1 11 -5 -4 -9 -8
right_child=1 3 9 8 -6 -7 7 10 -10 -11 -12 -13
leaf_value=-0.019620698376721302 0.028572689112286304 0.013274304590775977 0.0017668728086930976 0.045914833046543438 -0.011694145066355181 -0.016668495845910281 0.013300014360770194 0.03957354279318491 0.009597287539546237 0.05638260243519011 0 -0.043451898848716169
leaf_weight=11.549500748515127 12.862435221672056 39.106002300977707 21.674146071076397 20.305332437157631 314.80506886541843 52.478983342647552 6.6142302602529508 44.457293823361397 70.924410000443459 7.9207468479871741 14.430830731987951 6.4138751626014709
leaf_count=47 52 159 88 82 1284 214 27 182 289 32 59 26
internal_value=0.000117171 -0.00220758 -0.00726826 0.0073959 -0.00987923 -0.00333785 0.0155998 0.0221333 0.0186329 0.0193835 0.0306364 -0.0121811
internal_weight=623.543 540.077 357.262 182.815 327.668 91.585 83.4657 71.9162 91.2297 29.5949 58.8881 13.0281
internal_count=2541 2200 1456 744 1336 373 341 294 371 120 241 53
is_linear=0
shrinkage=0.05


Tree=19
num_leaves=15
num_cat=0
split_feature=4 6 4 13 129 1 1 22 62 7 15 157 102 124
split_gain=9.03491 11.2383 12.5395 10.747 10.0103 9.13326 9.01737 7.22022 6.39004 9.01845 8.98034 4.82772 4.07397 0.976818
threshold=0.69928400451317396 0.10227254513566457 1.4779217573814087 4.416666666666667 -0.10537075 3.5000000000000004 6.5000000000000009 1.1837283333333335 0.13001440909528381 0.13520380690516456 12.186750000000002 3.1909090909090914 1.8875000000000002 0.0079383333333329937
decision_type=2 2 2 2 2 2 2 2 2 2 2 2 2 2
left_child=8 2 6 4 -3 -5 -2 -4 9 10 -1 13 -11 -10
right_child=1 3 7 5 -6 -7 -8 -9 11 12 -12 -13 -14 -15
leaf_value=-0.015265675329700051 -0.0065831433549123049 0 -0.0070689997346981255 -0.010912411975114979 -0.025467075618677143 0.012049257197876849 0.020385322035847076 0.043779676515950189 -0.017550849268382091 -0.037680754342416807 0.030124820478993043 0 0.0014600094189929304 -0.062538761148046004
leaf_weight=18.054075047373772 70.390565305948257 85.998117014765739 6.180758759379386 58.283244788646698 72.65022400021553 147.16465182602406 51.882010385394096 39.138282030820847 6.7323596924543443 21.159836664795879 22.338391557335854 6.5748445391654959 6.0281199961900702 10.468316346406935
leaf_count=75 286 350 25 237 296 598 210 159 28 89 92 27 25 44
internal_value=0.000135364 0.00271724 0.013432 -0.00210104 -0.0119352 0.00527179 0.0045269 0.0357624 -0.0142164 -0.00528645 0.00875018 -0.0363432 -0.0274847 -0.0496094
internal_weight=623.044 531.688 167.592 364.096 158.648 205.448 122.273 45.319 91.3559 67.5804 40.3925 23.7755 27.188 17.2007
internal_count=2541 2161 680 1481 646 835 496 184 380 281 167 99 114 72
is_linear=0
shrinkage=0.05


Tree=20
num_leaves=15
num_cat=0
split_feature=116 185 145 2 114 187 119 13 33 28 47 136 80 103
split_gain=8.89292 11.6935 9.19708 11.0944 8.5346 8.90287 8.2809 7.42085 11.4909 7.41059 6.60394 8.32581 7.0854 4.58565
threshold=11.100000000000001 0.61319249299941914 -0.40000000000000002 9.4781000000000031 12.900000000000002 0.44077367265122175 1.8452380952380956 4.416666666666667 0.90070820000000007 2.1473735158797349 4.4500000000000011 0.10716750000000098 1.1666666666666667 0.11805555555555557
decision_type=2 2 2 2 2 2 2 2 2 2 2 2 2 2
left_child=1 2 6 -4 7 13 -1 9 -9 -2 12 -12 -3 -6
right_child=4 10 3 -5 5 -7 -8 8 -10 -11 11 -13 -14 -15
leaf_value=0.017367219223164965 -0.0098668210566978456 0.014178405416698521 0 -0.026234327564785866 0.036708280647686449 0.063713836045683023 -0.021070011163058525 -0.013375431945896627 0.020345722526846983 0.033875075049360874 -0.0010883675819045391 0.034623313417671463 -0.023913428440294808 -0.010707505735916863
leaf_weight=43.269573912024498 103.37619635462761 21.460621282458305 67.202557593584061 115.07457599043846 6.9210971891880098 12.09209470450878 18.803436622023582 31.263976782560349 98.105294495820999 9.3306083530187589 24.672805264592171 35.565974906086922 24.09591244161129 11.296786084771155
leaf_count=176 421 87 275 474 28 49 77 127 399 38 101 145 98 46
internal_value=0.000103518 -0.00507942 -0.0111679 -0.0168685 0.00694316 0.0317231 0.00478146 0.00351706 0.0117729 -0.00553978 0.00848745 0.019401 -0.00497618 0.00567711
internal_weight=622.532 350.145 244.35 182.277 272.386 30.31 62.073 242.076 129.369 112.707 105.795 60.2388 45.5565 18.2179
internal_count=2541 1433 1002 749 1108 123 253 985 526 459 431 246 185 74
is_linear=0
shrinkage=0.05


Tree=21
num_leaves=10
num_cat=0
split_feature=185 2 1 172 4 1 91 155 4
split_gain=8.54057 9.03057 14.6335 8.40258 7.39012 7.19444 7.0447 6.08355 2.27698
threshold=0.39555798085499377 8.3405500000000021 3.5000000000000004 0.45444421947762714 0.32627929560840113 4.5000000000000009 1.0000000180025095e-35 0.43650793650793657 1.6584980557672675
decision_type=2 2 2 2 2 2 2 2 2
left_child=6 3 7 5 -4 -2 -1 -3 -8
right_child=1 2 4 -5 -6 -7 8 -9 -10
leaf_value=0.0095744571944518901 0.0051425630382064026 -0.031702592859772449 -0.028290355349233184 -0.034048846362147736 0.0038222711908515389 0.028727712053247246 -0.054399815956651811 -0.000557335582905324 -0.008325535406237863
leaf_weight=7.3696273863315609 88.202743843197823 50.911834493279457 17.672456637024879 7.8132665008306494 344.69697889685631 57.604430347681046 13.203226611018183 27.313812926411629 7.360897794365882
leaf_count=30 360 209 75 32 1405 235 54 111 30
internal_value=9.89655e-05 0.00146804 -0.00207979 0.0119145 0.00204502 0.0149332 -0.0263404 -0.0216031 -0.0413771
internal_weight=622.149 594.216 440.595 153.62 362.369 145.807 27.9338 78.2256 20.5641
internal_count=2541 2427 1800 627 1480 595 114 320 84
is_linear=0
shrinkage=0.05


Tree=22
num_leaves=10
num_cat=0
split_feature=0 114 1 0 127 47 39 69 154
split_gain=8.14738 8.20333 8.43999 8.93662 8.19111 5.92983 5.33322 4.14094 1.00449
threshold=1.5000000000000002 7.366666666666668 5.5000000000000009 7.5000000000000009 -1.0501858280040322 4.5500000000000007 1.3292836369015271 4.8730158730158744 -1.0833333333333333
decision_type=2 2 2 2 2 2 2 2 2
left_child=6 5 3 -3 -4 -2 8 -8 -1
right_child=1 2 4 -5 -6 -7 7 -9 -10
leaf_value=-0.018251816594595217 0 -0.016697859218962004 -0.021141530685659108 0.0015421750687279489 0.0083696240306319232 0.055078209090152819 -0.03167147591004249 0.0182092650103911 -0.065786943747530066
leaf_weight=7.2134856730699539 9.1601661294698733 115.1545856744051 23.852629736065865 148.48679982125759 285.83573366701603 11.034545272588728 6.2304000854492179 8.3622531741857511 6.4577264934778231
leaf_count=30 37 475 98 603 1165 45 26 35 27
internal_value=7.25082e-05 0.00141997 0.000202473 -0.00626885 0.00587497 0.0319854 -0.0255964 -0.000546263 -0.0470671
internal_weight=621.788 593.524 573.33 263.641 309.688 20.1947 28.2639 14.5927 13.6712
internal_count=2541 2423 2341 1078 1263 82 118 61 57
is_linear=0
shrinkage=0.05


Tree=23
num_leaves=16
num_cat=0
split_feature=116 112 185 0 130 1 5 57 53 134 2 73 119 80 116
split_gain=7.99877 11.7548 10.3719 8.79283 10.0429 9.80935 7.4955 10.3787 7.94654 7.09951 8.9679 6.14836 10.4065 9.05321 3.35516
threshold=11.100000000000001 11.16666666666667 0.61319249299941914 10.500000000000002 -0.068841499999999986 4.5000000000000009 1.8066796474158757 4.7638888888888902 1.3166666666666669 1.0000000180025095e-35 10.262400000000001 0.12058787566513983 1.788888888888889 1.1666666666666667 12.100000000000001
decision_type=2 2 2 2 2 2 2 2 2 2 2 2 2 2 2
left_child=2 9 3 5 -5 -1 7 -3 -8 10 -2 13 -13 -4 -11
right_child=1 6 11 4 -6 -7 8 -9 -10 14 -12 12 -14 -15 -16
leaf_value=-0.032786251820223981 0.041353570314554292 -0.017320916009614582 0.016564577762437492 0.029159014087616071 -0.01606641595665886 -0.0075723126463746824 -0.0011433687161809462 0.0076993341516297682 0.035238922621483683 0.058141079954439671 -0.010561537440944409 0.044600547025466696 -0.00028082485894583752 -0.021613526652477618 0.0076683046716194293
leaf_weight=57.427303791046143 12.088189154863359 78.783738076686859 29.300357684493065 25.770512267947197 20.388484165072441 140.03589682281017 25.920210748910904 82.403951451182365 27.840673044323921 18.020668551325802 19.686294421553612 23.025611817836761 23.256969511508942 30.178891316056252 7.3722621500492087
leaf_count=238 49 322 119 105 83 576 106 335 113 73 80 94 95 123 30
internal_value=5.58475e-05 0.0065489 -0.00486279 -0.0106148 0.00820555 -0.0152854 0.000906521 -0.00425293 0.017084 0.0265243 0.00832246 0.00789393 0.0214613 -0.00201678 0.0462277
internal_weight=621.5 272.116 349.384 243.622 46.159 197.463 214.949 161.188 53.7609 57.1674 31.7745 105.762 46.2826 59.4792 25.3929
internal_count=2541 1108 1433 1002 188 814 876 657 219 232 129 431 189 242 103
is_linear=0
shrinkage=0.05


Tree=24
num_leaves=10
num_cat=0
split_feature=1 0 180 186 5 150 98 39 131
split_gain=7.63113 9.95247 9.20912 8.80838 8.30307 6.18688 4.42017 3.32948 3.71008
threshold=14.500000000000002 1.5000000000000002 68.750000000000014 0.55190665165710595 2.2509936876595016 -0.0019968182528575166 1.3541666666666667 1.3292836369015271 -0.83333333333333315
decision_type=2 2 2 2 2 2 2 2 2
left_child=1 7 4 -4 -3 6 -2 -1 -9
right_child=5 2 3 -5 -6 -7 -8 8 -10
leaf_value=-0.051580708064712037 0.054157455660450063 -0.012459954124558283 -0.0021392663721223259 0.013313337289505227 0.014856252962887158 -0.0057048751532039962 0 0.012624279779194992 -0.03414730511758101
leaf_weight=11.354208603501322 14.181312784552579 176.165756508708 188.65286815166473 170.92563806474209 30.586302414536476 8.8665095567703229 6.8593854755163184 6.4716318100690842 6.8500171005725843
leaf_count=48 58 723 770 696 126 36 28 27 29
internal_value=5.8991e-05 -0.001125 0.000167385 0.00508401 -0.00812614 0.0243534 0.0389726 -0.031585 -0.00863957
internal_weight=620.914 591.006 566.331 359.579 206.752 29.9072 21.0407 24.6759 13.3216
internal_count=2541 2419 2315 1466 849 122 86 104 56
is_linear=0
shrinkage=0.05


Tree=25
num_leaves=11
num_cat=0
split_feature=185 116 112 185 69 141 134 49 20 162
split_gain=7.34535 7.83368 11.1581 7.97201 8.88276 7.61711 6.93939 6.13964 5.61747 0.941991
threshold=0.38907408479220074 11.100000000000001 11.16666666666667 0.61319249299941914 3.9500000000000006 -0.50676179999999993 1.0000000180025095e-35 5.1000000000000005 1.1666666666666667 2.8583333333333338
decision_type=2 2 2 2 2 2 2 2 2 2
left_child=8 3 6 4 -2 -4 -3 -5 -1 -10
right_child=1 2 5 7 -6 -7 -8 -9 9 -11
leaf_value=0.00017459595940952193 0.0076165097897140949 0.0092580967628937989 -0.026061780558826964 -0.009693749888415322 -0.014707234649571058 0.0054471777739221825 0.047465094866594344 0.015515780212863673 -0.063143418439039076 -0.016112801280396959
leaf_weight=7.8160501718521145 55.749108672142029 31.250391438603401 20.092157825827599 32.45542973279953 174.62190495431423 187.32638651132584 24.396370753645897 73.236369773745537 7.0202477872371656 6.5220551341772079
leaf_count=32 228 127 82 132 722 764 99 299 29 27
internal_value=4.97561e-05 0.0011781 0.00768812 -0.00377721 -0.00907928 0.00204467 0.0274335 0.0072876 -0.0280024 -0.046597
internal_weight=620.486 599.128 263.065 336.063 230.371 207.419 55.6468 105.692 21.3584 13.5423
internal_count=2541 2453 1072 1381 950 846 226 431 88 56
is_linear=0
shrinkage=0.05


Tree=26
num_leaves=9
num_cat=0
split_feature=10 55 35 2 89 112 186 135
split_gain=7.12958 7.3506 9.27218 8.96041 8.81394 7.82101 7.60151 6.94803
threshold=3.2284083333333338 1.4814152500000002 4.9000000000000012 6.7611500000000015 1.2250000000000003 12.833333333333334 0.64019019446707148 -0.4920538000000001
decision_type=2 2 2 2 2 2 2 2
left_child=1 3 7 5 -4 -1 -5 -3
right_child=-2 2 4 6 -6 -7 -8 -9
leaf_value=0.022136441560148563 0.038200626893508345 0.011734111537062721 0 -0.010062775999876906 0.040826115816868583 -0.019863040116219217 0.015831312143146713 -0.0097569057272041543
leaf_weight=48.640767604112625 11.049775615334509 71.753199219703674 19.96554160118103 319.08774816989899 32.206799805164337 12.225324898958204 28.810159027576447 76.402463555335999
leaf_count=201 45 293 81 1309 131 50 117 314
internal_value=4.32289e-05 -0.000628524 0.00709988 -0.00454618 0.0250303 0.0127077 -0.00773589 0.000325067
internal_weight=620.142 609.092 200.328 408.764 52.1723 60.8661 347.898 148.156
internal_count=2541 2496 819 1677 212 251 1426 607
is_linear=0
shrinkage=0.05


Tree=27
num_leaves=11
num_cat=0
split_feature=4 1 180 139 116 133 118 73 3 115
split_gain=6.95208 9.88789 7.12483 9.52073 9.07218 5.59598 5.00149 4.9709 4.1278 2.35265
threshold=0.57208093442022767 14.500000000000002 68.750000000000014 0.017941626145318624 10.550000000000002 -0.97499999999999987 9.4142857142857164 0.11802241614376502 7.634850000000001 1.9000000000000001
decision_type=2 2 2 2 2 2 2 2 2 2
left_child=5 2 4 -4 -2 -1 -7 -3 -8 -9
right_child=1 7 3 -5 -6 6 8 9 -10 -11
leaf_value=0.01445575138298185 -0.020691689548033146 0 -0.0009598479574966667 0.016478397707746138 0.0010239320216134402 0.0045462260673159371 -0.0013750421300269728 0.06151487450483778 -0.041570217804398422 0.0095589989029922634
leaf_weight=9.7550542503595334 75.275761917233467 6.8774621933698681 227.92412270605564 114.48767450451851 119.18031494319439 9.5493860691785795 11.720934197306631 10.688572928309442 27.801263928413391 6.3709833025932303
leaf_count=40 311 28 929 466 487 40 50 44 120 26
internal_value=5.01755e-05 0.00185558 0.000331125 0.00475615 -0.00718943 -0.0160687 -0.0233028 0.0326572 -0.0312117 0.046484
internal_weight=619.632 560.805 536.868 342.412 194.456 58.8266 49.0716 23.937 39.5222 17.0596
internal_count=2541 2291 2193 1395 798 250 210 98 170 70
is_linear=0
shrinkage=0.05


Tree=28
num_leaves=9
num_cat=0
split_feature=114 114 6 40 185 62 121 150
split_gain=6.754 7.33018 7.6583 11.3883 8.38211 6.03803 5.34154 6.32583
threshold=7.366666666666668 12.900000000000002 0.17935015160279963 0.14269866391133981 0.38907408479220074 0.13188907358841626 1.267857142857143 0.0066323209674195383
decision_type=2 2 2 2 2 2 2 2
left_child=5 2 4 -4 -2 -1 -3 -8
right_child=1 6 3 -5 -6 -7 7 -9
leaf_value=0.051147695193150988 -0.03558616469587806 -0.017692883826829715 -0.030544126045910891 0.012132263128343366 0.00077177257363461853 0 0.033748624831032324 0
leaf_weight=11.052715852856638 15.396860107779501 8.5013308823108655 51.454638317227364 19.640858948230743 446.94039814174175 10.021629586815832 34.58955617249012 21.499361887574196
leaf_count=45 64 35 211 80 1836 41 141 88
internal_value=5.26593e-05 -0.000867553 -0.00288073 -0.0180561 -0.000405306 0.0272868 0.0147868 0.0208092
internal_weight=619.097 598.023 533.433 71.0955 462.337 21.0743 64.5902 56.0889
internal_count=2541 2455 2191 291 1900 86 264 229
is_linear=0
shrinkage=0.05


Tree=29
num_leaves=13
num_cat=0
split_feature=35 151 6 142 185 2 51 111 1 174 42 4
split_gain=6.58987 10.7859 9.60507 9.74926 7.95042 7.35401 7.172 7.15442 6.35804 9.23896 7.49821 5.80586
threshold=5.2250000000000005 -0.41347816500000001 0.13633118062116725 0.20000000000000001 0.39555798085499377 9.5690500000000025 0.13905816013464453 1.1666666666666667 2.5000000000000004 0.48148365629281664 0.55000000000000016 1.757622953969985
decision_type=2 2 2 2 2 2 2 2 2 2 2 2
left_child=4 6 5 -4 11 -3 7 -2 9 -6 -10 -1
right_child=1 2 3 -5 8 -7 -8 -9 10 -11 -12 -13
leaf_value=-0.049925357941263605 0 0.024302929098148931 0.0067025563946485085 -0.032781650347099255 -0.053152846090422673 -0.00087971896548494615 0 0.063777208543453409 -0.033861119645745515 -0.0032950110317836743 0.0022854407891286393 0
leaf_weight=14.358832478523256 6.6081738322973278 51.778272077441216 26.352732852101326 31.450007379055023 13.000566333532332 56.17035599052906 11.494453877210615 17.127233505249023 13.934633329510687 35.669975221157074 333.4149057418108 7.5263389945030204
leaf_count=60 27 213 108 128 54 231 47 70 58 147 1367 31
internal_value=4.85089e-05 0.00754527 0.00181073 -0.0141223 -0.00344692 0.0108526 0.0323507 0.0475161 -0.00165336 -0.0184213 0.000598772 -0.0322269
internal_weight=618.886 200.981 165.751 57.8027 417.905 107.949 35.2299 23.7354 396.02 48.6705 347.35 21.8852
internal_count=2541 824 680 236 1717 444 144 97 1626 201 1425 91
is_linear=0
shrinkage=0.05


Tree=30
num_leaves=12
num_cat=0
split_feature=0 6 4 35 4 82 71 64 39 69 153
split_gain=6.42355 7.26142 13.548 10.4801 9.73684 9.32334 7.9369 6.6937 4.78511 3.57739 2.19728
threshold=1.5000000000000002 0.10227254513566457 1.4779217573814087 6.9000000000000012 2.8504451056942339 1.0000000180025095e-35 3.5277777777777781 1.267857142857143 1.3292836369015271 4.8730158730158744 -0.79999999999999993
decision_type=2 2 2 2 2 2 2 2 2 2 2
left_child=8 2 3 -2 6 -6 -3 -4 10 -10 -1
right_child=1 4 7 -5 5 -7 -8 -9 9 -11 -12
leaf_value=-0.0093858712794209487 0.0050744693976734591 -0.040955025869282319 0 -0.045093073928060889 -0.0061703241878631777 0.02880311838784759 -0.0050340632831859765 0.042794437301592991 -0.02881251766044772 0.018046239432398383 -0.063412768992351723
leaf_weight=6.3754294514656067 176.69790954887867 15.974411264061926 10.073888584971426 9.9688530713319761 31.181352585554123 40.446040242910385 271.60922379791737 34.755232274532318 6.1184780299663535 8.3162172138690931 6.9495267421007174
leaf_count=27 729 66 41 41 127 164 1112 143 26 35 30
internal_value=3.09075e-05 0.00123279 0.00817978 0.00190286 -0.00311571 0.0130145 -0.00733763 0.0326138 -0.0229594 0 -0.0435133
internal_weight=618.467 590.707 231.496 186.667 359.211 71.6274 287.584 44.8291 27.7597 14.4347 13.325
internal_count=2541 2423 954 770 1469 291 1178 184 118 61 57
is_linear=0
shrinkage=0.05


Tree=31
num_leaves=10
num_cat=0
split_feature=1 166 7 174 49 65 150 74 162
split_gain=6.34062 7.03805 7.21885 6.6071 6.55144 7.62063 5.49604 5.25631 4.40812
threshold=14.500000000000002 -122.26623535500003 0.11021584923604892 0.50958113133685667 11.225000000000001 1.6380983 -0.0019968182528575166 1.4166666666666667 2.8583333333333338
decision_type=2 2 2 2 2 2 2 2 2
left_child=1 2 3 -1 5 -3 8 -4 -2
right_child=6 4 7 -5 -6 -7 -8 -9 -10
leaf_value=0.024339407306120525 0.0027279981864390158 0.0028933339773963011 -0.012258819620354803 -0.014312763994842579 0.040180522287965925 -0.016936542127213617 -0.0058571089319431353 -0.045860931047532111 0.055492809964809778
leaf_weight=19.694650709629059 8.9728840589523369 414.24488900601864 51.20023612678051 21.697219043970108 9.7232504785060865 53.6765246540308 8.8301592618226987 18.104090228676796 11.835095897316931
leaf_count=81 37 1698 213 90 40 221 36 76 49
internal_value=1.53942e-06 -0.00107057 -0.0124195 0.00303916 0.00147558 0.000480701 0.0222561 -0.0222752 0.0362006
internal_weight=617.979 588.341 110.696 41.3919 477.645 467.921 29.6381 69.3043 20.808
internal_count=2541 2419 460 171 1959 1919 122 289 86
is_linear=0
shrinkage=0.05


Tree=32
num_leaves=15
num_cat=0
split_feature=116 185 145 2 114 5 7 187 117 47 147 80 17 51
split_gain=6.20862 7.63269 7.97759 8.89897 7.11445 8.60937 10.0877 7.85756 7.7213 5.9215 9.64569 6.16685 5.49969 4.47056
threshold=11.100000000000001 0.61319249299941914 -0.40000000000000002 9.4781000000000031 12.900000000000002 1.7871940089389675 0.099942557685650218 0.44077367265122175 1.9000000000000001 4.4500000000000011 -0.34171500000000016 1.1666666666666667 1.6674092665004234 0.13294570971370115
decision_type=2 2 2 2 2 2 2 2 2 2 2 2 2 2
left_child=1 2 12 -4 5 6 -2 13 -7 11 -11 -3 -1 -6
right_child=4 9 3 -5 7 8 -8 -9 -10 10 -12 -13 -14 -15
leaf_value=0.014809292267752515 0.0080047699228673001 0.011510467214734752 0 -0.023171626521849016 -0.011301409260977682 0.042497942571960073 -0.01542858963037063 0.058539840869649244 0.0038181705963240722 -0.0069083415452561069 0.03251589047803867 -0.023885815577927391 -0.017971469389449383 0.03650414127791056
leaf_weight=46.038709759712219 96.570994913578033 21.428458914160728 66.540309324860573 113.20091474056244 11.790107607841497 21.477132767438889 84.028801783919334 11.977482855319975 38.715607181191444 22.545368641614914 37.399831116199493 23.9390849173069 15.614625111222265 6.3808331787586203
leaf_count=189 395 87 275 474 48 88 344 49 158 93 153 98 64 26
internal_value=0 -0.00434537 -0.00932089 -0.0147025 0.00573881 0.00258913 -0.00264781 0.028399 0.0189054 0.00656946 0.016998 -0.00620107 0.0055547 0.00390616
internal_weight=617.648 346.707 241.395 179.741 270.941 240.793 180.6 30.1484 60.1927 105.313 59.9452 45.3675 61.6533 18.1709
internal_count=2541 1433 1002 749 1108 985 739 123 246 431 246 185 253 74
is_linear=0
shrinkage=0.05


Tree=33
num_leaves=13
num_cat=0
split_feature=4 6 1 4 142 27 184 62 7 15 162 67
split_gain=6.08176 10.7572 8.89774 10.0518 9.15801 8.86192 7.22992 6.10056 7.23737 7.20963 4.78453 0.939641
threshold=0.69928400451317396 0.085955132171511558 10.500000000000002 1.4413909148424857 -0.25000000000000006 9.8333333333333339 34.510000000000012 0.13510105456238777 0.13346029265473283 11.657775000000003 2.5250000000000004 12.316666666666668
decision_type=2 2 2 2 2 2 2 2 2 2 2 2
left_child=7 5 3 -3 -4 6 -2 8 9 -1 -10 -9
right_child=1 2 4 -5 -6 -7 -8 11 10 -11 -12 -13
leaf_value=-0.015934078046657762 0.0065104841357000072 -0.018915396933931072 0.033686321068942919 0.00031769973612502255 -0.0071410488741781436 -0.024127256961295779 0.037085625397624257 -0.014447337681586707 0.0093491248047038421 0.024458894144621886 -0.033332843648249219 -0.054369603197366757
leaf_weight=16.337324574589729 43.639568746089935 85.641689911484718 33.148284986615181 292.49505776166916 19.599301248788834 9.6640731096267682 43.272365123033524 8.3377019315958041 6.127929255366328 26.164737701416016 24.594748720526695 8.0637360066175443
leaf_count=69 179 352 136 1197 80 40 177 35 26 109 106 35
internal_value=1.09567e-05 0.0021436 -0.0011401 -0.0039448 0.0177353 0.0171681 0.0225509 -0.0118734 -0.00469305 0.00777354 -0.023217 -0.0389449
internal_weight=617.087 527.46 430.884 378.137 52.7476 96.576 86.9119 89.6262 73.2247 42.5021 30.7227 16.4014
internal_count=2541 2161 1765 1549 216 396 356 380 310 178 132 70
is_linear=0
shrinkage=0.05


Tree=34
num_leaves=14
num_cat=0
split_feature=35 151 6 153 119 11 1 174 130 7 51 111 6
split_gain=5.89433 9.63685 8.89761 9.52124 8.61672 9.04185 8.27964 7.93409 6.741 6.6922 6.15652 6.38973 5.31892
threshold=5.2250000000000005 -0.41347816500000001 0.13633118062116725 0.37638888888888894 2.0500000000000003 1.9684465000000004 4.5000000000000009 0.59264019067864859 -0.28822649999999989 0.18523706867686143 0.13905816013464453 1.1666666666666667 0.20523563229168454
decision_type=2 2 2 2 2 2 2 2 2 2 2 2 2
left_child=4 10 8 -4 5 6 -1 12 -3 -7 11 -2 -6
right_child=1 2 3 -5 7 9 -8 -9 -10 -11 -12 -13 -14
leaf_value=-0.01541398608805105 0 0.028930144099203005 0.0076708960268498634 -0.031547081105683238 -0.025824620876966298 0.0285161863785812 0.0028662159577250053 0.021983202604640806 0.0012449661133139634 -0.019650399999615976 0 0.060108234793326998 0.016419039035833877
leaf_weight=89.612984821200371 6.602484971284869 33.006073236465454 25.240047782659531 32.393950134515762 77.107665985822678 40.871070951223373 186.30381406843662 9.7525497376918775 74.453705206513405 6.6984539031982413 11.441727489233015 17.035614654421806 6.0722351074218741
leaf_count=372 27 136 104 132 318 167 767 40 308 28 47 70 25
internal_value=0 0.0071073 0.00165895 -0.0136814 -0.00331019 0.000409482 -0.00292454 -0.0166567 0.0103978 0.0204393 0.030606 0.0446815 -0.0219884
internal_weight=616.592 200.174 165.094 57.634 416.419 323.486 275.917 92.9325 107.46 47.5695 35.0798 23.6381 83.1799
internal_count=2541 824 680 236 1717 1334 1139 383 444 195 144 97 343
is_linear=0
shrinkage=0.05


Tree=35
num_leaves=12
num_cat=0
split_feature=59 138 55 2 7 31 35 137 119 144 37
split_gain=5.9777 6.95476 6.66551 7.80768 12.4668 7.8727 7.10111 9.93069 6.82534 5.77729 4.1173
threshold=17.750493888888894 0.39549713938031333 1.4814152500000002 11.861900000000002 0.13831462477975934 1.9000000000000001 5.2250000000000005 4.6250000000000009 2.0500000000000003 -0.29444444444444423 20.310580000000002
decision_type=2 2 2 2 2 2 2 2 2 2 2
left_child=2 9 3 5 -5 -1 8 -8 -4 10 -2
right_child=1 -3 6 4 -6 -7 7 -9 -10 -11 -12
leaf_value=0.0051794081757658358 -0.031022955889732869 0.01864643380819898 0.011594652382203032 -0.0012278875757035579 -0.033065993864131539 -0.03823371114450811 0.046789833952801174 -0.010481911590880057 -0.011119277879311787 -0.055352531067697663 0.013746793466217639
leaf_weight=238.33789962530136 8.7947063595056587 7.3795217126607886 102.58008556067944 105.27919815480709 44.68659907579422 9.7386142462491971 24.004953488707542 8.5695707499980909 45.860203921794891 12.677640512585638 8.2691019326448423
leaf_count=980 36 30 422 435 189 40 98 35 189 53 34
internal_value=1.65097e-05 -0.0190783 0.00135758 -0.00216047 -0.0112024 0.00312776 0.00933767 0.0303704 0.00421522 -0.0303672 -0.00699965
internal_weight=616.178 37.121 579.057 398.042 149.966 248.077 181.015 32.5745 148.44 29.7414 17.0638
internal_count=2541 153 2388 1644 624 1020 744 133 611 123 70
is_linear=0
shrinkage=0.05


Tree=36
num_leaves=14
num_cat=0
split_feature=1 184 147 4 6 6 114 53 42 15 45 179 120
split_gain=5.79637 7.97591 11.2294 7.85235 14.1533 8.04083 6.47242 6.44355 6.84229 7.36121 4.37036 4.15789 2.9403
threshold=12.500000000000002 45.260000000000012 -2.910508333333333 1.4413909148424857 0.099998435501207419 0.09105168751751376 9.4500000000000011 1.4365079365079367 1.2250000000000003 13.276141666666669 16.450000000000003 80.850000000000009 10.145833333333334
decision_type=2 2 2 2 2 2 2 2 2 2 2 2 2
left_child=1 3 6 5 -5 -1 -3 8 9 -2 -4 12 -9
right_child=7 2 10 4 -6 -7 -8 11 -10 -11 -12 -13 -14
leaf_value=0.00033653908468100712 0.047888985619126564 0.041740494779775726 -0.044387185917586391 0.033289722664841613 0.001327451761441284 -0.019782475671329486 -0.009446900107325025 0.0067441725806607388 -0.028436686801517098 -0.012300863254391753 -0.0012705913394265033 0 0.062626322134280502
leaf_weight=131.64660660922527 9.4229478389024788 8.2048054337501544 28.724316313862801 39.890765473246574 254.03432914614677 74.428851008415222 15.352092668414114 5.9982741177082124 11.791078612208365 7.3388648778200141 10.465904816985129 7.5389378666877738 10.95448078215122
leaf_count=546 39 34 121 165 1038 307 65 25 49 31 45 31 45
internal_value=0 -0.00142254 -0.0181061 0.000603311 0.00593299 -0.00674889 0.00731919 0.0157169 0 0.019512 -0.0344349 0.0339946 0.047116
internal_weight=615.792 562.748 62.7471 500.001 293.925 206.075 23.5569 53.0446 28.5529 16.7618 39.1902 24.4917 16.9528
internal_count=2541 2321 265 2056 1203 853 99 220 119 70 166 101 70
is_linear=0
shrinkage=0.05


Tree=37
num_leaves=9
num_cat=0
split_feature=10 1 174 48 4 71 152 132
split_gain=5.79757 5.92364 14.1536 11.2509 7.15578 9.26111 6.1171 2.80088
threshold=3.2284083333333338 3.5000000000000004 0.47871454644765071 10.375627500000002 0.69002505671232928 3.3166666666666669 0.032960149999999973 1.1666666666666672
decision_type=2 2 2 2 2 2 2 2
left_child=1 2 7 -4 6 -6 -3 -1
right_child=-2 4 3 -5 5 -7 -8 -9
leaf_value=-0.049037835612503786 0.034584208049756093 -0.023087080081849676 -0.037876315797109802 0.0051113098879731877 -0.033763615068713823 0.0066475801858537735 0.0043306200657189878 -0.0051207049936756567
leaf_weight=21.880259618163112 10.938343897461889 45.963265046477318 16.855367228388786 99.34083366394043 13.425422310829161 368.09612359106541 30.801622107625008 7.8258784264326087
leaf_count=92 45 197 70 411 55 1509 130 32
internal_value=3.70112e-06 -0.000595844 -0.00939819 -0.0009678 0.00211201 0.00501028 -0.0115286 -0.0396401
internal_weight=615.127 604.189 145.902 116.196 458.286 381.522 76.7649 29.7061
internal_count=2541 2496 605 481 1891 1564 327 124
is_linear=0
shrinkage=0.05


Tree=38
num_leaves=10
num_cat=0
split_feature=114 114 2 5 136 103 80 73 62
split_gain=5.6559 6.1949 7.24703 8.66735 8.64423 7.20673 5.60805 5.50539 5.30233
threshold=7.366666666666668 12.900000000000002 10.054850000000002 2.2345050326548517 8.6061000000000032 0.18333333333333338 0.58333333333333337 0.10555895524463489 0.13188907358841626
decision_type=2 2 2 2 2 2 2 2 2
left_child=8 2 3 -2 -4 7 -7 -3 -1
right_child=1 5 4 -5 -6 6 -8 -9 -10
leaf_value=0.047429607084256489 0.00053100261491724433 0 -0.0054570689862298996 0.033817921164232302 -0.043269529492054808 0.036841733531212333 -0.0071087354865176635 0.053855336758453554 0
leaf_weight=10.986448779702188 195.27557682991028 6.8431639522314098 297.61832311749458 21.188478454947472 15.55033130943775 7.9880734980106345 35.26802384853363 14.09194642305374 9.9372887313365919
leaf_count=45 804 28 1235 87 65 33 145 58 41
internal_value=0 -0.000851461 -0.00271584 0.00415973 -0.00762554 0.01357 0.000526852 0.0369877 0.0250056
internal_weight=614.748 593.824 529.633 216.464 313.169 64.1912 43.2561 20.9351 20.9237
internal_count=2541 2455 2191 891 1300 264 178 86 86
is_linear=0
shrinkage=0.05


Tree=39
num_leaves=15
num_cat=0
split_feature=116 112 119 1 155 7 142 171 73 32 39 126 22 141
split_gain=5.42868 9.49706 8.01032 8.2862 8.15978 7.39259 7.25198 6.48257 6.31632 6.08184 7.86703 5.72932 5.6658 3.18427
threshold=11.100000000000001 11.16666666666667 2.0500000000000003 4.5000000000000009 0.34848484848484856 0.058636368019506259 1.4333333333333338 0.20029241328599431 0.093956522090464484 1.8644913000000003 2.3608021757565436 -5.9166666666666652 1.6584073333333336 -0.083164099999999977
decision_type=2 2 2 2 2 2 2 2 2 2 2 2 2 2
left_child=2 8 3 4 -1 -5 7 -3 -2 11 -11 -4 -10 -8
right_child=1 6 9 5 -6 -7 13 -9 12 10 -12 -13 -14 -15
leaf_value=-0.037027357418791422 -0.016110295929641014 0.022052255552445915 0.0086184750139955968 0.034287781028420318 -0.0027875980801434358 0.0020739502765285667 -0.053038805517564493 -0.00091324128644767316 0.010873648835466881 0.02639379019388708 -0.03655199013488266 -0.035540344253614457 0.048048254299097752 -0.00027507478600667938
leaf_weight=23.722540766000748 6.622334122657775 35.964914500713348 6.3616261780261985 19.785634070634842 72.738329350948334 160.25050519406796 7.6024544537067413 162.2115748077631 26.682948872447014 12.883318886160852 6.5425774902105323 42.271499693393707 23.373462185263634 7.3231832534074766
leaf_count=101 27 148 27 81 302 666 31 667 109 53 27 176 96 30
internal_value=0 0.00538027 -0.00407328 -8.59266e-05 -0.0120147 0.00606022 0.000268819 0.00309328 0.0233937 -0.0193125 0.00199439 -0.0286993 0.0298125 -0.031933
internal_weight=614.337 269.781 344.556 276.497 96.4609 180.036 213.102 198.176 56.6787 68.059 19.4259 48.6331 50.0564 14.9256
internal_count=2541 1108 1433 1150 403 747 876 815 232 283 80 203 205 61
is_linear=0
shrinkage=0.05


Tree=40
num_leaves=7
num_cat=0
split_feature=92 1 114 0 39 140
split_gain=5.60985 6.99664 5.972 8.06956 5.57035 3.68482
threshold=2.8000000000000003 17.500000000000004 12.900000000000002 7.5000000000000009 1.1721091866493223 -0.084830899999999862
decision_type=2 2 2 2 2 2
left_child=1 2 3 -1 -4 -2
right_child=5 -3 4 -5 -6 -7
leaf_value=-0.0071292967646699292 0 0.039163288342349403 0.043809987718400764 0.0052808095428455064 0.0055534884581624182 -0.046947607732602391
leaf_weight=297.69105008244514 5.8060052394866934 10.688124909996985 12.492421373724936 228.91382843255997 48.948296517133713 9.3451087921857816
leaf_count=1239 25 45 51 939 202 40
internal_value=0 0.000851894 5.37158e-06 -0.0016401 0.0147098 -0.0290067
internal_weight=613.885 598.734 588.046 526.605 61.4407 15.1511
internal_count=2541 2476 2431 2178 253 65
is_linear=0
shrinkage=0.05


Tree=41
num_leaves=9
num_cat=0
split_feature=10 55 35 122 53 2 112 99
split_gain=5.27192 5.76627 6.70895 9.43521 6.42595 6.16682 6.98 6.15559
threshold=3.2284083333333338 1.4814152500000002 4.9000000000000012 0.4166666666666668 1.2928571428571431 6.7611500000000015 12.833333333333334 0.5277777777777779
decision_type=2 2 2 2 2 2 2 2
left_child=1 5 4 -4 -3 6 -1 -7
right_child=-2 2 3 -5 -6 7 -8 -9
leaf_value=0.019387815154107518 0.03304380348323014 0.028284437627890426 0.003487984542574059 0.049223381674552563 -0.0031385404918888703 -0.0026139471181542886 -0.020522913830424146 -0.018311269230127925
leaf_weight=47.842800572514534 10.890108257532118 17.513129696249962 33.010999351739883 18.733202949166298 129.22195006906986 257.72449105978012 12.149023324251173 86.410720735788345
leaf_count=201 45 72 135 77 535 1070 50 356
internal_value=0 -0.000571404 0.00629084 0.0216131 0.00043948 -0.00407229 0.0102817 -0.00674198
internal_weight=613.496 602.606 198.479 51.7442 146.735 404.127 59.9918 344.135
internal_count=2541 2496 819 212 607 1677 251 1426
is_linear=0
shrinkage=0.05


Tree=42
num_leaves=12
num_cat=0
split_feature=59 1 184 147 106 1 13 157 140 184 15
split_gain=5.31932 6.9914 9.68937 8.06422 6.53827 5.86829 5.41741 5.35831 5.13482 3.88906 4.5893
threshold=17.750493888888894 12.500000000000002 45.260000000000012 -2.910508333333333 0.15476190476190479 3.5000000000000004 3.5833333333333335 2.9583333333333335 -0.28257530000000003 30.775000000000002 21.388616666666667
decision_type=2 2 2 2 2 2 2 2 2 2 2
left_child=1 2 5 -4 7 -1 -6 -3 -2 -10 -11
right_child=8 4 3 -5 6 -7 -8 -9 9 10 -12
leaf_value=-0.0062914268214387592 0.011056072601319611 -0.031041883765483849 0.003939879212124609 -0.032581582315298264 0.06518980786781349 0.0057716546087362916 0.01534002545038388 0.023409840389464951 0 -0.056286678723086639 -0.003392340272745235
leaf_weight=141.64579045772552 8.5345797538757306 8.8427733629941923 20.462268680334091 38.747484251856804 8.9103817194700223 327.16295205056667 23.68203991651535 6.7437548935413352 6.1006139963865307 13.238731920719149 8.9826728999614698
leaf_count=589 35 37 86 166 37 1346 99 28 25 56 37
internal_value=4.14796e-06 0.00127606 -0.00030978 -0.0192739 0.0193258 0.00201486 0.0319917 -0.00447702 -0.018068 -0.0286273 -0.038125
internal_weight=613.054 576.197 528.018 59.2098 48.1789 468.809 32.5924 15.5865 36.8566 28.322 22.2214
internal_count=2541 2388 2187 252 201 1935 136 65 153 118 93
is_linear=0
shrinkage=0.05


Tree=43
num_leaves=12
num_cat=0
split_feature=0 126 6 4 4 171 121 70 148 39 131
split_gain=5.26741 7.23173 6.03524 8.38186 8.37073 7.65122 7.41233 7.0683 7.00411 5.34344 0.74917
threshold=1.5000000000000002 -1.6666666666666665 0.11234242140370251 1.627566537354141 2.8504451056942339 0.2645830198104151 1.7638888888888891 13.183563333333334 1.6500000000000001 1.3292836369015271 -0.83333333333333315
decision_type=2 2 2 2 2 2 2 2 2 2 2
left_child=1 9 3 7 8 -5 -6 -2 -4 -1 -3
right_child=2 10 4 5 6 -7 -8 -9 -10 -11 -12
leaf_value=-0.021547464628631306 0.010716775361673347 -0.012593073628089577 -0.0010912931785314315 0.010642246306625101 0.035973666058418605 0.057342413090869404 0 -0.0069920584587151256 -0.018875078395039983 0.037827009301926479 -0.056700741421843504
leaf_weight=6.7940368205308932 118.39980970323086 5.7370031327009192 155.8328999876976 34.665115058422089 20.48823282122612 13.256400376558302 48.651384219527245 103.09684689342976 91.087375745177269 5.9018392562866211 8.7060498595237714
leaf_count=30 493 25 644 145 84 54 199 428 376 25 38
internal_value=6.66413e-06 -0.0210401 0.00110172 0.00665186 -0.00347773 0.0254909 0.0115008 0.002255 -0.00790297 0.00314943 -0.0443682
internal_weight=612.617 27.1389 585.478 269.418 316.06 47.9215 69.1396 221.497 246.92 12.6959 14.4431
internal_count=2541 118 2423 1120 1303 199 283 921 1020 55 63
is_linear=0
shrinkage=0.05


Tree=44
num_leaves=11
num_cat=0
split_feature=185 91 5 7 96 69 33 57 150 20
split_gain=5.17596 5.99746 5.62133 10.9602 11.0402 9.31979 7.51395 6.88322 4.23242 2.24485
threshold=0.39555798085499377 1.0000000180025095e-35 0.62870844779536106 0.1090788280493334 2.3666666666666671 3.8166666666666669 1.6675414000000002 7.0500000000000007 0.0017704903602817487 1.1666666666666667
decision_type=2 2 2 2 2 2 2 2 2 2
left_child=1 -1 6 4 -4 -5 7 -2 -8 -3
right_child=2 9 3 5 -6 -7 8 -9 -10 -11
leaf_value=0.012110640322036487 -0.018250895715539745 -0.003760017916942208 0.01811505886873907 0.016304940489462797 -0.028621796230483134 -0.0060319721761016454 0.043061781625890513 0.026483359870048809 -0.0016123450229037094 -0.048104328395373382
leaf_weight=7.2487922906875637 91.846065580844879 7.1975696384906795 149.34300979971886 55.68977914750576 12.130898252129553 252.5202254652977 8.7910823673009855 7.7415430247783652 7.1301849633455268 12.623460397124289
leaf_count=30 380 30 617 229 50 1053 36 32 30 54
internal_value=3.19798e-06 -0.0208862 0.00108878 0.00359634 0.0141416 -0.00179458 -0.00862171 -0.0140476 0.0211871 -0.0353571
internal_weight=612.263 27.0698 585.193 469.684 161.474 308.21 115.509 99.5876 15.9213 19.821
internal_count=2541 114 2427 1949 667 1282 478 412 66 84
is_linear=0
shrinkage=0.05


Tree=45
num_leaves=10
num_cat=0
split_feature=4 1 70 145 184 152 2 0 141
split_gain=5.21726 6.61267 7.8197 8.01804 7.52233 8.23743 6.61337 4.77403 4.61173
threshold=0.32627929560840113 11.500000000000002 12.758155 0.82500000000000018 45.260000000000012 0.18798649999999997 21.519250000000003 2.5000000000000004 0.058193999999999975
decision_type=2 2 2 2 2 2 2 2 2
left_child=7 4 3 -3 6 -6 -2 -1 -4
right_child=1 2 8 -5 5 -7 -8 -9 -10
leaf_value=-0.046187995946753359 0.0024279224853577751 0.039820483319757849 -0.040248166608850694 -0.0024660463778165475 -0.029049562281025204 0.016166095599338664 -0.027379590592346612 0 0.0099557538157573622
leaf_weight=10.456865608692171 460.10438381135464 32.893193393945694 7.1743878424167615 13.404631465673445 41.626428544521332 10.934518575668333 18.248262822628021 9.9268011450767499 7.216255784034729
leaf_count=47 1899 136 30 56 178 46 76 43 30
internal_value=0 0.000951882 0.0164847 0.0267268 -0.000757319 -0.0185834 0.00113177 -0.0241836 -0.0128133
internal_weight=611.986 591.602 60.6885 46.2978 530.914 52.5609 478.353 20.3837 14.3906
internal_count=2541 2451 252 192 2199 224 1975 90 60
is_linear=0
shrinkage=0.05


Tree=46
num_leaves=8
num_cat=0
split_feature=114 92 3 151 70 47 98
split_gain=5.05488 5.19762 5.9636 10.0153 8.53683 4.93494 2.87359
threshold=7.366666666666668 2.8000000000000003 9.2034500000000019 -0.22131466666666696 9.0404150000000012 4.5500000000000007 1.3541666666666667
decision_type=2 2 2 2 2 2 2
left_child=5 2 3 -2 -4 -1 -3
right_child=1 6 4 -5 -6 -7 -8
leaf_value=0 0.024272833379486363 0 -0.032442549807128615 -0.00071061799303643409 -0.0013681839936933223 0.04438064943471582 -0.047133506500413674
leaf_weight=9.3315750658512133 59.123612865805626 6.4593059867620459 22.83688086271286 109.51344193518162 384.48702578246593 11.483275860548018 8.2569693177938444
leaf_count=38 245 28 96 457 1593 48 36
internal_value=0 -0.000808706 0 0.00784521 -0.00330803 0.0236971 -0.0291789
internal_weight=611.492 590.677 575.961 168.637 407.324 20.8149 14.7163
internal_count=2541 2455 2391 702 1689 86 64
is_linear=0
shrinkage=0.05


Tree=47
num_leaves=13
num_cat=0
split_feature=59 138 37 185 173 153 26 37 118 146 132 1
split_gain=4.88221 6.1376 5.82097 7.8922 7.2711 7.1308 5.65559 5.28191 5.0783 5.02173 4.34012 2.19415
threshold=17.750493888888894 0.39549713938031333 14.044280000000001 0.49977211174600361 1.0505164769870656 0.71428571428571452 12.570200000000002 12.522400000000001 12.950000000000001 -0.39812999999999993 -0.33333333333333359 9.5000000000000018
decision_type=2 2 2 2 2 2 2 2 2 2 2 2
left_child=2 9 3 8 6 -6 -4 -5 -1 10 -2 -11
right_child=1 -3 4 7 5 -7 -8 -9 -10 11 -12 -13
leaf_value=-0.01814252235640432 0.021606703285079909 0.017846169135719309 0.010594325067185278 0.0048968067000204878 0.021192436598822403 -0.016954594871307623 -0.027567662531697776 -0.010853959680681771 0.023775166174205317 -0.064089989797049607 -0.029091910980337244 -0.0099004818978188115
leaf_weight=85.595553010702133 6.5877407193183899 7.3536438047885886 15.913069650530813 276.32459534704685 96.427123636007309 11.780579954385756 18.802408382296562 63.754319295287132 6.0364215970039359 9.0632764250040037 7.7643424868583679 5.8783316910266885
leaf_count=358 27 30 66 1147 400 49 78 265 25 39 32 25
internal_value=0 -0.0173983 0.001186 -0.00161449 0.00994492 0.0164643 -0.00886796 0.00177426 -0.0146145 -0.0281933 -0.0026723 -0.0478656
internal_weight=611.281 36.6473 574.634 431.711 142.923 108.208 34.7155 340.079 91.632 29.2937 14.3521 14.9416
internal_count=2541 153 2388 1795 593 449 144 1412 383 123 59 64
is_linear=0
shrinkage=0.05


Tree=48
num_leaves=15
num_cat=0
split_feature=119 148 175 114 129 2 173 152 18 185 69 22 61 8
split_gain=4.93283 7.78771 10.2654 6.70917 6.66968 9.86055 7.79797 6.44181 7.90966 5.24783 4.72893 4.71383 4.10278 3.5443
threshold=2.0500000000000003 2.8000000000000003 0.41169594420046512 12.450000000000001 -0.0095878333333334603 12.372700000000002 1.0578788004594457 -0.13123169999999992 0.10951525074474153 0.59724685394432198 4.2111111111111121 2.3447316666666671 2.2143901763949541 1.5833333333333337
decision_type=2 2 2 2 2 2 2 2 2 2 2 2 2 2
left_child=3 2 13 4 5 -1 -6 10 -9 -4 -5 12 -3 -2
right_child=1 11 9 7 6 -7 -8 8 -10 -11 -12 -13 -14 -15
leaf_value=0.013422249422055058 0.046372440513959425 0.034868809292599494 -0.032431987255245313 -0.035641341063113972 -0.001769008750102024 -0.0068792409192838305 -0.028911628009869229 0.055637078940501773 0.0061656553667445799 -0.0035728941766812045 0.011720763746657601 -0.017802654917450044 -0.0018502498821174659 0
leaf_weight=151.95164468884468 6.2672601193189603 17.960622996091846 52.959362715482712 6.6195969581604031 144.59671732783318 93.829719394445419 32.883108615875244 16.59960450232029 20.335530802607536 28.540627002716064 14.979036062955855 8.3045316934585554 8.5020037889480573 6.6799997687339783
leaf_count=629 26 74 223 27 600 395 137 68 85 118 62 34 35 28
internal_value=0 -0.00860455 -0.016222 0.00236099 3.16337e-05 0.00547286 -0.00721189 0.0180814 0.030598 -0.0230976 -0.00151718 0.0105658 0.0216131 0.0220266
internal_weight=611.009 129.214 94.4472 481.795 423.261 245.781 177.48 58.5338 36.9351 81.5 21.5986 34.7672 26.4626 12.9473
internal_count=2541 538 395 2003 1761 1024 737 242 153 341 89 143 109 54
is_linear=0
shrinkage=0.05


Tree=49
num_leaves=9
num_cat=0
split_feature=10 5 69 7 7 159 77 97
split_gain=4.70289 4.97436 11.3942 11.4743 7.67171 7.05802 6.89732 5.83954
threshold=3.2284083333333338 1.7913393601775167 4.7250000000000005 0.11141358156158931 0.1229987275903112 3.5000000000000004 0.83333333333333337 0.70000000000000007
decision_type=2 2 2 2 2 2 2 2
left_child=1 4 6 -4 7 -6 -3 -1
right_child=-2 2 3 -5 5 -7 -8 -9
leaf_value=-0.00067422530183853992 0.031247453131899802 0 0.046940110309408423 -0.010812895563580329 0.013789057402232989 -0.020560279804354958 0.033273916032834513 0.042812503242018428
leaf_weight=332.841841340065 10.825374156236647 20.089090645313263 8.4630513340234739 79.834955245256424 15.335542574524878 90.572624459862709 45.747382417321205 6.8883320689201346
leaf_count=1378 45 83 35 338 64 379 190 29
internal_value=0 -0.000592469 0.00701929 -0.00425388 -0.00334694 -0.0150363 0.0227241 0.000183825
internal_weight=610.598 599.773 154.134 88.298 445.638 105.908 65.8365 339.73
internal_count=2541 2496 646 373 1850 443 273 1407
is_linear=0
shrinkage=0.05


Tree=50
num_leaves=14
num_cat=0
split_feature=4 5 139 103 57 6 151 25 119 52 188 22 12
split_gain=4.71116 7.80892 9.24865 10.7552 8.49686 7.923 6.2139 5.62822 4.85279 5.39084 2.99905 2.76107 2.59541
threshold=0.57208093442022767 1.7871940089389675 0.017941626145318624 0.15476190476190479 4.3166666666666673 0.12184891032853291 -0.075167049999999999 3.5833333333333335 1.4142857142857144 1.0500000000000003 0.2383797286344827 1.288121166666667 11.16666666666667
decision_type=2 2 2 2 2 2 2 2 2 2 2 2 2
left_child=8 2 4 -4 -2 6 -3 -7 11 10 -10 -1 -11
right_child=1 5 3 -5 -6 7 -8 -9 9 12 -12 -13 -14
leaf_value=-0.0084476058066707792 -0.017753913830562889 0.0070623970578261048 0.033231125442209818 0.00045556961440171593 0 0.026533040093227302 0.038892690277911493 -0.0095180242242742606 -0.021330476291541129 -0.0061469138086500596 0.021883875119473564 0.028292175893993184 -0.047085511361583031
leaf_weight=8.3332872837781924 111.81676776707172 36.585934191942215 32.455388695001602 112.63178627192974 166.44959859549999 12.919324591755865 33.954910770058632 46.325985193252563 6.2886631190776807 9.2018598020076769 7.73111292719841 7.8775407522916785 17.693055018782616
leaf_count=37 465 152 133 466 688 53 141 193 27 40 33 33 80
internal_value=0 0.0014576 -0.00173463 0.00830687 -0.00716027 0.0121864 0.0234123 -0.000516685 -0.0135046 -0.0228388 0 0.00710721 -0.0355937
internal_weight=610.265 553.14 423.354 145.087 278.266 129.786 70.5408 59.2453 57.1255 40.9147 14.0198 16.2108 26.8949
internal_count=2541 2291 1752 599 1153 539 293 246 250 180 60 70 120
is_linear=0
shrinkage=0.05


Tree=51
num_leaves=16
num_cat=0
split_feature=116 112 142 35 134 2 6 4 186 1 64 158 61 33 169
split_gain=4.60537 8.54367 6.66621 7.56895 5.96465 7.16882 5.76583 14.3765 8.63955 8.58688 7.23093 7.14798 6.17037 4.22868 2.83645
threshold=11.100000000000001 11.16666666666667 1.4333333333333338 3.2916666666666674 1.0000000180025095e-35 10.262400000000001 0.11901553565949045 1.6648353263735769 0.63941549310163659 6.5000000000000009 1.267857142857143 12.500000000000002 1.8204341145697975 0.99875710000000029 39.500000000000007
decision_type=2 2 2 2 2 2 2 2 2 2 2 2 2 2 2
left_child=6 4 3 -3 5 -2 7 9 11 -1 -9 -8 -10 -6 -4
right_child=1 2 14 -5 13 -7 8 10 12 -11 -12 -13 -14 -15 -16
leaf_value=-0.015398946241368597 0.035347477811503429 -0.021312207980030647 -0.054110092667072708 0.0068806588219811424 0.0051508981539999735 -0.011502036390920624 -0.021360980353983552 -0.0048812032936357552 0.051706278264038501 0.0070036953762926332 0.042996054078258183 0.009276740533661584 -0.0053478606086473342 0.055455181065488295 -0.0032791362414434106
leaf_weight=87.219174563884735 11.91024959087372 26.158880189061165 6.5524564385414115 170.75816290080547 8.9763240516185778 19.417758837342262 106.00531581044197 8.3176615387201291 7.5954063236713392 78.783641025424004 26.5009555965662 20.052982449531555 7.1902076303958893 15.983591452240942 8.2636810988187772
leaf_count=366 49 109 27 706 37 80 445 34 31 333 111 83 30 66 34
internal_value=0 0.00493889 6.55874e-05 0.00279407 0.0220765 0.00530497 -0.00380123 0.00142328 -0.0115606 -0.00448916 0.030346 -0.016059 0.0222124 0.0401856 -0.0309204
internal_weight=609.686 268.021 211.733 196.917 56.2879 31.328 341.665 200.821 140.844 166.003 34.8186 126.058 14.7856 24.9599 14.8161
internal_count=2541 1108 876 815 232 129 1433 844 589 699 145 528 61 103 61
is_linear=0
shrinkage=0.05


Tree=52
num_leaves=13
num_cat=0
split_feature=7 5 173 5 172 130 69 132 112 99 4 3
split_gain=4.64667 10.9532 6.94549 7.87213 10.4327 6.23974 6.53292 5.71783 5.20449 5.0327 2.33831 1.39987
threshold=0.12375297738860046 1.8593541989102957 1.0465885563711654 3.3001928920857604 0.33966545365585155 0.52090933333333345 4.9500000000000011 0.33333333333333315 10.41666666666667 0.43650793650793657 0.7849599542096255 14.151900000000003
decision_type=2 2 2 2 2 2 2 2 2 2 2 2
left_child=1 5 11 4 -4 6 -1 10 -5 -7 -3 -2
right_child=2 7 3 8 -6 9 -8 -9 -10 -11 -12 -13
leaf_value=-0.0010400645605246905 -0.059144901191843083 0.01006832875421558 0.003646861276450088 0 -0.018858067218431824 -0.0010987448903616256 0.014475548039366935 0 0.048115538916566419 -0.0366654036594741 0.061406562360948803 -0.0092286668058246535
leaf_weight=207.65173077583313 6.1878300458192808 6.3104820251464906 109.76169560849667 9.6081861555576342 91.155815169215202 29.389926820993423 96.220028221607208 6.7214250117540351 10.536165699362753 17.016734480857849 12.528674542903898 5.8507498204708099
leaf_count=861 26 26 457 41 388 122 400 28 44 71 52 25
internal_value=0 0.00348336 -0.00548548 -0.00313339 -0.00635877 0.000985885 0.00374027 0.0345002 0.0254509 -0.0156936 0.0481046 -0.0412888
internal_weight=608.939 375.839 233.1 221.062 200.918 350.278 303.872 25.5606 20.1444 46.4067 18.8392 12.0386
internal_count=2541 1560 981 930 845 1454 1261 106 85 193 78 51
is_linear=0
shrinkage=0.05


Tree=53
num_leaves=16
num_cat=0
split_feature=119 1 2 147 165 124 39 39 48 6 40 185 189 116 127
split_gain=4.5029 7.75051 8.60755 9.0314 8.21403 7.23914 5.94814 8.59062 6.69982 6.04826 5.91317 5.48736 5.40588 5.03059 3.94984
threshold=2.0500000000000003 4.5000000000000009 9.7550000000000008 6.0492638888888886 1761.0069580100001 0.53775783333333338 1.7110164499841629 2.2904291455633938 10.580080000000001 0.1308159593248828 0.10533354468119006 0.48687484516011797 0.55581096865166779 12.225000000000001 1.364957788803925
decision_type=2 2 2 2 2 2 2 2 2 2 2 2 2 2 2
left_child=1 4 12 -4 10 -6 9 8 -8 13 -1 -11 -3 -2 -9
right_child=6 2 3 -5 5 -7 7 14 -10 11 -12 -13 -14 -15 -16
leaf_value=-0.015410289073674949 -0.034587636545455193 0.025168958324477034 0.0041780092671760945 -0.04127003702751153 -0.035765020748278108 0 -0.015133023926188316 -0.043657930804083707 0.031699817960829803 -0.034815977489607866 0.0090720443620838677 0.01685938218375279 -0.010687761088721881 0 0
leaf_weight=33.60204204916954 41.121618360280991 76.108036354184151 209.56940321624279 10.438244879245756 33.90188255906105 25.313956573605537 8.2688155174255353 9.172511503100397 26.353938430547714 5.7970883101224926 81.687122762203217 18.52921262383461 9.4908263981342298 11.657421529293059 7.5042394548654547
leaf_count=141 174 316 873 43 144 107 35 38 110 25 340 77 39 48 31
internal_value=0 0.0022633 0.00713067 0.00161851 -0.00596798 -0.0209965 -0.00824303 0.00414437 0.0190005 -0.0170723 0.00143533 0.00168217 0.0205384 -0.0265167 -0.0232
internal_weight=608.516 480.112 305.607 220.008 174.505 59.2158 128.405 51.2995 34.6228 77.1053 115.289 24.3263 85.5989 52.779 16.6768
internal_count=2541 2003 1271 916 732 251 538 214 145 324 481 102 355 222 69
is_linear=0
shrinkage=0.05


Tree=54
num_leaves=10
num_cat=0
split_feature=4 6 4 104 151 4 156 148 126
split_gain=4.42898 6.07394 9.36835 7.51379 6.60537 6.58115 4.62848 4.44109 0.905658
threshold=0.32627929560840113 0.085955132171511558 1.627566537354141 0.58571428571428574 -0.084234499999999976 2.8504451056942339 0.16025641025641027 2.3611111111111107 -1.0000000000000004
decision_type=2 2 2 2 2 2 2 2 2
left_child=6 2 4 7 -2 -5 -1 -3 -8
right_child=1 3 -4 5 -6 -7 8 -9 -10
leaf_value=0.00054142967404342596 -0.0048481988255003848 -0.00049819215134820106 0.058555516593821369 -0.0029436121965270004 0.016197494359891842 0.014568337682923906 -0.012189116557609805 -0.041567207941584111 -0.059569492617513091
leaf_weight=8.4495086818933505 67.711077079176903 14.294895097613336 8.3816108554601652 342.95326511561871 74.638343051075935 62.495313823223114 5.9608048349618912 17.385520875453949 5.6157518625259382
leaf_count=38 284 60 36 1429 313 257 27 72 25
internal_value=0 0.000818655 0.00949952 -0.00207541 0.00587395 -9.21245e-05 -0.0225352 -0.0251482 -0.0420579
internal_weight=607.886 587.86 150.731 437.129 142.349 405.449 20.0261 31.6804 11.5766
internal_count=2541 2451 633 1818 597 1686 90 132 52
is_linear=0
shrinkage=0.05


Tree=55
num_leaves=10
num_cat=0
split_feature=92 5 33 39 150 71 150 38 157
split_gain=4.35297 4.6281 7.2475 5.97354 6.10266 5.34986 4.31376 3.41395 3.40273
threshold=2.8000000000000003 0.62870844779536106 1.6675414000000002 2.6708372820168731 0.043838292412060491 5.3166666666666673 0.0017704903602817487 13.450000000000001 2.8090909090909095
decision_type=2 2 2 2 2 2 2 2 2
left_child=1 2 5 4 -3 -1 -4 -5 -2
right_child=8 3 6 7 -6 -7 -8 -9 -10
leaf_value=-0.023549751481551279 -0.04342897818898768 0.003294485486914136 0.044161934592581616 0.042556086273910353 -0.019019766473828539 0 -0.0013147296143444563 0 0
leaf_weight=55.420230507850647 9.130844980478285 419.72294507920742 8.5393098443746549 13.666434004902841 31.672145426273346 47.971264123916626 7.0659538954496375 8.8639031499624235 5.5630034059286109
leaf_count=231 40 1752 35 58 133 200 30 37 25
internal_value=0 0.000688705 -0.00797431 0.00298137 0.0015797 -0.0131003 0.0217202 0.0276783 -0.0259898
internal_weight=607.616 592.922 118.997 473.925 451.395 103.391 15.6053 22.5303 14.6938
internal_count=2541 2476 496 1980 1885 431 65 95 65
is_linear=0
shrinkage=0.05


Tree=56
num_leaves=15
num_cat=0
split_feature=7 5 186 149 5 47 180 130 25 11 117 132 11 4
split_gain=4.41497 9.98639 6.50613 7.95384 7.52682 11.3395 5.72755 5.71602 5.852 5.5411 5.5223 5.32499 4.52389 2.01035
threshold=0.12375297738860046 1.8593541989102957 0.5687528141009518 -0.15515772253829271 2.2345050326548517 4.2666666666666675 63.249999999999993 0.52090933333333345 6.166666666666667 1.7480253333333338 1.6333333333333335 0.33333333333333315 1.4697650000000002 0.7849599542096255
decision_type=2 2 2 2 2 2 2 2 2 2 2 2 2 2
left_child=1 7 4 12 10 -6 -5 8 -1 -9 -2 13 -4 -3
right_child=2 11 3 6 5 -7 -8 9 -10 -11 -12 -13 -14 -15
leaf_value=0.0003972749772338149 -0.002493100601072619 0.0098795919980278687 0 -0.0044899156126931433 0.033898453766097493 -0.013810371023563063 0.02666349633629659 -0.023854044768860612 0.019637560345119036 0.016372046454203981 -0.027874862975980581 0 -0.042508948191551134 0.058826638638133824
leaf_weight=256.32036283612251 38.620078057050705 6.3063780069351258 10.067905560135843 19.079271271824837 18.983952224254608 30.858242139220238 39.020708486437798 37.513632044196129 47.06902140378952 8.7119410485029203 65.933974847197533 6.7152436673641196 9.7424614429473859 12.434905424714087
leaf_count=1065 164 26 43 80 79 133 163 157 196 36 278 28 41 52
internal_value=0 0.00335149 -0.00540396 0.00590951 -0.0114359 0.00368692 0.0156842 0.000959696 0.00360126 -0.0150279 -0.0190855 0.0330321 -0.0197313 0.0462237
internal_weight=607.378 375.071 232.307 77.9103 154.396 49.8422 58.1 349.615 303.389 46.2256 104.554 25.4565 19.8104 18.7413
internal_count=2541 1560 981 327 654 212 243 1454 1261 193 442 106 84 78
is_linear=0
shrinkage=0.05


Tree=57
num_leaves=13
num_cat=0
split_feature=59 37 0 166 165 185 185 40 149 15 173 150
split_gain=4.30829 5.70394 6.49923 11.8367 9.75001 6.35917 8.29479 5.48359 4.59393 4.49756 3.34615 1.61515
threshold=17.750493888888894 14.044280000000001 6.5000000000000009 -93.43634033499994 1670.7498779300001 0.51900739938112761 0.55493826826707571 0.13314335732720786 0.4250615316624235 20.781900000000004 1.0510285453894479 -0.011791918107954309
decision_type=2 2 2 2 2 2 2 2 2 2 2 2
left_child=1 5 4 -4 -3 7 -7 -1 9 10 -2 -11
right_child=8 2 3 -5 -6 6 -8 -9 -10 11 -12 -13
leaf_value=-0.0037807434023589266 -0.0023776240148272181 -0.042741228689806843 -0.017954984513236603 0.032780896735286273 0.0071913295356386773 0.0198311557159489 -0.0015784326847816681 -0.027536715094357525 0.01474440491823999 0.015480145763852272 -0.057098366688840933 -0.018471398093947374
leaf_weight=90.370338782668114 6.3805590867996278 10.371320217847822 12.734448552131651 50.271352231502533 68.645706564188004 53.568966761231422 248.44877801835537 36.18996399641037 6.7856943458318701 6.0116207003593445 11.104291200637816 5.909985810518263
leaf_count=380 27 44 53 207 289 224 1038 153 28 25 48 25
internal_value=0 0.00108088 0.00978124 0.0216249 0 -0.00170193 0.0021069 -0.0111284 -0.0164815 -0.0255794 -0.0410435 0
internal_weight=606.793 570.601 142.023 63.0058 79.017 428.578 302.018 126.56 36.1922 29.4065 17.4849 11.9216
internal_count=2541 2388 593 260 333 1795 1262 533 153 125 75 50
is_linear=0
shrinkage=0.05


Tree=58
num_leaves=14
num_cat=0
split_feature=4 6 37 37 104 171 59 62 7 78 102 129 51
split_gain=4.1662 7.73219 8.38833 8.07103 7.55766 7.30983 5.82191 5.45307 5.3374 5.9201 5.37577 2.47525 1.84255
threshold=0.69928400451317396 0.085955132171511558 16.802330000000005 10.874240000000002 0.58571428571428574 0.19889474575303276 13.463040000000001 0.13510105456238777 0.13346029265473283 2.1666666666666674 1.8875000000000002 -1.0000000180025095e-35 0.14092575817594813
decision_type=2 2 2 2 2 2 2 2 2 2 2 2 2
left_child=7 2 3 -2 6 -6 -3 8 9 -1 -10 -4 -9
right_child=1 4 11 -5 5 -7 -8 12 10 -11 -12 -13 -14
leaf_value=0.019848644990969926 0.0007716737087166333 -0.038882444744447194 0 0.033776598202038585 0.014785742401895292 -0.002488920426263668 0.0028842454092818741 -0.050000295400492237 -0.031903622051310108 -0.019488028695716017 0.012693552114337326 -0.041646895639280479 -0.0041662365611924747
leaf_weight=30.107103243470192 35.114357709884644 21.282782182097439 6.2956526577472687 47.745013371109962 74.369580835103989 318.71612161397934 9.7958132773637754 9.5200812071561796 22.480121523141865 11.855953454971312 6.9676352590322486 5.9251752495765668 6.3420746475458136
leaf_count=128 147 89 26 198 310 1325 41 42 102 50 30 25 28
internal_value=0 0.00169193 0.0145383 0.0205619 -0.00109751 0.000681697 -0.0244796 -0.0100559 -0.00319105 0.00737603 -0.019639 -0.0209873 -0.0359738
internal_weight=606.517 519.244 95.0802 82.8594 424.164 393.086 31.0786 87.273 71.4108 41.9631 29.4478 12.2208 15.8622
internal_count=2541 2161 396 345 1765 1635 130 380 310 178 132 51 70
is_linear=0
shrinkage=0.05


Tree=59
num_leaves=12
num_cat=0
split_feature=185 162 6 146 40 119 137 55 6 4 108
split_gain=4.12072 5.47457 5.02826 6.41579 9.65143 5.45201 6.89724 6.52227 3.8257 2.09758 1.71607
threshold=0.39555798085499377 2.9250000000000003 0.18146360733476372 0.13459184999999987 0.14269866391133981 2.0500000000000003 3.0250000000000008 1.5962380500000004 0.1959154248503702 1.4925636635161934 1.267857142857143
decision_type=2 2 2 2 2 2 2 2 2 2 2
left_child=1 10 5 8 -5 7 -7 -2 -4 -3 -1
right_child=2 9 3 4 -6 6 -8 -9 -10 -11 -12
leaf_value=-0.010246358840027218 0.0020519585044846411 -0.01288175106234357 -0.021512548126859824 -0.044771349377692338 0.007512384762343143 -0.01478245543541579 0.013957196712364103 0.018116496803067737 0.011939673025203946 0.02419058574759117 -0.057741286387965378
leaf_weight=7.3189904391765612 319.51089179515839 6.0713195353746396 10.564591988921164 23.242026433348656 11.178479894995688 78.903315529227257 25.765812039375305 81.146852567791939 29.206940054893494 6.0730759501457214 7.0667138993740082
leaf_count=31 1340 27 44 98 46 333 107 337 122 25 31
internal_value=0 -0.0189251 0.000872177 -0.0110648 -0.0266472 0.0027419 -0.00716947 0.00546706 0.00151766 0.00228317 -0.0390637
internal_weight=606.049 26.5301 579.519 74.192 34.4205 505.327 104.669 400.658 39.7715 12.1444 14.3857
internal_count=2541 114 2427 310 144 2117 440 1677 166 52 62
is_linear=0
shrinkage=0.05


Tree=60
num_leaves=11
num_cat=0
split_feature=1 0 6 4 80 157 59 4 130 7
split_gain=4.08194 5.55597 5.04585 9.22153 7.36498 4.51095 4.61223 4.17557 0.898288 0.386836
threshold=14.500000000000002 1.5000000000000002 0.098048933008403408 1.4779217573814087 2.6666666666666674 2.379807692307693 15.02915388888889 1.1008323300629854 0.30928733333333308 0.13947686643223273
decision_type=2 2 2 2 2 2 2 2 2 2
left_child=1 7 3 -3 -4 -2 9 8 -1 -7
right_child=5 2 4 -5 -6 6 -8 -9 -10 -11
leaf_value=-0.047879426314730689 -0.013062478808619367 0.00094835596808833921 -0.0014022874258608571 0.028820872842246211 -0.030196097744983497 0.053703247499372421 0 0.0020548371976252216 -0.0071000699426061985 0.014109852929526299
leaf_weight=10.661465585231786 6.1679918318986919 163.7672680914402 330.65356309711933 36.473642289638519 23.296147033572197 9.6879316270351428 6.480602651834487 6.7953729331493369 5.6525005847215644 6.0597952455282202
leaf_count=50 26 688 1373 155 99 42 28 29 25 26
internal_value=0 -0.000954523 0 0.00639175 -0.00351803 0.0181445 0.029146 -0.0244536 -0.0378641 0.0432052
internal_weight=605.696 577.3 554.191 200.241 353.95 28.3963 22.2283 23.1093 16.314 15.7477
internal_count=2541 2419 2315 843 1472 122 96 104 75 68
is_linear=0
shrinkage=0.05


Tree=61
num_leaves=14
num_cat=0
split_feature=70 125 13 6 35 119 33 187 168 168 136 40 173
split_gain=3.897 5.86896 5.81042 6.52445 9.65686 6.73179 6.49233 6.77466 6.13063 5.01326 4.78396 1.91558 1.41314
threshold=20.458380555555561 6.0980000000000008 4.416666666666667 0.11069561833924142 2.9000000000000004 2.0500000000000003 0.96591570000000015 0.55037792298641119 28.500000000000004 53.500000000000007 12.3229825 0.10177059714051429 1.0534055096878963
decision_type=2 2 2 2 2 2 2 2 2 2 2 2 2
left_child=2 9 3 5 -5 -1 8 -8 -4 -2 11 -3 -12
right_child=1 10 6 4 -6 -7 7 -9 -10 -11 12 -13 -14
leaf_value=0.0092869016211626822 -0.010099805735260304 -0.0086195066156307381 -0.018787650313342102 0.019524299630926428 -0.017767925202881202 -0.019054702196241755 0.0047985636094454547 0.025459733854286116 0.0069716340648651983 0.041858905689667797 0.013128511333626108 -0.058496650622588145 -0.018406980381966837
leaf_weight=105.11549846827984 10.728782474994661 5.9765393882989946 42.645909667015076 18.397375598549843 113.53062474727631 24.433509349822998 153.9558828920126 57.410996600985527 44.740126103162766 5.9561209976673117 5.8257734477519971 10.426452428102492 5.954719752073288
leaf_count=442 45 25 181 77 476 104 648 238 186 25 25 44 25
internal_value=0 -0.0140452 0.00111216 -0.0042114 -0.0120836 0.00345354 0.0059368 0.0107394 -0.00510398 0.00693909 -0.0279935 -0.0447362 0
internal_weight=605.098 44.8684 560.23 261.477 131.928 129.549 298.753 211.367 87.386 16.6849 28.1835 16.403 11.7805
internal_count=2541 189 2352 1099 553 546 1253 886 367 70 119 69 50
is_linear=0
shrinkage=0.05


Tree=62
num_leaves=10
num_cat=0
split_feature=114 114 103 68 6 40 130 73 23
split_gain=4.02982 4.56008 5.47062 7.55404 5.33601 8.97756 6.157 4.85482 4.52562
threshold=7.366666666666668 12.900000000000002 0.18333333333333338 3.5857142857142863 0.17935015160279963 0.14269866391133981 -1.0507041666666666 0.10555895524463489 10.41666666666667
decision_type=2 2 2 2 2 2 2 2 2
left_child=8 4 7 -4 6 -6 -2 -3 -1
right_child=1 2 3 -5 5 -7 -8 -9 -10
leaf_value=0 0.033017102500746819 0 0.029792416747621359 -0.013552088317200976 -0.026643798063591208 0.011509374368548706 -0.0014554026018694067 0.048197324209591941 0.041894722951363816
leaf_weight=9.5983733534812945 12.310767367482184 6.7447237819433239 14.170770332217215 28.510074570775032 49.93354906141758 19.304619356989861 439.30883793532848 13.847464874386786 10.963653951883314
leaf_count=40 51 28 59 119 211 80 1849 58 46
internal_value=0 -0.000816786 0.011619 4.69491e-05 -0.00244265 -0.0152819 -0.000334373 0.0321753 0.0211927
internal_weight=604.693 584.131 63.273 42.6808 520.858 69.2382 451.62 20.5922 20.562
internal_count=2541 2455 264 178 2191 291 1900 86 86
is_linear=0
shrinkage=0.05


Tree=63
num_leaves=11
num_cat=0
split_feature=4 5 7 172 3 7 51 13 156 126
split_gain=3.95886 5.19694 7.95702 6.92171 5.97081 5.67449 7.39744 4.94704 4.24867 0.846838
threshold=0.32627929560840113 1.7871940089389675 0.14483558764267293 0.29144128024077925 13.543600000000003 0.1229987275903112 0.13614707532953627 4.416666666666667 0.16025641025641027 -1.0000000000000004
decision_type=2 2 2 2 2 2 2 2 2 2
left_child=8 5 4 -4 -3 7 -7 -2 -1 -10
right_child=1 2 3 -5 -6 6 -8 -9 9 -11
leaf_value=0.00035980851411216157 -0.0051995504255091633 0.032800174836052132 0.020118770612672119 -0.0093361937640734725 -0.0045549064484931385 -0.0026738718706609882 -0.032452812280111605 0.0068961125811195668 -0.011173356464156519 -0.057627220034843329
leaf_weight=8.4126374423503893 153.46810272336006 42.090794786810875 28.137644529342651 62.218259289860725 10.979927286505697 75.623393073678017 30.492392838001251 181.54916180670261 5.8741920739412308 5.4607215821742994
leaf_count=38 641 177 119 264 46 319 130 755 27 25
internal_value=0 0.000740541 0.00903444 0 0.0242057 -0.00185732 -0.0119207 0.00120742 -0.0214837 -0.0404641
internal_weight=604.307 584.56 143.427 90.3559 53.0707 441.133 106.116 335.017 19.7476 11.3349
internal_count=2541 2451 606 383 223 1845 449 1396 90 52
is_linear=0
shrinkage=0.05


Tree=64
num_leaves=16
num_cat=0
split_feature=116 119 6 4 186 173 162 4 129 90 156 30 154 175 21
split_gain=3.84858 5.70081 5.78831 10.1066 6.74075 5.72511 9.18902 6.50873 5.31945 7.67303 9.17379 6.15393 8.69506 5.77081 1.29718
