tree
version=v4
num_class=1
num_tree_per_iteration=1
label_index=0
max_feature_idx=189
objective=binary sigmoid:1
feature_names=Column_0 Column_1 Column_2 Column_3 Column_4 Column_5 Column_6 Column_7 Column_8 Column_9 Column_10 Column_11 Column_12 Column_13 Column_14 Column_15 Column_16 Column_17 Column_18 Column_19 Column_20 Column_21 Column_22 Column_23 Column_24 Column_25 Column_26 Column_27 Column_28 Column_29 Column_30 Column_31 Column_32 Column_33 Column_34 Column_35 Column_36 Column_37 Column_38 Column_39 Column_40 Column_41 Column_42 Column_43 Column_44 Column_45 Column_46 Column_47 Column_48 Column_49 Column_50 Column_51 Column_52 Column_53 Column_54 Column_55 Column_56 Column_57 Column_58 Column_59 Column_60 Column_61 Column_62 Column_63 Column_64 Column_65 Column_66 Column_67 Column_68 Column_69 Column_70 Column_71 Column_72 Column_73 Column_74 Column_75 Column_76 Column_77 Column_78 Column_79 Column_80 Column_81 Column_82 Column_83 Column_84 Column_85 Column_86 Column_87 Column_88 Column_89 Column_90 Column_91 Column_92 Column_93 Column_94 Column_95 Column_96 Column_97 Column_98 Column_99 Column_100 Column_101 Column_102 Column_103 Column_104 Column_105 Column_106 Column_107 Column_108 Column_109 Column_110 Column_111 Column_112 Column_113 Column_114 Column_115 Column_116 Column_117 Column_118 Column_119 Column_120 Column_121 Column_122 Column_123 Column_124 Column_125 Column_126 Column_127 Column_128 Column_129 Column_130 Column_131 Column_132 Column_133 Column_134 Column_135 Column_136 Column_137 Column_138 Column_139 Column_140 Column_141 Column_142 Column_143 Column_144 Column_145 Column_146 Column_147 Column_148 Column_149 Column_150 Column_151 Column_152 Column_153 Column_154 Column_155 Column_156 Column_157 Column_158 Column_159 Column_160 Column_161 Column_162 Column_163 Column_164 Column_165 Column_166 Column_167 Column_168 Column_169 Column_170 Column_171 Column_172 Column_173 Column_174 Column_175 Column_176 Column_177 Column_178 Column_179 Column_180 Column_181 Column_182 Column_183 Column_184 Column_185 Column_186 Column_187 Column_188 Column_189
feature_infos=[0:37] [0:30] [2.3029999999999999:193] [2.7894999999999999:116.75] [0.020346300676465:7.1416776310652486] [0.020989025011658599:6.1184201743453732] [0.019707433258493699:0.76116901636123657] [0.010022390633821401:0.50099195539951324] [0:5.333333333333333] [0:5.333333333333333] [0.33050099999999999:4.4938499999999992] [0.14320686666666665:4.3048899999999994] [4:29] [0.33333333333333331:12.666666666666666] [1:13.666666666666666] [4.4275000000000002:84.945933333333329] [0:27.333333333333332] [0.30303875263780333:4.65057199448347] [0.029363820230355348:0.4082791765686124] [0:5.666666666666667] [0:5] [0.167602:4.2171866666666666] [0.24252733333333332:4.2970433333333338] [2.6666666666666665:27.333333333333332] [0.33333333333333331:11.666666666666666] [0.33333333333333331:11.666666666666666] [4.6660000000000004:51.600000000000001] [0.5:21.333333333333332] [0.16760198989262157:4.4914219146594396] [0.029778013510319001:0.31013856209400625] [0:4.7999999999999998] [0:4.4000000000000004] [0.33050099999999999:4.0464766666666669] [0.18546151999999999:4.0729039999999994] [4.2000000000000002:28.199999999999999] [1.3999999999999999:11.4] [1:12.6] [4.6467799999999997:58.853999999999999] [0:22.800000000000001] [0.33086202596314201:4.053268974646925] [0.029363820230355348:0.29393343321728299] [0:4] [0:4.2000000000000002] [0.238315:3.6216240000000006] [0.3991768:3.890835] [3.5:25] [0.5:9.5999999999999996] [1:10.6] [4.6790666666666665:41.443750000000001] [1:18.600000000000001] [0.238916548900306:3.8876953648868939] [0.038186514426747024:0.30032677886386705] [0:4.666666666666667] [0:3.7999999999999998] [0.33050099999999999:4.0464766666666669] [0.37148795999999995:3.5279179999999997] [6.5999999999999996:27.600000000000001] [2:10.699999999999999] [1.5:11.199999999999999] [5.0460500000000001:36.101849999999999] [0:21.5] [0.33086202596314201:4.053268974646925] [0.029363820230355348:0.21190902254041316] [0:4] [0.20000000000000001:3.5] [0.238315:3.1571860000000003] [0.51888849999999997:3.890835] [3.5:20.5] [0.5:8.6999999999999993] [1:8.8000000000000007] [4.7407500000000002:31.856824999999997] [1:16.100000000000001] [0.238916548900306:3.1603069910779586] [0.038206815471251702:0.30032677886386705] [0:3] [0:1] [0:1] [0:5] [0:5.333333333333333] [0:1] [0:3] [0:1] [0:1] [0:5.666666666666667] [0:4.666666666666667] [0:1] [0:3] [0:1] [0:1] [0:4.7999999999999998] [0:4] [0:1] [0:3] [0:1] [0:1] [0:4.5999999999999996] [0:4] [0:1] [0:3] [0:1] [0:1] [0:3.8571428571428572] [0.10000000000000001:4] [0:0.90000000000000002] [0:3] [0:1] [0:1] [0:4] [0:3.6666666666666665] [0:1] [3.3333333333333335:18.333333333333332] [0:5.333333333333333] [4:19] [0:5] [4.5999999999999996:17.800000000000001] [0:5] [5:17] [0:4.4000000000000004] [5.7999999999999998:15.6] [0:5] [5:16] [0:3.6000000000000001] [-4.666666666666667:4.333333333333333] [-4.333333333333333:5] [-2.8806406:3.0608003333333338] [-73.317966666666663:43.256066666666669] [-15:24.333333333333332] [-2.8699568463489409:3.3497298383153966] [-0.19527868885491384:0.32439331024459467] [-1.9888533333333336:2.25536] [-2.1839600000000003:2.7741266666666671] [-3:3] [-6:5.6666666666666679] [-3.7000000000000002:3.3999999999999999] [-3.6000000000000005:3.3999999999999999] [-2.6953765999999999:3.0408246666666665] [-44.883340000000011:29.475540000000002] [-11.800000000000001:19.600000000000001] [-2.3609232265967872:2.9559005260467526] [-0.20875076885814919:0.20597379459438325] [-1.5711539999999999:2.0680160000000001] [-1.6701386:1.6839095999999998] [-3:2.7999999999999998] [-5.4000000000000004:5.5999999999999996] [-2.7000000000000002:3.3333333333333339] [-3.1999999999999997:3] [-2.8152651:3.0408246666666665] [-27.615049999999993:22.985150000000001] [-11.166666666666668:15.699999999999999] [-1.8549195694116254:2.5298035088926554] [-0.20531450110609334:0.12106779398155809] [-1.3043848:1.4892219999999998] [-1.24064:1.3604118000000001] [-2.6000000000000001:2.3999999999999999] [-3.7999999999999998:4] [0:1] [0:1] [0:6] [2:813] [2:454] [0:1] [0:1] [1.5:4.4000000000000004] [0:2] [1522.7600097699999:2088.2619628900002] [1525.6278076200001:2090.1362304700001] [-482.20227051000006:493.09851073999994] [1:100] [1:100] [-98:98] [0.049896049896049892:0.89438223571835251] [0.072914197677174691:0.33876221498371334] [0.032691212753843235:0.83160083160083165] [1.0298245614035089:1.1666666666666665] [0.28571428571428575:0.78749999999999998] [0.21249999999999997:0.7142857142857143] [1.1756052141527:2.6253174010455567] [1.1756052141527:2.6253174010455567] [-1.4497121868928566:1.4497121868928566] [30.100000000000001:123.60000000000002] [30.100000000000001:123.60000000000002] [0:2] [0:2] [14.720000000000001:59.220000000000013] [14.720000000000001:59.220000000000013] [0.23828995753023718:0.8377269485021186] [0.31549997661261864:0.73067962750348125] [0.028827833293812298:0.92762948990771532] [0.055416905979702509:0.36934052390457472] [0.014175149555687086:0.87215214234426153]
tree_sizes=1560 1488 1790 1497 1637 1817 1708 1705 1799 1804 1596 1590 1637 1626 1673 1591 1368 1604 1663 1166 1504 1666 1582 1795 1403 1376 1803 1263 1203 1701 1489 1490 1796 1674 1812 1721 1713 1391 1595 1359 1470 1848 1613 1478 1589 1676 1716 1609 1495 1813 1069 1275 1433 1507 1380 1831 1693 1178 1281 1376 1649 1277 1715 1366 1799 1261 1450 1283 1474 1066 1204 1722 1321 1518 1173 1310 1306 1290 1374 1181 1513 1448 1181 1102 1490 1183 1484 748 1161 1275 1519 1282 1729 1278 1517 767 1376 1153 1441 1069 1300 1590 1296 1183 1357 1073 1514 1273 1805 1582 1453 1578 1496 1184 1593 1710 1347 1710 1252 1162 1513 1289 1049 1472 1478 1186 773 1479 1262 1811 1304 1525 1490 1390 963 1097 1256 1045 1821 1584 1732 1499 968 1060 1343 1253 1176 1073 1283 1660 1207 1700 1392 1299 1388 1472 1467 1789 1151 1309

Tree=0
num_leaves=14
num_cat=0
split_feature=2 172 2 3 176 4 3 114 166 50 5 178 188
split_gain=131.646 52.2938 25.6344 24.0564 22.7827 16.2807 15.6248 14.566 15.2143 14.0719 11.0843 9.77797 8.6643
threshold=14.066950000000002 0.10549666006626353 9.9226500000000026 8.4799000000000024 1.9029223426395088 1.3069398375228045 11.254650000000002 11.100000000000001 -207.197143555 0.90126378880813685 1.7324002175591882 -1.1583646907926071 0.25620670861801115
decision_type=2 2 2 2 2 2 2 2 2 2 2 2 2
left_child=1 5 6 7 -4 -1 -3 10 -9 -7 -2 -5 -13
right_child=3 2 4 11 -6 9 -8 8 -10 -11 -12 12 -14
leaf_value=0.49207137690637781 0.4544982136244109 0.51010083783139815 0.47842664423277409 0.45889027478174516 0.440982635137875 0.37504897090853134 0.48011018995837396 0.43091540697864678 0.50229909691824126 0.43812157825169629 0.39874374058852025 0.38660390991181159 0.42201795445238482
leaf_weight=6.8813299089670172 20.881276965141296 79.016650334000587 121.96564045548439 6.6440426707267752 58.609947845339775 13.999947056174276 121.25377874076366 11.152500197291376 16.847393915057182 32.033777162432671 18.271117344498634 50.542181745171547 44.847288027405739
leaf_count=29 88 333 514 28 247 59 511 47 71 135 77 213 189
internal_value=0.45889 0.473484 0.480042 0.42161 0.465966 0.42769 0.492387 0.446119 0.472158 0.416502 0.426384 0.406246 0.40218
internal_weight=602.947 433.761 380.846 169.186 180.576 52.9151 200.27 67.1523 27.9999 46.0337 39.1524 102.034 95.3895
internal_count=2541 1828 1605 713 761 223 844 283 118 194 165 430 402
is_linear=0
shrinkage=1


Tree=1
num_leaves=13
num_cat=0
split_feature=2 172 2 176 2 166 4 50 150 114 174 40
split_gain=118.776 47.9883 24.2532 20.9114 16.357 21.0504 14.9644 11.9733 11.6692 10.0524 6.92972 1.02821
threshold=14.171600000000003 0.10549666006626353 9.9226500000000026 1.9029223426395088 29.234100000000002 34.060913079999985 1.3069398375228045 0.90126378880813685 -0.030415411309607367 11.900000000000002 0.48071775552691592 0.12307767984017796
decision_type=2 2 2 2 2 2 2 2 2 2 2 2
left_child=1 6 8 -4 5 9 -1 -8 -3 -2 -7 -6
right_child=4 2 3 -5 11 10 7 -9 -10 -11 -12 -13
leaf_value=0.031953272568297435 -0.026269018789095044 0 0.018393572430332218 -0.017048270518629623 -0.092705627797181708 -0.00873809549361961 -0.078618585361351884 -0.020420833764082408 0.036575989566201832 0.0078812116485825444 -0.078312867227775196 -0.035656263064546785
leaf_weight=6.828253522515296 90.585122019052505 24.020138740539551 124.04290390014648 60.282877966761589 13.412197813391687 6.4575064629316357 14.243232324719427 32.421741873025894 174.70294758677483 25.000793009996414 24.247574269771576 6.4546172320842734
leaf_count=29 379 102 525 253 56 27 59 136 742 105 101 27
internal_value=0 0.0136831 0.0199654 0.00650324 -0.0358655 -0.0291485 -0.029926 -0.0405099 0.0321067 -0.0184493 -0.0659949 -0.0791638
internal_weight=602.7 436.542 383.049 184.326 166.158 146.291 53.4932 46.665 198.723 115.586 30.7051 19.8668
internal_count=2541 1846 1622 778 695 612 224 195 844 484 128 83
is_linear=0
shrinkage=0.05


Tree=2
num_leaves=16
num_cat=0
split_feature=2 166 3 114 2 62 2 185 2 113 89 177 166 114 0
split_gain=107.278 43.3742 20.3517 18.7198 15.4408 17.6738 12.9409 11.8412 11.3352 9.42188 9.12708 12.4443 7.44943 6.00761 4.61948
threshold=14.1165 167.25164795499998 8.4799000000000024 10.550000000000002 9.9226500000000026 0.12956174116489691 21.027800000000003 0.65751046864074836 9.4781000000000031 2.8333333333333335 0.63333333333333341 2.5502608803592905 -88.288513184999928 11.100000000000001 4.5000000000000009
decision_type=2 2 2 2 2 2 2 2 2 2 2 2 2 2 2
left_child=1 4 6 8 7 -6 13 -1 -3 -5 14 -12 -8 -2 -4
right_child=2 3 10 9 5 -7 12 -9 -10 -11 11 -13 -14 -15 -16
leaf_value=0.034805350114527449 -0.010876752887144311 -0.015992040416068984 -0.033600533945430652 0.022718671710832708 0.019742470831353207 -0.01597971338229854 -0.052857913909346757 -0.017709193810031245 -0.068090176931427562 -0.03406564473311751 -0.060265007908548753 0 0.0022416820457724566 0.025833294980506755 0.017291683347239892
leaf_weight=166.82959291338921 21.610561221837997 30.753308609127998 7.7398716509342176 28.245695650577545 124.4327417910099 45.496797531843185 19.724932998418812 9.5771922618150693 19.104499965906143 8.3150911629199964 78.559613794088364 9.1275082379579526 6.2208785712718955 19.402272254228592 6.9900413155555725
leaf_count=714 90 129 32 119 527 192 82 41 80 35 325 38 26 82 29
internal_value=0 0.013159 -0.0336645 -0.0180696 0.0211248 0.00984819 -0.0110091 0.0315887 -0.0378844 0.00790981 -0.0477431 -0.0539193 -0.0381985 0.00550138 -0.00670716
internal_weight=602.131 432.755 169.376 86.4186 346.336 169.93 66.9586 176.407 49.8578 36.5608 102.417 87.6871 25.9458 41.0128 14.7299
internal_count=2541 1837 704 363 1474 719 280 755 209 154 424 363 108 172 61
is_linear=0
shrinkage=0.05


Tree=3
num_leaves=13
num_cat=0
split_feature=2 3 189 2 110 118 154 2 2 6 124 83
split_gain=97.4389 46.2344 26.2008 23.0402 21.4404 20.1833 11.3432 12.4063 10.901 9.27271 4.97243 4.83282
threshold=16.317000000000004 12.314250000000001 0.24944656861485906 10.81535 9.8333333333333339 9.3166666666666682 0.30000000000000016 25.717950000000005 11.803850000000002 0.13436742128334681 0.59931283333333341 2.1666666666666674
decision_type=2 2 2 2 2 2 2 2 2 2 2 2
left_child=1 3 5 11 -5 -3 7 9 -4 -2 -9 -1
right_child=6 2 8 4 -6 -7 -8 10 -10 -11 -12 -13
leaf_value=0.046955111817001023 -0.031781636245527482 -0.050855655422682888 0.021845331475354956 -0.015597431083715176 0.025598625549634071 -0.006993193382307277 -0.07717667689738103 -0.074482687810170992 -0.012666854912639081 0.0041591340351843321 -0.0099870618590797728 0.011343120435280544
leaf_weight=93.717066660523415 53.060252100229263 38.616815656423569 80.050599128007889 46.857952490448952 87.078412145376205 89.152414813637733 18.758783549070358 20.002930149436001 29.146188795566559 23.132437109947205 6.0983023941516867 15.748714476823805
leaf_count=404 220 161 343 197 369 377 77 82 122 96 25 68
internal_value=0 0.010053 -0.00549016 0.0253503 0.0108068 -0.0209304 -0.0399657 -0.0319767 0.0121484 -0.0203096 -0.0621834 0.0424333
internal_weight=601.421 480.368 236.966 243.402 133.936 127.769 121.053 102.294 109.197 76.1927 26.1012 109.466
internal_count=2541 2041 1003 1038 566 538 500 423 465 316 107 472
is_linear=0
shrinkage=0.05


Tree=4
num_leaves=15
num_cat=0
split_feature=2 172 3 2 114 2 187 118 4 43 4 1 9 155
split_gain=88.3807 39.2177 25.1701 16.3023 19.5284 15.722 15.4483 12.1233 11.9783 9.73697 9.64831 9.37 5.85907 3.50101
threshold=11.803850000000002 0.10549666006626353 6.7166000000000006 16.242650000000001 9.9000000000000021 17.048800000000004 0.36040320429335015 7.9500000000000011 1.3069398375228045 0.8766024 0.4201492755673823 9.5000000000000018 2.8333333333333335 0.19090909090909094
decision_type=2 2 2 2 2 2 2 2 2 2 2 2 2 2
left_child=1 8 5 4 -4 13 12 -8 -1 -10 -5 -7 -3 -2
right_child=2 6 3 10 -6 11 7 -9 9 -11 -12 -13 -14 -15
leaf_value=0.033625723629009258 0 0.042175917065348796 -0.043060944630313486 -0.0024078509282677045 0 0.017506232164226122 -0.040070243525047039 0.017263983247399774 -0.071905103740125917 -0.016110638961924949 -0.052558181309653285 -0.037878054693933766 0 0.050649334912160719
leaf_weight=6.0953999459743491 5.9268127828836468 97.504869237542152 41.633916258811951 13.408936157822607 69.856996938586235 10.815278917551042 8.2892367690801603 183.71490763127804 12.02955938875675 30.807696506381035 79.356426894664764 17.467016667127609 7.1783369183540335 16.50367183983326
leaf_count=26 25 422 173 55 294 45 35 791 49 128 325 72 31 70
internal_value=0 0.0163736 -0.0223642 -0.030217 -0.0163938 0.00827042 0.0233001 0.0143349 -0.0242476 -0.0342023 -0.0459453 -0.0151168 0.0389793 0.0392796
internal_weight=600.589 345.62 254.969 204.256 111.491 50.7128 296.687 192.004 48.9327 42.8373 92.7654 28.2823 104.683 22.4305
internal_count=2541 1482 1059 847 467 212 1279 826 203 177 380 117 453 95
is_linear=0
shrinkage=0.05


Tree=5
num_leaves=16
num_cat=0
split_feature=2 166 3 188 114 187 114 114 166 5 148 188 131 127 165
split_gain=79.852 34.6425 16.4925 15.913 14.0197 13.583 12.8325 10.8621 12.9183 9.31254 8.94503 6.63291 10.2486 8.33556 1.89227
threshold=14.066950000000002 167.25164795499998 8.4799000000000024 0.25900959328181244 10.550000000000002 0.36040320429335015 10.100000000000001 11.100000000000001 -207.197143555 1.7324002175591882 -2.4253968253968248 0.25620670861801115 -0.83333333333333315 0.36799886675241095 1673.1805419900002
decision_type=2 2 2 2 2 2 2 2 2 2 2 2 2 2 2
left_child=1 5 7 4 -3 10 -7 9 -9 -2 -1 12 -4 -13 -5
right_child=2 3 11 14 -6 6 -8 8 -10 -11 -12 13 -14 -15 -16
leaf_value=0.0021514760566109393 0 -0.042285301715648871 -0.021663056180408209 0.053647576444566747 3.4763876957502051e-05 -0.0058521407998480546 0.019747979687658165 -0.023089048467925435 0.042242281759424301 -0.049834213995245763 0.03736828693741942 -0.038230439586508458 -0.070409637327693508 0.003601222888858144 0.0028384664035504908
leaf_weight=25.326483011245728 21.267255708575249 45.295501589775085 22.067137598991394 5.8405187129974347 29.861381068825722 73.858116760849953 129.27565206587315 11.344106733798982 16.69315592944622 18.858152076601982 110.47610066831112 33.038127899169922 35.566757246851921 14.921321138739584 5.846327543258667
leaf_count=109 88 187 90 25 126 316 559 47 71 77 481 135 144 61 25
internal_value=-6.50213e-06 0.0115675 -0.028558 -0.0161666 -0.0250345 0.0188474 0.0102119 -0.00827568 0.0142019 -0.0251609 0.0312298 -0.0409811 -0.0532858 -0.0243866 0.0343986
internal_weight=599.536 425.78 173.756 86.8437 75.1569 338.936 203.134 68.1627 28.0373 40.1254 135.803 105.593 57.6339 47.9594 11.6868
internal_count=2541 1828 713 363 313 1465 875 283 118 165 590 430 234 196 50
is_linear=0
shrinkage=0.05


Tree=6
num_leaves=15
num_cat=0
split_feature=2 172 169 2 177 0 110 5 114 17 173 2 151 6
split_gain=74.464 32.3989 20.8614 26.7792 13.3882 16.8892 12.6833 8.92523 9.01256 8.69716 8.36484 5.11942 4.23085 7.02348
threshold=11.683000000000002 0.10549666006626353 17.500000000000004 17.563500000000001 1.7364018732013402 7.5000000000000009 9.1666666666666696 0.86077665816992499 10.550000000000002 1.8126937588676808 1.0607195657656558 9.5690500000000025 -0.1948334642857141 0.17022360940463838
decision_type=2 2 2 2 2 2 2 2 2 2 2 2 2 2
left_child=1 7 3 6 10 -6 -2 8 -1 -5 -3 -9 -4 -14
right_child=2 4 12 9 5 -7 -8 11 -10 -11 -12 -13 13 -15
leaf_value=-0.059434264614341974 -0.02604690820451698 0.038995893354832861 -0.013350870644424157 -0.04187597470070293 0.026447278409885144 -0.0046032558218651763 0.010308383449869408 0.022329338726898074 0 -0.00065814369803212107 -0.0035719344894763571 -0.028561286590290683 -0.075427870905758226 -0.013344790394491155
leaf_weight=18.146681204438213 30.677194327116013 108.56335817277431 9.4238076806068403 72.138714626431465 93.792867392301559 76.601964697241783 96.36414609849453 13.032699987292292 11.496798947453497 18.57633750140667 10.352089256048201 6.2947064489126197 24.154431641101837 8.7515615969896299
leaf_count=74 127 475 39 294 409 333 406 54 48 76 45 26 99 36
internal_value=-4.31034e-06 0.0153593 -0.0201608 -0.0134719 0.0218103 0.0122512 0.00100416 -0.0214252 -0.0383648 -0.0340799 0.0348743 0.00270545 -0.0523114 -0.0612717
internal_weight=598.367 338.281 260.086 217.756 289.31 170.395 127.041 48.9709 29.6435 90.7151 118.915 19.3274 42.3298 32.906
internal_count=2541 1464 1077 903 1262 742 533 202 122 370 520 80 174 135
is_linear=0
shrinkage=0.05


Tree=7
num_leaves=15
num_cat=0
split_feature=2 171 169 2 118 147 180 17 118 129 27 2 11 52
split_gain=67.5203 29.9654 18.8263 23.6274 12.3049 11.5734 10.1564 7.7219 7.67459 7.96675 5.09208 9.89008 4.53808 1.14395
threshold=11.803850000000002 0.17231608704227208 17.500000000000004 17.563500000000001 7.9500000000000011 -1.1560894444444443 96.500000000000014 1.8126937588676808 9.9500000000000011 -0.51606333333333321 4.8333333333333348 14.215850000000001 0.63672716666666684 1.6833333333333336
decision_type=2 2 2 2 2 2 2 2 2 2 2 2 2 2
left_child=1 8 3 5 -3 -2 -6 -5 12 -10 13 -12 -1 -4
right_child=2 4 10 7 6 -7 -8 -9 9 -11 11 -13 -14 -15
leaf_value=-0.0052600710830229859 0.01826027614503067 -0.029936191243487498 -0.032546885598031781 -0.039620293562734603 0.018448311376446962 -0.01221463622587303 0.047720105963587028 -0.00062686200623845013 0.040812341154762545 -0.019248308184256022 0 -0.060956720678514709 -0.057430103216907051 -0.088897509562273713
leaf_weight=9.0424398332834262 54.262668684124947 9.9610930383205396 6.6372967362403896 72.481082364916801 245.78594623506069 69.888599246740341 36.887915149331093 18.578015506267548 6.9019563794136074 17.232288002967834 12.240806370973589 11.433804050087927 14.929313361644743 10.834953710436819
leaf_count=37 228 42 27 294 1077 293 164 76 29 72 51 46 61 44
internal_value=-3.74736e-05 0.0144454 -0.0194632 -0.0130909 0.0205448 0.000744964 0.0225992 -0.0323012 -0.0213027 0 -0.0505045 -0.0295016 -0.0407519 -0.0731188
internal_weight=597.098 340.741 256.357 215.21 292.635 124.151 282.674 91.0591 48.106 24.1342 41.1469 23.6746 23.9718 17.4723
internal_count=2541 1482 1059 891 1283 521 1241 370 199 101 168 97 98 71
is_linear=0
shrinkage=0.05


Tree=8
num_leaves=16
num_cat=0
split_feature=2 3 18 3 164 118 2 2 49 73 83 133 188 128 144
split_gain=61.319 28.3468 22.1434 20.5993 18.2975 14.1218 13.8183 11.7393 10.2682 7.7137 7.06836 5.73878 5.25255 3.60658 2.07676
threshold=11.683000000000002 11.13395 0.15276421488642136 6.6376500000000007 1983.0188598650002 9.3166666666666682 16.317000000000004 16.930950000000003 7.1000000000000005 0.14570802159846033 1.8333333333333337 0.20000000000000015 0.2640052073607595 -0.071291571946891022 -0.31666666666666671
decision_type=2 2 2 2 2 2 2 2 2 2 2 2 2 2 2
left_child=1 10 4 7 -3 12 -7 14 -4 -9 13 -12 -5 -1 -2
right_child=3 2 8 5 -6 6 -8 9 -10 -11 11 -13 -14 -15 -16
leaf_value=0 0.062326657819610803 0.01685601084627086 -0.042626955400687463 -0.060807102278407202 -0.029033172466657615 -0.003614695179739703 -0.033321442544363929 -0.025931782817332483 0.020423942963762487 0.030521861684933312 -0.008150056005905881 0.035334721236504399 -0.015824829513857452 0.046128282625355302 0.01865924540042074
leaf_weight=5.5968933701515189 7.1173396259546307 169.14149056375027 31.123800024390221 33.538204953074455 23.291815415024757 89.974159508943558 75.153290286660194 21.066959708929065 6.2598460167646399 6.7853455990552893 14.671308785676958 11.907517597079275 13.213729828596113 72.798401087522507 14.060752615332602
leaf_count=25 31 739 133 136 96 378 304 86 27 28 65 53 54 326 60
internal_value=-6.89708e-05 0.0139908 0.00386269 -0.0182855 0.0109218 -0.0250916 -0.0175551 0.0100406 -0.0305095 -0.00986446 0.0354465 0.0100933 -0.0497383 0.043177 0.0377376
internal_weight=595.701 334.791 229.817 260.91 192.433 211.879 165.127 49.0304 37.3836 27.8523 104.974 26.5788 46.7519 78.3953 21.1781
internal_count=2541 1464 995 1077 835 872 682 205 160 114 469 118 190 351 91
is_linear=0
shrinkage=0.05


Tree=9
num_leaves=16
num_cat=0
split_feature=2 3 3 62 2 2 4 114 188 53 9 83 46 128 186
split_gain=55.5277 26.1269 18.8678 18.8525 15.3652 15.0868 14.637 14.046 11.759 10.3726 6.61954 6.56709 5.68654 3.33179 0.873024
threshold=11.683000000000002 11.13395 9.151900000000003 0.12760515276355275 10.361100000000002 26.050000000000004 1.8192457808181641 11.100000000000001 0.2478389597613484 1.8785714285714288 2.1666666666666674 1.8333333333333337 4.9000000000000012 -0.071291571946891022 0.53540835704159739
decision_type=2 2 2 2 2 2 2 2 2 2 2 2 2 2 2
left_child=1 11 5 6 -5 7 -3 -2 9 -4 -10 13 -13 -1 -7
right_child=2 3 8 4 -6 14 -8 -9 10 -11 -12 12 -14 -15 -16
leaf_value=0 -0.0092874720405215997 0.027865845287048465 -0.051508758684709548 -0.0014847606641348612 -0.050280636461147221 -0.06872794501823902 -0.0052138351539794976 0.02918547673970447 -0.0083373406374549729 0.0030428332303101793 -0.049391279843542336 -0.0074285660755602223 0.036323880169356663 0.044542026649179896 -0.019020952369017349
leaf_weight=5.5968933701515189 57.154691785573959 87.333934009075165 60.024271205067635 71.48543156683445 20.792421281337738 6.2304557859897596 49.751458927989006 38.00614657998085 73.606469705700874 8.0540127754211408 11.650156542658804 15.481076881289484 10.999257847666739 71.685596615076065 6.4483314454555511
leaf_count=25 236 386 244 306 88 25 215 162 303 33 48 69 49 326 26
internal_value=-5.79295e-05 0.0133733 -0.0173658 0.00366174 -0.0134368 -0.000829715 0.0155476 0.00570194 -0.0285908 -0.0443806 -0.0150345 0.0341233 0.00958609 0.0416622 -0.0503414
internal_weight=594.301 333.126 261.175 229.363 92.2779 107.84 137.085 95.1608 153.335 68.0783 85.2566 103.763 26.4803 77.2825 12.6788
internal_count=2541 1464 1077 995 394 449 601 398 628 277 351 469 118 351 51
is_linear=0
shrinkage=0.05


Tree=10
num_leaves=14
num_cat=0
split_feature=2 3 189 2 110 2 154 2 72 114 126 124 176
split_gain=51.7724 32.8265 16.4424 15.9364 15.9877 14.8316 9.26604 9.84884 7.85176 7.67528 6.27053 4.51189 1.45411
threshold=16.317000000000004 12.314250000000001 0.24944656861485906 10.81535 9.8333333333333339 9.0816500000000016 0.30000000000000016 25.717950000000005 0.85552457859739628 11.900000000000002 6.0833333333333348 0.59931283333333341 2.1830463387098873
decision_type=2 2 2 2 2 2 2 2 2 2 2 2 2
left_child=1 3 5 10 -5 -3 7 9 -4 -2 -1 -9 -8
right_child=6 2 8 4 -6 -7 12 11 -10 -11 -12 -13 -14
leaf_value=0.039509311972268514 -0.019780254443676384 -0.0016089702727688964 0.048200534994173268 -0.014096628800615397 0.021618243406852533 -0.036472124209843748 -0.078155520595098171 -0.059258116910459846 0.0032989963736178699 0.017623790290562939 0 -0.0013669971042371627 -0.028087062573369272
leaf_weight=92.847530245780945 62.44240403175354 70.860984697937965 10.373781919479368 46.867283508181572 84.711827293038368 57.333237498998642 10.932423263788225 20.452975526452068 96.052426487207413 15.296450451016424 10.282089203596113 6.2035570591688147 8.1881842315196973
leaf_count=426 253 300 46 197 369 238 44 82 419 63 46 25 33
internal_value=-7.61935e-05 0.0074293 -0.00562244 0.0206568 0.00850942 -0.0177497 -0.0288273 -0.0218113 0.00854911 -0.011655 0.0354444 -0.04813 -0.0616609
internal_weight=592.845 469.329 234.62 234.709 131.579 128.194 123.516 104.395 106.426 77.7389 103.13 26.6565 19.1206
internal_count=2541 2041 1003 1038 566 538 500 423 465 316 472 107 77
is_linear=0
shrinkage=0.05


Tree=11
num_leaves=14
num_cat=0
split_feature=2 3 4 180 2 110 2 2 150 55 55 126 39
split_gain=47.1101 29.8671 15.0777 16.1813 14.741 14.5379 10.8861 7.16353 10.9623 8.68148 8.23801 5.84139 1.68346
threshold=16.317000000000004 12.314250000000001 2.2039220738224681 96.500000000000014 10.81535 9.8333333333333339 5.9853000000000014 29.234100000000002 -0.0050134554734958736 1.2742256142857145 1.2576472000000001 6.0833333333333348 1.5611378288362172
decision_type=2 2 2 2 2 2 2 2 2 2 2 2 2
left_child=1 4 6 -4 11 -6 -3 8 9 -2 -10 -1 -9
right_child=7 2 3 -5 5 -7 -8 12 10 -11 -12 -13 -14
leaf_value=0.038106374649652108 0.022782103180937197 0.03556465012117848 -0.028855220401766597 0.035612525336243761 -0.013369177704485195 0.020677185533039624 -0.001181651262075027 -0.06922792316038863 -0.066528266086053708 -0.018858733966435014 -0.019906955100681731 0 -0.021273884712989462
leaf_weight=91.523495733737946 17.724033787846565 22.671132206916809 81.378912821412086 9.5201091766357404 46.997541144490242 84.197746366262436 121.13326592743397 12.956152200698854 16.865082249045372 34.755626305937767 33.562176153063774 10.282089203596113 7.7148735374212256
leaf_count=426 72 99 341 41 197 369 522 52 68 141 136 46 31
internal_value=-8.79177e-05 0.00709141 -0.00532397 -0.0212452 0.0197805 0.0080938 0.0044718 -0.0274996 -0.0209254 -0.00369735 -0.0374619 0.0341294 -0.0554452
internal_weight=591.282 467.704 234.703 90.899 233.001 131.195 143.804 123.578 102.907 52.4797 50.4273 101.806 20.671
internal_count=2541 2041 1003 382 1038 566 621 500 417 213 204 472 83
is_linear=0
shrinkage=0.05


Tree=12
num_leaves=14
num_cat=0
split_feature=2 164 187 18 137 2 187 135 186 184 123 135 19
split_gain=43.3685 23.3411 14.1777 15.2536 13.0126 18.4512 12.2889 10.2487 9.25435 6.19809 5.91634 4.76225 4.24605
threshold=11.803850000000002 1983.0188598650002 0.36040320429335015 0.16239368962866921 2.7749999999999999 17.718250000000005 0.38563867955740033 0.45867149999999995 0.59950149199624569 31.355000000000004 -1.1666666666666663 -0.54082819999999987 1.1666666666666667
decision_type=2 2 2 2 2 2 2 2 2 2 2 2 2
left_child=1 2 10 -4 5 8 -6 -7 -2 -3 -1 -8 -11
right_child=4 9 3 -5 6 7 11 -9 -10 12 -12 -13 -14
leaf_value=0.00026589827166065212 0.011323375816504864 0.00034957128537257888 0.013771094460821224 -0.025723143385054555 0.0059096750585894446 -0.035830300460591005 -0.0021336966900267454 0.0032154085810303101 -0.020655055193945712 -0.063087297110543464 0.037205390848927759 -0.057718826676551906 -0.011232071835361554
leaf_weight=15.639246866106985 89.2770044952631 10.183259680867193 175.74669072031975 26.71656996011734 10.391090810298918 68.440269440412521 6.5455394536256781 18.976684182882309 28.649442806839943 11.532850041985514 82.395048439502716 34.613607093691826 10.626264929771422
leaf_count=72 375 42 780 116 43 276 27 77 120 47 381 141 44
internal_value=-9.7327e-05 0.0117148 0.0161799 0.00821297 -0.0155815 -0.00951813 -0.0381417 -0.0268482 0.00302565 -0.0275128 0.0318796 -0.0503254 -0.0419382
internal_weight=589.734 332.84 300.498 202.463 256.894 205.343 51.5502 87.417 117.926 32.3424 98.0343 41.1591 22.1591
internal_count=2541 1482 1349 896 1059 848 211 353 495 133 453 168 91
is_linear=0
shrinkage=0.05


Tree=13
num_leaves=14
num_cat=0
split_feature=2 148 187 2 176 169 2 144 186 178 109 18 151
split_gain=39.8051 24.5092 16.6455 15.7097 11.8912 11.6149 10.7449 9.93799 8.2283 7.34222 6.90392 1.12537 1.12118
threshold=14.171600000000003 2.2527777777777782 0.40330221107598524 6.316250000000001 1.9029223426395088 16.500000000000004 29.234100000000002 -0.39444444444444432 0.59622057557200314 -0.42694358153412354 0.35416666666666669 0.11785537203742504 -0.077017050000000017
decision_type=2 2 2 2 2 2 2 2 2 2 2 2 2
left_child=1 4 10 -4 9 6 8 -6 -2 -1 -3 -8 -7
right_child=5 2 3 -5 7 12 11 -9 -10 -11 -12 -13 -14
leaf_value=0.0040814223931537018 -0.0011466702810460827 0.046756501181682938 0.017113145999221809 -0.021475893897150627 -0.027752407892672578 -0.017869920268417865 -0.062196043353246938 0.013141533180879789 -0.030790246221928663 0.030542695388153747 -0.0030302242801351158 -0.018848074178613446 -0.064308544253539393
leaf_weight=38.306636452674866 97.994450360536575 17.712588950991634 31.824906200170517 115.73395223915577 20.520684942603111 6.1756105571985271 11.655352503061296 46.885507434606552 31.532669335603714 138.45310737192631 8.0808729827404004 7.7020101100206366 15.589996829628943
leaf_count=172 401 81 137 493 91 25 47 205 128 631 36 31 63
internal_value=-9.76114e-05 0.00813329 -0.00600973 -0.0127574 0.018362 -0.020457 -0.0147869 0 -0.0089269 0.0251446 0.0297617 -0.0491777 -0.0546924
internal_weight=588.168 417.518 173.352 147.559 244.166 170.65 148.884 67.4062 129.527 176.76 25.7935 19.3574 21.7656
internal_count=2541 1846 747 630 1099 695 607 296 529 803 117 78 88
is_linear=0
shrinkage=0.05


Tree=14
num_leaves=15
num_cat=0
split_feature=2 172 3 177 0 118 4 136 43 2 151 173 25 171
split_gain=36.7309 20.7168 17.7323 11.6982 14.7636 10.4221 9.09781 9.00867 8.92413 8.85043 8.16144 7.8444 3.94092 3.75717
threshold=11.803850000000002 0.10549666006626353 6.7166000000000006 1.7364018732013402 7.5000000000000009 9.3166666666666682 1.3069398375228045 3.2892600000000001 0.8766024 18.322900000000004 -0.1610199999999998 1.0607195657656558 6.166666666666667 0.28688543300816799
decision_type=2 2 2 2 2 2 2 2 2 2 2 2 2 2
left_child=1 6 9 11 -5 13 -1 -7 -8 12 -11 -3 -2 -4
right_child=2 3 5 4 -6 7 8 -9 -10 10 -12 -13 -14 -15
leaf_value=0.03229128239651026 0.043706053261490671 0.032792518662489882 -0.047960984814250512 0.02095766920536761 -0.0085109051753245023 -0.0071356639025268107 -0.062465004104083725 -0.035863637283684809 -0.010121914937692506 -0.046570009843402274 0.010135934296043456 -0.0083499472590386672 0 0
leaf_weight=5.9902282208204261 18.318663701415066 104.0872955173254 39.512536481022835 90.09950390458107 75.968137666583061 123.31117579340935 12.164330050349234 37.227858498692513 31.231155410408974 8.413703531026842 16.227274149656296 10.51554252207279 7.4533126503229132 6.1586033701896659
leaf_count=26 80 481 160 413 338 509 49 153 128 34 66 47 32 25
internal_value=-0.000114259 0.0108177 -0.0143559 0.0161681 0.00720765 -0.0209238 -0.0183153 -0.0142878 -0.0269971 0.0114216 -0.0083375 0.0285453 0.0317869 -0.0423729
internal_weight=586.679 330.056 256.623 280.67 166.068 206.21 49.3857 160.539 43.3955 50.413 24.641 114.603 25.772 45.6711
internal_count=2541 1482 1059 1279 751 847 203 662 177 212 100 528 112 185
is_linear=0
shrinkage=0.05


Tree=15
num_leaves=14
num_cat=0
split_feature=2 3 2 110 16 2 18 154 2 6 83 124 178
split_gain=34.3151 24.5489 12.7196 12.5619 12.441 20.1139 10.7074 7.66688 7.66565 7.60583 4.96132 3.96734 0.90534
threshold=16.317000000000004 12.314250000000001 10.81535 9.8333333333333339 5.8333333333333348 6.316250000000001 0.15433469515302453 0.30000000000000016 25.717950000000005 0.13436742128334681 2.1666666666666674 0.59931283333333341 0.18297457211170146
decision_type=2 2 2 2 2 2 2 2 2 2 2 2 2
left_child=1 2 10 -4 6 -6 -3 8 9 -2 -1 -10 -9
right_child=7 4 3 -5 5 -7 -8 12 11 -11 -12 -13 -14
leaf_value=0.035967634861605806 -0.018825948010661731 0.024128787483290087 -0.013055420737841409 0.018717864395907721 0.019589953461349067 -0.020676392278777458 -0.035848248433617419 -0.065771136299692862 -0.050760647634210232 0.013874970111781305 0.00057642012081608848 0 -0.021007263817389835
leaf_weight=84.151096612215042 54.357613295316696 48.296898931264877 46.850642070174217 82.829871535301208 37.707851976156235 139.93240118026733 7.2713185399770728 11.847192436456682 20.277808710932735 23.648707449436188 14.528380960226057 6.2034759968519202 7.089966654777526
leaf_count=404 220 215 197 369 164 593 31 48 82 96 68 25 29
internal_value=-0.00012401 0.00606032 0.0177278 0.00684422 -0.00517798 -0.0117873 0.0149017 -0.0235161 -0.0171685 -0.00822921 0.0313167 -0.0404239 -0.053414
internal_weight=584.993 461.568 228.36 129.681 233.208 177.64 55.5682 123.425 104.488 78.0063 98.6795 26.4813 18.9372
internal_count=2541 2041 1038 566 1003 757 246 500 423 316 472 107 77
is_linear=0
shrinkage=0.05


Tree=16
num_leaves=12
num_cat=0
split_feature=180 118 114 62 171 21 26 24 7 140 152
split_gain=27.7159 20.9358 12.5125 10.2161 9.51929 7.39836 6.29614 6.53959 5.92355 5.05186 0.968095
threshold=96.500000000000014 7.9500000000000011 10.450000000000001 0.13223489889349635 0.2095418110539396 1.5769830000000002 16.835050000000006 3.5833333333333335 0.16992076601877448 -0.31815779999999999 -0.094513849999999774
decision_type=2 2 2 2 2 2 2 2 2 2 2
left_child=1 5 4 -4 -3 10 8 -8 9 -2 -1
right_child=6 2 3 -5 -6 -7 7 -9 -10 -11 -12
leaf_value=-0.031800221432892045 0.01308508947340188 -0.028347218764555884 0.01095655349258403 -0.011031053332597773 -0.0041795219852655864 0 0.034058573110828626 -0.033121026462269706 0 0.060256927623215932 -0.087824555142758068
leaf_weight=6.7904942333698282 11.712624594569201 55.691899076104164 208.06986263394356 67.801732987165451 171.7854185551405 6.0638984441757193 6.2310072481632215 6.2571406662464142 7.3527333140373221 27.19845320284367 8.3177669942378998
leaf_count=28 53 229 922 293 743 25 28 28 33 125 34
internal_value=-0.000127431 -0.0038811 -0.00168036 0.00535168 -0.0104134 -0.0515111 0.0320516 0 0.0403952 0.0479941 -0.0692855
internal_weight=583.273 524.521 503.349 275.872 227.477 21.1722 58.752 12.4881 46.2638 38.9111 15.1083
internal_count=2541 2274 2187 1215 972 87 267 56 211 178 62
is_linear=0
shrinkage=0.05


Tree=17
num_leaves=14
num_cat=0
split_feature=2 3 2 110 4 141 2 154 5 125 17 129 176
split_gain=31.276 21.7157 11.6833 11.6479 11.1808 14.3298 8.92697 6.97813 8.9757 6.44559 6.40481 4.10633 1.84353
threshold=16.317000000000004 12.314250000000001 10.645000000000001 9.8333333333333339 2.2039220738224681 0.45942462999999994 5.9853000000000014 0.30000000000000016 1.9870661809109149 1.8943999999999985 1.8126937588676808 0.6625538333333334 2.1830463387098873
decision_type=2 2 2 2 2 2 2 2 2 2 2 2 2
left_child=1 2 11 -4 6 -6 -3 8 9 -2 -10 -1 -9
right_child=7 4 3 -5 5 -7 -8 12 10 -11 -12 -13 -14
leaf_value=0.033446287917118595 0.0053929600466798774 0.032391574685048434 -0.012202709677270791 0.018065792620233747 -0.024634713757459056 0.044292670803996112 -0.0013281405062312195 -0.067129464301517838 -0.04485399535994699 -0.027797339757178713 0.0004397946249598969 0 -0.018960587666010786
leaf_weight=86.637098625302315 45.820567056536674 21.956980407238007 48.088991925120354 83.802382484078407 84.020720630884171 6.8919442743062964 120.1467073559761 10.815693810582163 31.668142542243004 19.481826663017273 7.4132110178470603 7.7782244980335227 7.9977588504552832
leaf_count=422 186 99 202 377 353 29 522 44 128 79 30 37 33
internal_value=-0.000132852 0.00578876 0.0168358 0.00664455 -0.00475263 -0.0184404 0.00372257 -0.0224821 -0.0164013 -0.00402457 -0.0352183 0.0303294 -0.0511664
internal_weight=582.52 459.323 226.307 131.891 233.016 90.9127 142.104 123.197 104.384 65.3024 39.0814 94.4153 18.8135
internal_count=2541 2041 1038 579 1003 382 621 500 423 265 158 459 77
is_linear=0
shrinkage=0.05


Tree=18
num_leaves=15
num_cat=0
split_feature=2 164 3 4 22 68 118 1 59 127 184 47 46 25
split_gain=28.6005 17.1655 15.7055 10.9022 11.3825 10.8735 8.69043 8.16183 7.92866 7.60156 5.32338 4.83348 4.02128 3.50436
threshold=11.803850000000002 1983.0188598650002 6.7166000000000006 1.8192457808181641 1.4448866666666669 4.878571428571429 9.3166666666666682 9.5000000000000018 10.201148333333336 -0.33129670921092186 31.355000000000004 5.366666666666668 4.7333333333333343 6.5833333333333348
decision_type=2 2 2 2 2 2 2 2 2 2 2 2 2 2
left_child=1 3 7 4 -1 -5 13 11 -8 -9 -3 -2 -12 -4
right_child=2 10 6 5 -6 -7 8 9 -10 -11 12 -13 -14 -15
leaf_value=0.038028162923393338 0.051757660917617632 0.0017483889706955613 -0.044340813505061874 -0.0043855787649301403 0.01085161373436952 0.041405512103181857 -0.037207887998498695 -0.031786501107792284 -0.0071217889350195561 0.018469215566686951 -0.049636938183253446 0 0 0
leaf_weight=65.473711162805557 13.411872059106829 10.133681967854498 38.611368000507355 100.55725672841072 112.94152539968491 13.785661563277243 27.458502247929573 13.716418206691744 132.722441598773 13.474877610802649 16.204021945595745 9.390431270003317 6.060418337583541 6.9154631644487372
leaf_count=308 58 42 157 449 527 65 113 57 549 57 66 40 25 28
internal_value=-0.000132531 0.00960671 -0.0127012 0.0135525 0.0212597 0.00101281 -0.0188891 0.0116508 -0.0127883 -0.00533653 -0.0238892 0.0333816 -0.0372809 -0.0385432
internal_weight=580.858 325.156 255.701 292.758 178.415 114.343 205.708 49.9936 160.181 27.1913 32.3981 22.8023 22.2644 45.5268
internal_count=2541 1482 1059 1349 835 514 847 212 662 114 133 98 91 185
is_linear=0
shrinkage=0.05


Tree=19
num_leaves=10
num_cat=0
split_feature=180 118 114 62 171 21 18 25 186
split_gain=24.5744 18.1178 10.6277 9.7042 9.49638 6.70932 6.56814 4.01144 2.56147
threshold=96.500000000000014 7.9500000000000011 10.775000000000002 0.13223489889349635 0.2095418110539396 1.5769830000000002 0.15276421488642136 3.1666666666666674 0.6238399798521751
decision_type=2 2 2 2 2 2 2 2 2
left_child=1 5 4 -4 -3 -1 7 -2 -9
right_child=6 2 3 -5 -6 -7 -8 8 -10
leaf_value=-0.064926239448547987 0 -0.025480346002521442 0.011847267192070075 -0.010640303449018923 -0.0029056777204357707 0 -0.0025449691336399197 0.049388578522398939 0.0049281489497890012
leaf_weight=15.076375141739847 6.727949231863021 63.218137890100479 179.30668544769287 62.3427964001894 195.70283578336239 6.0427959859371176 9.5782720446586591 34.699450716376305 6.6687720715999594
leaf_count=62 30 261 803 270 853 25 43 164 30
internal_value=-0.000120338 -0.00364989 -0.00158642 0.00581973 -0.0086867 -0.0480154 0.0304719 0.0379835 0.0436869
internal_weight=579.364 521.69 500.57 241.649 258.921 21.1192 57.6744 48.0962 41.3682
internal_count=2541 2274 2187 1073 1114 87 267 224 194
is_linear=0
shrinkage=0.05


Tree=20
num_leaves=13
num_cat=0
split_feature=2 118 148 187 182 4 127 6 155 122 106 69
split_gain=27.109 18.5832 13.7988 13.2199 10.7995 6.52109 8.02691 6.6131 9.88343 6.91537 4.98867 0.786011
threshold=16.317000000000004 7.9500000000000011 2.2527777777777782 0.40330221107598524 1.5000000000000002 0.4201492755673823 -0.35185962496325335 0.14533623344808186 0.29285714285714287 -1.2499999999999996 0.15476190476190479 4.7250000000000005
decision_type=2 2 2 2 2 2 2 2 2 2 2 2
left_child=1 10 4 -4 -3 6 -2 9 -9 -7 -1 -12
right_child=5 2 3 -5 -6 7 -8 8 -10 -11 11 -13
leaf_value=0 -0.019168318402114821 0.017084366521635034 0.028657515049852457 -0.0096150097903370691 -0.028494006406321045 0.00015278619251454751 0.045601194040654075 0.024723889738316365 -0.027759402338042968 -0.04058120806788991 -0.072880103647914446 -0.022973624686496837
leaf_weight=6.5188201367855099 10.338943079113962 256.68806575238705 25.503925532102585 140.99246956408024 12.014183863997458 9.5915478169918043 6.8674354106187812 13.526466414332388 21.040292546153069 61.471460416913033 7.3111766725778562 6.6419014632701874
leaf_count=27 42 1179 119 606 52 39 28 55 86 250 30 28
internal_value=-0.000120949 0.00541904 0.00773934 -0.00331782 0.014763 -0.0209536 0.0050211 -0.025661 -0.00569843 -0.0344636 -0.0396412 -0.0555927
internal_weight=578.507 455.671 435.199 166.496 268.702 122.836 17.2064 105.63 34.5668 71.063 20.4719 13.9531
internal_count=2541 2041 1956 725 1231 500 70 430 141 289 85 58
is_linear=0
shrinkage=0.05


Tree=21
num_leaves=15
num_cat=0
split_feature=2 3 62 2 110 180 15 3 25 165 185 141 125 52
split_gain=24.8419 15.188 14.5085 15.239 17.8194 9.44551 9.72489 7.37114 8.46565 5.95461 4.66586 4.4659 4.38936 3.42681
threshold=9.9226500000000026 11.508600000000003 0.13135322982907122 25.717950000000005 11.583333333333334 96.500000000000014 11.170283333333336 9.0678500000000017 7.166666666666667 1921.0842285200001 0.64690322564726133 0.27060959999999995 9.1751500000000039 0.95000000000000007
decision_type=2 2 2 2 2 2 2 2 2 2 2 2 2 2
left_child=1 10 3 4 -2 6 -3 9 -9 -4 12 -7 -1 -5
right_child=2 5 7 13 -6 11 -8 8 -10 -11 -12 -13 -14 -15
leaf_value=0.041193677923077689 -0.0078660595064548432 -0.012685195743000097 0.015054651381133821 -0.0001061245440703898 0.02074100038790784 0.052557421400031237 0.014855171431255382 -0.039623152489990904 0.012630184367055536 -0.033651938563682336 0 0 0 -0.050674070032476815
leaf_weight=55.644600972533226 159.95852912962437 76.499905690550804 16.897970423102382 6.592288330197337 80.79638671875 12.198297381401064 53.223971918225288 61.592485532164574 6.7962290644645682 8.5635650902986509 8.8630211949348432 5.9391220062971106 6.0754199326038352 17.385993167757988
leaf_count=283 681 332 72 27 358 58 239 256 28 36 43 27 30 71
internal_value=-0.000128823 0.0130404 -0.00830433 -0.00207753 0.00157362 0.00348064 -0.000976066 -0.0251347 -0.0336026 -9.01233e-05 0.0320397 0.0363543 0.0368455 -0.0393341
internal_weight=577.028 218.444 358.583 264.733 240.755 147.861 129.724 93.8503 68.3887 25.4615 70.583 18.1374 61.72 23.9783
internal_count=2541 1012 1529 1137 1039 656 571 392 284 108 356 85 313 98
is_linear=0
shrinkage=0.05


Tree=22
num_leaves=14
num_cat=0
split_feature=2 118 3 2 40 135 6 62 37 176 61 69 136
split_gain=23.1981 18.6508 13.7128 9.53972 8.93398 6.8142 6.29196 7.17985 6.11472 5.73646 5.61331 3.82199 3.72085
threshold=17.718250000000005 8.5500000000000025 12.314250000000001 6.316250000000001 0.18530322968795848 0.45867149999999995 0.16212537826504556 0.12667911728252332 18.050500000000003 1.7364018732013402 1.709099544305354 4.6833333333333345 -1.8206499999999985
decision_type=2 2 2 2 2 2 2 2 2 2 2 2 2
left_child=1 10 4 -4 -3 8 7 -7 9 -2 12 -12 -1
right_child=5 2 3 -5 -6 6 -8 -9 -10 -11 11 -13 -14
leaf_value=-0.022986403820466499 -0.016034628858606223 0.018148251753675067 0.019876827996197242 -0.0067315118449573419 -0.03458898754459068 0.012001706567022903 0.036976723172852062 -0.049600840153319392 0 -0.050181945602856742 -0.055927491059579719 -0.013395338194185154 0.028861654362223002
leaf_weight=6.0350416600704193 29.729546308517456 216.36471296846867 40.51497109234333 172.00686597824097 6.8125183731317511 7.8832056075334567 7.3306700736284247 7.5396591871976852 11.524744674563406 33.830215603113174 15.543799027800562 14.662481740117071 5.7047095447778684
leaf_count=26 121 1013 182 741 30 32 30 31 47 138 64 61 25
internal_value=-0.000117318 0.00434955 0.00752269 -0.00135542 0.0161683 -0.0222538 0 -0.0162554 -0.0294489 -0.0354801 -0.0268537 -0.037975 0
internal_weight=575.483 477.645 435.699 212.522 223.177 97.838 22.7535 15.4229 75.0845 63.5598 41.946 30.2063 11.7398
internal_count=2541 2142 1966 923 1043 399 93 63 306 259 176 125 51
is_linear=0
shrinkage=0.05


Tree=23
num_leaves=16
num_cat=0
split_feature=2 126 114 62 2 150 176 68 135 187 147 180 17 102 124
split_gain=21.8768 13.4101 12.8678 12.4351 11.8699 11.2106 9.14416 8.84546 10.0262 8.90641 8.59648 7.29427 5.95653 5.90049 5.1128
threshold=9.9226500000000026 3.4166666666666674 9.6333333333333346 0.13135322982907122 17.233050000000002 -0.029452811343273388 1.9029223426395088 3.5277777777777781 0.5254397999999999 0.59993742210288159 -0.18495944444444487 58.900000000000006 2.2038154159672554 1.5857142857142861 -0.79537883333333348
decision_type=2 2 2 2 2 2 2 2 2 2 2 2 2 2 2
left_child=1 5 6 4 -4 14 13 9 -9 -3 -5 -8 -7 -2 -1
right_child=2 7 3 10 -6 12 11 8 -10 -11 -12 -13 -14 -15 -16
leaf_value=-0.047781081820117706 0.0099404891022834979 0.0037260911666450579 0.013987542468314891 0 -0.01281470434002467 0.033512737069526781 0 0.039541106203802072 -0.0069483566515706656 -0.037558984295812198 -0.037666041385641266 -0.044820837091923173 0 -0.021429963162974214 0.0040894674300446269
leaf_weight=5.8528427630662945 26.533352360129356 22.255025401711464 125.42303191125393 25.328460901975632 58.840343490242958 93.285507634282112 14.052399531006811 19.510281652212143 22.893576219677925 24.715578258037567 32.795801043510437 45.284622058272362 17.440985679626465 29.223972901701927 10.512323275208471
leaf_count=28 112 101 563 107 240 456 58 92 99 104 137 188 81 124 51
internal_value=-0.00012662 0.0122963 -0.00780187 -0.00102373 0.00513599 0.0227045 -0.0215141 -0.00203844 0.013708 -0.0172856 -0.0211533 -0.0351967 0.0285394 -0.00570858 -0.0132655
internal_weight=573.948 216.466 357.482 242.388 184.263 127.092 115.094 89.3745 42.4039 46.9706 58.1243 59.337 110.726 55.7573 16.3652
internal_count=2541 1012 1529 1047 803 616 482 396 191 205 244 246 537 236 79
is_linear=0
shrinkage=0.05


Tree=24
num_leaves=12
num_cat=0
split_feature=180 2 3 3 114 73 115 155 18 180 84
split_gain=20.663 17.6198 13.6415 8.75908 8.75157 7.18414 6.88489 6.5825 5.81174 3.19149 7.1397
threshold=96.500000000000014 14.066950000000002 11.302150000000003 6.7166000000000006 10.775000000000002 0.14570802159846033 1.9000000000000001 0.29285714285714287 0.15276421488642136 102.2 1.5000000000000002
decision_type=2 2 2 2 2 2 2 2 2 2 2
left_child=1 2 6 5 -4 -3 -1 -5 9 -2 -11
right_child=8 3 4 7 -6 -7 -8 -9 -10 10 -12
leaf_value=0.0060244460085322211 0.051274665093547514 -0.0078095380369865783 -0.012943977517856545 -0.0081804289860364435 0.0061524059899952591 0.041708181413353897 0.03173615582387531 -0.033351674349692571 -0.0025072967215835919 0.038743156738461799 -0.012177654312144147
leaf_weight=73.997540056705475 21.450923204421997 28.646644175052643 128.81272193789482 51.094193339347839 106.81235185265541 8.480765372514723 45.973928585648537 72.489445641636848 9.4740198701620084 16.070020839571956 8.9347430765628797
leaf_count=353 108 120 555 209 480 36 223 298 43 76 40
internal_value=-0.000126266 -0.00335902 0.00273587 -0.0170876 -0.00408658 0.00298732 0.0164716 -0.0234955 0.028373 0.0356444 0.0188567
internal_weight=572.237 516.308 355.597 160.711 235.625 37.1274 119.971 123.584 55.9297 46.4557 25.0048
internal_count=2541 2274 1611 663 1035 156 576 507 267 224 116
is_linear=0
shrinkage=0.05


Tree=25
num_leaves=12
num_cat=0
split_feature=180 118 82 185 62 21 26 24 7 140 152
split_gain=18.8679 13.1499 8.76805 10.0792 8.02946 5.97501 5.64797 5.9477 5.57299 5.20814 1.29105
threshold=96.500000000000014 7.9500000000000011 1.0000000180025095e-35 0.63995822029316651 0.13223489889349635 1.5769830000000002 16.835050000000006 3.5833333333333335 0.16992076601877448 -0.31815779999999999 -0.094513849999999774
decision_type=2 2 2 2 2 2 2 2 2 2 2
left_child=1 5 4 -4 -3 10 8 -8 9 -2 -1
right_child=6 2 3 -5 -6 -7 7 -9 -10 -11 -12
leaf_value=-0.022523690627859361 0.008110065967073931 -0.0026920433115592644 0.0090713271603597868 -0.015098207734051131 -0.024631133734493965 0 0.030098096919210254 -0.034858289934886433 0 0.05603443381498964 -0.075094593903481638
leaf_weight=6.7356126755476007 11.096633762121195 158.90098965167999 225.42325283586979 51.176849752664566 59.133522301912308 6.0097130984067908 5.9012968838214857 6.0919189751148224 7.0411030799150458 25.180817052721981 8.1127733588218689
leaf_count=28 53 707 1005 220 255 25 28 28 33 125 34
internal_value=-0.000104911 -0.00318792 -0.00140312 0.00438106 -0.00895574 -0.0412251 0.0272864 0 0.0355617 0.0433273 -0.0573279
internal_weight=570.804 515.493 494.635 276.6 218.035 20.8581 55.3118 11.9932 43.3186 36.2775 14.8484
internal_count=2541 2274 2187 1225 962 87 267 56 211 178 62
is_linear=0
shrinkage=0.05


Tree=26
num_leaves=16
num_cat=0
split_feature=2 3 189 48 177 159 60 1 115 7 15 127 44 75 62
split_gain=19.01 13.1433 12.333 9.59804 11.5732 7.57071 7.52039 7.36246 7.19122 8.28579 6.05165 6.01909 5.62653 5.10708 4.71129
threshold=11.803850000000002 6.6376500000000007 0.357510870770752 12.726290000000002 2.4228893362369379 10.500000000000002 5.5277777777777786 9.5000000000000018 2.7750000000000004 0.18282213816419243 12.923400000000003 -0.33129670921092186 1.4042176000000002 0.41666666666666669 0.13067625026439331
decision_type=2 2 2 2 2 2 2 2 2 2 2 2 2 2 2
left_child=2 7 3 4 -1 -5 10 12 9 -3 -4 -9 -2 -8 -10
right_child=1 8 6 5 -6 -7 13 11 14 -11 -12 -13 -14 -15 -16
leaf_value=0.021402335349305097 0 -0.013938572480518843 -0.021013590671904867 -0.011141293737987681 -0.045334139253984586 0.019271296827690795 0.044025358602223202 -0.027496442087065448 0.043150469768608382 -0.045576536427971631 0.02031756799076713 0.01824149249950343 0.053568057151463878 0.0065996200262105524 -0.0075617876268558861
leaf_weight=73.681305021047592 8.3723309040069598 166.2098483890295 13.074430048465727 123.18726690113544 5.7612078338861457 22.613015234470367 40.764900371432304 13.393563061952593 7.1093633323907834 25.50315423309803 21.41542974114418 12.586432218551634 12.868801847100256 16.495562136173248 7.0283842980861664
leaf_count=340 36 690 67 553 25 102 206 56 30 107 107 54 57 82 29
internal_value=-0.000111509 -0.010394 0.00794715 0.00138474 0.0154376 -0.00598468 0.0233299 0.0126201 -0.0159505 -0.0186214 0.00309025 -0.00362991 0.0340132 0.0344003 0.0158025
internal_weight=570.065 253.072 316.993 225.243 79.4425 145.8 91.7503 47.2211 205.851 191.713 34.4899 25.98 21.2411 57.2605 14.1377
internal_count=2541 1059 1482 1020 365 655 462 203 856 797 174 110 93 288 59
is_linear=0
shrinkage=0.05


Tree=27
num_leaves=11
num_cat=0
split_feature=180 118 68 82 21 18 15 13 152 152
split_gain=17.018 11.9559 8.14871 7.70627 5.57022 5.50454 5.43454 3.93011 1.93873 1.16851
threshold=96.500000000000014 7.9500000000000011 2.3166666666666669 1.0000000180025095e-35 1.5769830000000002 0.15276421488642136 11.283983333333335 6.166666666666667 0.37492324999999999 -0.094513849999999774
decision_type=2 2 2 2 2 2 2 2 2 2
left_child=1 4 6 -4 9 7 -3 8 -2 -1
right_child=5 2 3 -5 -6 -7 -8 -9 -10 -11
leaf_value=-0.021312317974010078 0.045976001640167283 -0.056485703152823287 -0.0071286730543672645 0.0057067984392813517 0 -0.003992852238079248 -0.0011857596808832168 0 0.0042059438426434361 -0.072295908613186549
leaf_weight=6.712787628173829 30.233645901083946 9.9016969352960604 207.39621472358704 265.38174496591091 5.992722123861312 9.3598249405622465 10.88826549053192 8.6665467321872693 6.2884155660867682 8.0035241097211838
leaf_count=28 152 42 916 1180 25 43 49 42 30 34
internal_value=-8.80898e-05 -0.00300967 -0.00130475 0 -0.0394087 0.0261145 -0.0312018 0.0333845 0.0404203 -0.0550572
internal_weight=568.825 514.277 493.568 472.778 20.709 54.5484 20.79 45.1886 36.5221 14.7163
internal_count=2541 2274 2187 2096 87 267 91 224 182 62
is_linear=0
shrinkage=0.05


Tree=28
num_leaves=10
num_cat=0
split_feature=114 35 3 99 83 171 128 36 14
split_gain=12.7328 9.36544 10.6869 11.4155 9.74748 8.3598 8.14685 8.61171 5.84973
threshold=9.6333333333333346 8.1000000000000014 9.151900000000003 0.31666666666666671 2.1666666666666674 0.29255768543639443 0.046072405162058863 4.366666666666668 2.8333333333333335
decision_type=2 2 2 2 2 2 2 2 2
left_child=5 2 4 -4 -2 6 8 -8 -1
right_child=1 -3 3 -5 -6 -7 7 -9 -10
leaf_value=0.029936044249064084 0.02437246381129967 0.054945341869875902 0.0096939993177241335 -0.010877638798934679 -0.0088456270841464641 0.033022970595944001 0.0039554129320524397 -0.052791256790594793 -0.011236467804435777
leaf_weight=7.7131521999835959 87.759031817317009 8.2382072210311872 117.26126575469971 153.58324564993382 26.234552085399628 8.4617297947406751 6.9747335910797146 22.47418001294136 129.48088191449642
leaf_count=34 413 36 538 678 117 39 31 95 560
internal_value=-9.77732e-05 0.00480843 0.00346594 -0.00178439 0.0162824 -0.01136 -0.0140954 -0.0380207 -0.00836003
internal_weight=568.181 393.076 384.838 270.845 113.994 175.105 166.643 29.4489 137.194
internal_count=2541 1782 1746 1216 530 759 720 126 594
is_linear=0
shrinkage=0.05


Tree=29
num_leaves=15
num_cat=0
split_feature=2 136 176 2 3 70 150 138 4 186 185 185 151 126
split_gain=18.0433 13.208 11.4519 13.3044 11.1846 11.135 7.71797 10.7549 7.24349 6.63057 5.54311 4.04897 3.79232 3.06869
threshold=9.9226500000000026 3.2892600000000001 1.9029223426395088 26.050000000000004 11.508600000000003 12.404470000000002 -0.030415411309607367 0.8847008524928246 2.2949161841534074 0.54252583362025808 0.51344514512495631 0.64690322564726133 -0.18517564444444432 4.3333333333333357
decision_type=2 2 2 2 2 2 2 2 2 2 2 2 2 2
left_child=4 2 3 -2 11 -4 9 -8 10 -6 -3 12 -1 -10
right_child=1 8 5 -5 6 -7 7 -9 13 -11 -12 -13 -14 -15
leaf_value=0.011608148494475343 0.01018054296201017 0.0050567615366516787 -0.00031388587027288069 -0.034894644268508128 0 -0.035317620566452532 0.019133452746471418 -0.0093991242255450289 -0.068897041743348611 -0.062230848383380812 -0.02560108495818475 0 0.043022648712748877 -0.014640017142468757
leaf_weight=20.939564049243927 163.37982434034348 19.207172021269798 56.778743997216225 16.858553141355515 7.5103567987680417 40.513812050223351 78.641263008117676 52.99966387450695 11.887371689081194 6.8141228258609772 38.689713582396507 8.6786633133888227 37.130190536379814 7.5231407284736624
leaf_count=112 721 83 238 70 34 170 365 226 50 31 165 43 201 32
internal_value=-7.17983e-05 -0.00705544 -0.00173768 0.00551929 0.0113225 -0.0156096 0.00311851 0.0072848 -0.0252415 -0.0298835 -0.0146683 0.0282141 0.0329295 -0.0520654
internal_weight=567.552 354.838 277.531 180.238 212.714 97.2926 145.965 131.641 77.3074 14.3245 57.8969 66.7484 58.0698 19.4105
internal_count=2541 1529 1199 791 1012 408 656 591 330 65 248 356 313 82
is_linear=0
shrinkage=0.05


Tree=30
num_leaves=13
num_cat=0
split_feature=180 114 171 154 174 23 144 50 26 24 7 140
split_gain=15.501 10.8122 7.93809 9.79765 7.88896 6.19376 8.672 8.06481 5.05646 5.24911 5.18936 5.00893
threshold=96.500000000000014 10.450000000000001 0.21072761792734476 1.4214285714285719 0.47509297318457633 17.500000000000004 0.29999999999999993 1.928358906321227 16.835050000000006 3.5833333333333335 0.16992076601877448 -0.31815779999999999
decision_type=2 2 2 2 2 2 2 2 2 2 2 2
left_child=1 2 4 -4 -1 7 -7 -3 10 -10 11 -2
right_child=8 5 3 -5 -6 6 -8 -9 9 -11 -12 -13
leaf_value=0.01892365942682258 0.0063066203437332977 0.002434888195926771 -0.0074537382723075737 0.044103775853779975 -0.030783890797689561 -0.060885912632619603 0.0054867258085735384 0.030020899220564029 0.027949809660880322 -0.033246490986455927 0 0.053646954907420143
leaf_weight=7.1479753553867331 10.87421672046184 221.4868950843811 166.28765231370926 8.569554537534712 62.688368186354637 7.5797018557786968 8.4220056384801847 30.144859328866005 5.7468071132898313 6.1039589196443558 6.9381077736616126 24.080663502216343
leaf_count=30 53 1009 730 38 261 33 37 136 28 28 33 125
internal_value=-8.91918e-05 -0.00287382 -0.010506 -0.00440622 -0.024795 0.00393116 -0.0247438 0.00604329 0.0251103 0 0.0331579 0.0408953
internal_weight=566.071 512.327 244.694 174.857 69.8363 267.633 16.0017 251.632 53.7438 11.8508 41.893 34.9549
internal_count=2541 2274 1059 768 291 1215 70 1145 267 56 211 178
is_linear=0
shrinkage=0.05


Tree=31
num_leaves=13
num_cat=0
split_feature=2 118 3 2 40 135 164 37 176 186 106 70
split_gain=17.1206 12.4739 10.2276 7.83562 7.07174 6.41912 7.27088 5.7029 4.86215 4.44027 4.21641 1.24439
threshold=17.718250000000005 7.9500000000000011 12.314250000000001 6.0477500000000006 0.18530322968795848 0.45867149999999995 1738.6306152350003 18.050500000000003 1.7364018732013402 0.57904167731580669 0.15476190476190479 12.718645
decision_type=2 2 2 2 2 2 2 2 2 2 2 2
left_child=1 10 4 -4 -3 7 -7 8 -2 -8 -1 -12
right_child=5 2 3 -5 -6 6 9 -9 -10 -11 11 -13
leaf_value=0 -0.014106770797720342 0.015033895071639028 0.01882642818922375 -0.0060569612116524929 -0.031815818761215024 0.039388578013596104 -0.043564141743069336 0.002210346388440108 -0.045887948976044868 0.0048714433918908432 -0.013915585549401433 -0.061574607199489144
leaf_weight=6.6443849503994015 29.514094412326813 217.56923848390579 36.667843416333199 186.07989831268787 6.7966226339340201 8.0586565434932727 6.9732803702354413 11.432996138930319 33.281457483768463 7.5011101514101028 6.3376824408769599 8.3844568729400617
leaf_count=28 121 1046 167 808 30 33 29 47 138 31 27 36
internal_value=-5.99889e-05 0.00381537 0.00572155 -0.00167146 0.013258 -0.0191814 0.00216169 -0.0262677 -0.0321897 -0.0165394 -0.0323102 -0.0464283
internal_weight=565.242 468.48 447.114 222.748 224.366 96.7616 22.533 74.2285 62.7956 14.4744 21.3665 14.7221
internal_count=2541 2142 2051 975 1076 399 93 306 259 60 91 63
is_linear=0
shrinkage=0.05


Tree=32
num_leaves=16
num_cat=0
split_feature=2 86 73 62 2 110 46 147 92 115 6 124 162 6 46
split_gain=15.7924 10.7672 9.82163 9.73598 10.7232 13.134 9.64622 7.69812 10.5298 7.13048 6.65929 6.32456 5.46455 4.29403 3.54994
threshold=9.9226500000000026 1.3666666666666669 0.12378958529313071 0.13135322982907122 25.717950000000005 11.583333333333334 4.7333333333333343 -0.29534999999999995 2.1000000000000005 1.9000000000000001 0.18395558097867651 0.0079383333333329937 2.9750000000000005 0.073960104482154301 6.1000000000000005
decision_type=2 2 2 2 2 2 2 2 2 2 2 2 2 2 2
left_child=1 2 12 4 5 -2 9 8 -5 -3 -9 -4 -1 -6 -8
right_child=3 6 11 7 13 -7 14 10 -10 -11 -12 -13 -14 -15 -16
leaf_value=0.050925226915541189 -0.0064475277194060328 -0.013242051580860621 -0.017605294112210061 0.01121486772841686 0 0.01835369459757745 0.036181348486942398 -0.040827488771527268 -0.045755641883648647 0.015969161000551256 0.0010310636632879274 0.032758798331296156 0.013514646868662668 -0.045124857107131155 0
leaf_weight=31.672775879502296 158.28693382441998 77.237116068601608 17.128907755017284 30.089142709970474 5.9608527421951321 78.668112337589264 22.216837510466579 43.975256815552711 9.8141471594572049 26.388038083910942 9.0878548920154554 8.497755214571951 21.478667825460434 17.390230640769005 5.8840674906969062
leaf_count=164 681 352 84 129 25 358 109 184 41 125 38 43 107 73 28
internal_value=-7.25821e-05 0.010649 0.0251902 -0.00661438 -0.00142101 0.00161878 0.00145163 -0.0204538 -0.00235061 -0.00524402 -0.0328473 0 0.0372596 -0.0331203 0.0271925
internal_weight=563.777 210.504 78.7781 353.273 260.306 236.955 131.726 92.9664 39.9033 103.625 53.0631 25.6267 53.1514 23.3511 28.1009
internal_count=2541 1012 398 1529 1137 1039 614 392 170 477 222 127 271 98 137
is_linear=0
shrinkage=0.05


Tree=33
num_leaves=15
num_cat=0
split_feature=2 118 180 4 29 135 164 3 1 3 59 186 152 151
split_gain=14.6316 11.1711 9.046 10.345 6.88514 5.86718 6.52032 5.03447 5.78628 4.87793 4.6103 4.04506 3.56831 3.5649
threshold=17.718250000000005 8.5500000000000025 96.500000000000014 2.2370065203867848 0.13336391288331101 0.45867149999999995 1738.6306152350003 8.3991500000000006 9.5000000000000018 17.537450000000003 12.184657142857143 0.57904167731580669 -0.047912092857142922 0.4214995999999997
decision_type=2 2 2 2 2 2 2 2 2 2 2 2 2 2
left_child=1 10 3 -3 -4 7 -7 8 -2 -9 13 -8 -12 -1
right_child=5 2 4 -5 -6 6 11 9 -10 -11 12 -13 -14 -15
leaf_value=-0.047692621798111574 0.012619759726078268 0.0085094860051613003 0.039569620300634885 -0.0098152699403822007 -0.0010053341987507271 0.037932834081871841 -0.041098027560531103 -0.044445667594985153 -0.026700993104833301 0 0.021043083358893669 0.0051597597438585085 -0.02061806039503089 0
leaf_weight=15.986090272665026 14.913482084870337 278.05608911812305 31.542783543467522 103.49194687604904 11.895851522684096 8.0225786864757556 6.9116828739643079 33.3146111369133 18.912222310900688 6.6703655272722235 8.2398877590894717 7.4862985908985138 10.360159844160078 6.4786091893911353
leaf_count=68 61 1284 169 455 58 33 29 139 78 28 36 31 45 27
internal_value=-5.42991e-05 0.00353026 0.00604185 0.00339567 0.0275603 -0.0177865 0.00259963 -0.0245992 -0.0080645 -0.0368289 -0.0207997 -0.0150258 0 -0.0355915
internal_weight=562.283 466.051 424.987 381.548 43.4386 96.2312 22.4206 73.8107 33.8257 39.985 41.0647 14.398 18.6 22.4647
internal_count=2541 2142 1966 1739 227 399 93 306 139 167 176 60 81 95
is_linear=0
shrinkage=0.05


Tree=34
num_leaves=16
num_cat=0
split_feature=2 86 169 2 73 115 137 150 11 164 124 41 162 17 172
split_gain=14.0549 9.75115 9.31076 10.1231 9.10887 8.17043 8.41396 7.6966 6.94711 7.79115 5.86125 5.50031 5.14333 1.73706 0.968449
threshold=9.9226500000000026 1.3666666666666669 8.5000000000000018 29.234100000000002 0.12378958529313071 1.9000000000000001 2.3500000000000005 0.042509455052774307 1.7480253333333338 1956.4249267550001 0.0079383333333329937 1.1000000000000003 2.9750000000000005 1.5339325588817394 0.21907935906310502
decision_type=2 2 2 2 2 2 2 2 2 2 2 2 2 2 2
left_child=1 4 3 7 12 6 -3 -2 9 -4 -6 -7 -1 -5 -10
right_child=2 5 8 13 10 11 -8 -9 14 -11 -12 -13 -14 -15 -16
leaf_value=0.049386368463151191 0.0040255629986055766 0.011506161896755362 -0.0034099879781716324 -0.050413189010751307 -0.016959876725078447 0 -0.018220430716137603 -0.03330356197732634 -0.019725049892538118 -0.043000764651294911 0.031706621557678977 0.039331661343947416 0.0127428639116531 -0.0077262834664484706 -0.065169541060866296
leaf_weight=30.797250658273697 224.5509726703167 37.282393172383308 64.04608379304409 10.344109982252123 17.202426373958591 17.413293331861496 57.51571998000145 13.576128795742987 7.3951033651828793 15.676936671137808 8.3676837682723981 19.008791923522949 21.291372537612915 7.6113507449626914 8.6883335411548597
leaf_count=164 981 187 277 45 84 83 251 57 31 68 43 93 107 32 38
internal_value=-5.77529e-05 0.010098 -0.00623935 -0.00103427 0.0240623 0.00133597 -0.00600949 0.00155789 -0.0194812 -0.0122509 0 0.0214403 0.0358722 -0.0363181 -0.0495789
internal_weight=560.768 208.879 351.889 256.083 77.6587 131.22 94.7981 238.127 95.8065 79.723 25.5701 36.4221 52.0886 17.9555 16.0834
internal_count=2541 1012 1529 1115 398 614 438 1038 414 345 127 176 271 77 69
is_linear=0
shrinkage=0.05


Tree=35
num_leaves=15
num_cat=0
split_feature=2 187 169 48 114 2 186 18 123 172 183 34 71 10
split_gain=13.0758 9.97975 8.83016 8.81367 9.00929 7.54314 7.74542 7.10894 5.66176 6.8482 4.44204 4.34886 2.95133 2.85289
threshold=11.803850000000002 0.36040320429335015 17.500000000000004 12.726290000000002 8.9000000000000021 29.234100000000002 0.59701965386474354 0.15758627147325091 -1.1666666666666663 0.27803126960834684 23.405000000000001 11.550000000000002 5.0500000000000007 1.5208183333333338
decision_type=2 2 2 2 2 2 2 2 2 2 2 2 2 2
left_child=1 8 5 4 -3 6 -2 -5 11 -10 -4 -1 -12 -7
right_child=2 3 10 7 -6 13 -8 -9 9 -11 12 -13 -14 -15
leaf_value=-0.033276356937096706 0.004728890139932794 -0.016793160920589637 0.0043009957777469451 -0.0011671290799784198 0.022989770543159174 -0.050313312517554755 -0.017835339041482188 -0.032542973962503628 0 0.035814994462951416 -0.056077228388447892 0.017324907114949363 -0.018767136414665368 -0.0024475265039697438
leaf_weight=6.9350956082344037 141.96830877661705 15.979941621422766 5.1856793761253348 122.29923030734062 63.649428561329842 10.68309471011162 50.414498060941696 21.061464235186577 19.141958437860012 53.294119261205196 14.291140139102934 7.1318889856338501 19.702567249536514 7.6177276521921149
leaf_count=35 601 71 22 560 305 47 211 91 101 282 61 37 85 32
internal_value=-6.98969e-05 0.00669922 -0.00864707 0.000845023 0.0142768 -0.00425078 -0.000987231 -0.00631648 0.0210368 0.0267437 -0.0303491 -0.0048561 -0.0370356 -0.0341388
internal_weight=559.356 309.493 249.863 222.99 79.6294 210.684 192.383 143.361 86.5031 72.4361 39.1794 14.067 33.9937 18.3008
internal_count=2541 1482 1059 1027 376 891 812 651 455 383 168 72 146 79
is_linear=0
shrinkage=0.05


Tree=36
num_leaves=15
num_cat=0
split_feature=2 136 118 3 176 7 15 153 4 126 22 73 46 126
split_gain=12.3089 11.2051 9.41425 8.94867 8.79234 7.22614 6.87978 9.21577 6.64839 6.79306 5.85815 3.93043 5.11316 2.85612
threshold=9.9226500000000026 3.2892600000000001 9.1214285714285719 11.254650000000002 1.7364018732013402 0.18282213816419243 11.170283333333336 0.19999999999999987 0.57208093442022767 0.33333333333333376 1.4566641666666669 0.12342296014935988 4.9000000000000012 5.5833333333333348
decision_type=2 2 2 2 2 2 2 2 2 2 2 2 2 2
left_child=3 2 4 11 -2 -4 7 -5 -3 -10 -8 13 -13 -1
right_child=1 8 5 6 -6 -7 10 -9 9 -11 -12 12 -14 -15
leaf_value=0.040085093790580527 0.019942218682149973 0.021249762521711513 0.006840040828273726 0.016431990459757861 -0.030043014580624389 -0.020472223627219517 0.040710867988492362 -0.017467121940330916 -0.054889493433367922 -0.016453282895657954 0.0042489078818148352 -0.010486482716069195 0.036151950905638573 0
leaf_weight=34.171654872596264 9.025199353694914 5.910927638411521 196.68503838777542 27.737956210970879 42.501162454485893 26.019822672009468 16.220353350043297 59.959475636482239 17.501797094941139 53.183426484465599 42.39131286740303 13.790775164961817 8.0297980308532697 4.7533593475818625
leaf_count=201 38 25 868 132 181 112 78 261 76 229 199 72 45 24
internal_value=-8.93641e-05 -0.00587833 -0.000937261 0.00946008 -0.0201229 0.00334824 0.00232746 -0.00611703 -0.022684 -0.0273006 0.0156919 0.0255137 0.0053172 0.0351663
internal_weight=557.882 350.827 274.231 207.055 51.5264 222.705 146.309 87.6974 76.5962 70.6852 58.6117 60.7456 21.8206 38.925
internal_count=2541 1529 1199 1012 219 980 670 393 330 305 277 342 117 225
is_linear=0
shrinkage=0.05


Tree=37
num_leaves=12
num_cat=0
split_feature=182 3 18 151 40 60 34 37 146 62 186
split_gain=8.56414 10.453 12.1022 13.2217 10.564 8.21578 7.68993 7.7424 7.19921 4.02967 1.53636
threshold=1.5000000000000002 9.151900000000003 0.14166931279029146 -0.29301114999999972 0.12852371228077011 9.1555555555555568 15.500000000000002 13.510520000000001 1.2091996500000002 0.13806949626200613 0.58194630721450635
decision_type=2 2 2 2 2 2 2 2 2 2 2
left_child=1 4 3 -3 5 -1 7 10 -4 -6 -2
right_child=6 2 8 -5 9 -7 -8 -9 -10 -11 -12
leaf_value=0.0081397472357252771 -0.022392217692835916 0.020854426080692205 -0.021857807254506399 -0.0037299399291223865 0.048635375489729904 -0.043077385912688317 0.013672903397069598 0 0.024365929677770529 0.012328441763792487 -0.076745628897436524
leaf_weight=90.67708446085453 6.5696458220481935 71.559977009892464 92.728685453534126 214.88476886600256 22.806768670678139 7.4029130339622489 7.0041195452213278 7.4527509957551947 7.4321671277284613 19.296075955033302 8.7787070125341398
leaf_count=432 28 329 406 980 109 34 30 31 32 92 38
internal_value=-6.63058e-05 0.00133962 -0.00279998 0.00228899 0.0130492 0.00337356 -0.0257751 -0.040059 -0.0177267 0.0338277 -0.0593316
internal_weight=556.594 526.788 386.606 286.445 140.183 98.08 29.8052 22.8011 100.161 42.1028 15.3484
internal_count=2541 2414 1747 1309 667 466 127 97 438 201 66
is_linear=0
shrinkage=0.05


Tree=38
num_leaves=14
num_cat=0
split_feature=180 2 4 152 1 4 34 6 51 3 14 186 8
split_gain=12.3849 11.035 11.7239 7.56457 7.41513 5.56698 5.6584 5.32694 4.42598 5.30697 4.96025 4.20361 2.10313
threshold=96.500000000000014 16.317000000000004 2.2190682636573906 0.33571405714285713 5.5000000000000009 0.4201492755673823 13.266666666666667 0.15005069844660712 0.1218936795624715 9.466050000000001 5.8333333333333348 0.6238399798521751 2.1666666666666674
decision_type=2 2 2 2 2 2 2 2 2 2 2 2 2
left_child=1 2 3 -1 -4 6 -3 -7 11 -10 -11 12 -2
right_child=8 5 4 -5 -6 7 -8 -9 9 10 -12 -13 -14
leaf_value=0.0043418332481829688 0.04813681283529625 -0.011945039905389081 -0.020516693262369226 0.035562421557816061 0.0057047753205839227 -0.028968200790976173 0.043526942657995504 -0.0018685964857772107 0.041689840393571528 -0.04698969360251104 0.0075051456496077647 0 0.0012712791617018428
leaf_weight=255.90413463115692 22.52358061820269 9.4336032122373563 79.081115633249283 20.874144583940506 36.246479034423828 65.814335733652115 6.3416278511285773 30.737609580159187 5.0335013717412975 5.6578714996576291 7.5426520556211472 5.6007234603166571 5.2374062165617934
leaf_count=1194 126 40 345 101 163 276 26 129 27 26 37 26 25
internal_value=-5.44415e-05 -0.00254643 0.00130452 0.00699598 -0.0118675 -0.0163232 0.00863945 -0.0209611 0.0229434 0.000145483 -0.0139951 0.0335818 0.0413852
internal_weight=556.029 504.433 392.106 276.778 115.328 112.327 15.7752 96.5519 51.5957 18.234 13.2005 33.3617 27.761
internal_count=2541 2274 1803 1295 508 471 66 405 267 90 63 177 151
is_linear=0
shrinkage=0.05


Tree=39
num_leaves=12
num_cat=0
split_feature=180 2 164 68 135 171 6 18 62 13 176
split_gain=11.3945 10.047 10.2866 7.20872 6.54552 4.92603 4.83673 4.39359 3.60324 3.48416 2.15318
threshold=96.500000000000014 17.718250000000005 1983.0188598650002 2.3166666666666669 0.45867149999999995 0.28147458861852853 0.16212537826504556 0.15276421488642136 0.14501324096667378 6.166666666666667 1.4194077689042774
decision_type=2 2 2 2 2 2 2 2 2 2 2
left_child=1 2 3 -1 5 -3 -6 9 -4 10 -2
right_child=7 4 8 -5 6 -7 -8 -9 -10 -11 -12
leaf_value=-0.026189468652634121 0 -0.031009305640584531 -0.033429821319311125 0.0050478449235090385 -0.0096893087417823705 0.0015215575898549804 0.03670488431221039 -0.0046298646805069971 0 0 0.041359063881472265
leaf_weight=18.091327473521233 5.2225257754325858 57.282557860016823 26.485494494438171 359.53736381232738 14.758981525897982 10.85268811881542 7.1863635033369055 9.0461864471435529 9.5906801372766477 8.2994313016533834 28.467661514878273
leaf_count=81 29 242 112 1662 62 45 30 43 40 42 153
internal_value=-2.83452e-05 -0.00241425 0.000778391 0.00335406 -0.0174733 -0.0251575 0.00426169 0.0221564 -0.0241973 0.0290637 0.0360261
internal_weight=554.821 503.785 413.705 377.629 90.0806 68.1352 21.9453 51.0358 36.0762 41.9896 33.6902
internal_count=2541 2274 1895 1743 379 287 92 267 152 224 182
is_linear=0
shrinkage=0.05


Tree=40
num_leaves=13
num_cat=0
split_feature=180 114 156 180 62 62 98 26 7 140 24 21
split_gain=10.399 7.69702 7.0496 6.38214 5.72202 12.2412 8.68653 4.33316 4.84197 6.29171 4.65499 2.31531
threshold=96.500000000000014 10.775000000000002 0.51923076923076927 70.450000000000017 0.1061998097229996 0.13223489889349635 1.267857142857143 16.835050000000006 0.15268482962468014 -0.30836829999999998 3.5833333333333335 1.38405
decision_type=2 2 2 2 2 2 2 2 2 2 2 2
left_child=1 2 3 -1 6 -6 -3 8 9 -2 -9 -4
right_child=7 4 11 -5 5 -7 -8 10 -10 -11 -12 -13
leaf_value=-0.0043839934513934956 4.7452916665183672e-05 0.0036314284133455877 0.038637397451275493 -0.021821987545636853 0.019784775912993172 -0.0078047208296640053 -0.034197157988400416 0.02477438979319949 0 0.053421325655376176 -0.033259292661793248 0
leaf_weight=175.81687657535076 9.9774456322193128 45.180392816662788 8.7455042451620084 81.17234143614769 104.57389993965626 61.048905774950981 20.472984790802002 5.4257293641567212 8.4451072290539724 20.708319596946243 5.9951166808605194 5.949263557791709
leaf_count=773 51 212 40 362 498 270 93 28 44 116 28 26
internal_value=-2.34499e-05 -0.0023011 -0.00805889 -0.010149 0.00425299 0.00932934 -0.00775076 0.021273 0.0291576 0.0381941 -0.00188869 0.0236255
internal_weight=553.512 502.96 271.684 256.989 231.276 165.623 65.6534 50.5517 39.1309 30.6858 11.4208 14.6948
internal_count=2541 2274 1201 1135 1073 768 305 267 211 167 56 66
is_linear=0
shrinkage=0.05


Tree=41
num_leaves=16
num_cat=0
split_feature=2 86 73 46 169 2 150 11 7 174 124 162 46 10 158
split_gain=10.8304 7.82218 8.52803 7.70288 7.36204 8.01674 6.61019 6.53718 6.89649 6.50215 5.29729 5.03139 3.2584 1.83551 0.753802
threshold=9.9226500000000026 1.3666666666666669 0.12378958529313071 4.7333333333333343 8.5000000000000018 29.234100000000002 0.042509455052774307 1.7480253333333338 0.14483558764267293 0.60628844839371154 0.0079383333333329937 2.9750000000000005 6.1000000000000005 1.5208183333333338 6.5000000000000009
decision_type=2 2 2 2 2 2 2 2 2 2 2 2 2 2 2
left_child=1 2 11 9 5 6 -2 8 -6 -3 -4 -1 -5 -7 -9
right_child=4 3 10 12 7 13 -8 14 -10 -11 -12 -13 -14 -15 -16
leaf_value=0.047224691469798165 0.0038062121117408624 -0.0092277391028288674 -0.017548257383293433 0.033661775116019678 -0.0021447514524529877 -0.046593660616706022 -0.03082630910069134 -0.064744175386348274 -0.040342675796960881 0.032550425083630811 0.029172800468103444 0.010633078136697931 -0.0011227662192618681 -0.0040723326776354483 -0.021978211289722081
leaf_weight=29.269252806901932 222.44575038552284 93.440445810556412 17.074241325259212 21.217862814664844 64.283866807818413 10.112588226795198 13.535386696457861 7.0347619354724911 14.550968721508978 8.9974096119403821 8.021792456507681 20.704342238605022 5.7510562092065802 7.2765002250671378 9.0159251838922483
leaf_count=164 981 437 84 109 281 46 57 30 64 40 43 107 28 31 39
internal_value=-1.13271e-05 0.009006 0.0217729 0.00110624 -0.00545959 -0.000782604 0.00148708 -0.0172885 -0.0102385 -0.00479565 -0.000152532 0.0335515 0.0246814 -0.0327086 -0.0463522
internal_weight=552.732 204.476 75.0696 129.407 348.256 253.37 235.981 94.8855 78.8348 102.438 25.096 49.9736 26.9689 17.3891 16.0507
internal_count=2541 1012 398 614 1529 1115 1038 414 345 477 127 271 137 77 69
is_linear=0
shrinkage=0.05


Tree=42
num_leaves=14
num_cat=0
split_feature=2 136 176 70 5 150 126 151 82 4 23 126 53
split_gain=9.96907 9.9203 8.30604 9.70199 8.06589 7.43453 10.6127 7.27626 7.0334 5.9941 5.98346 5.96453 4.01652
threshold=9.9226500000000026 3.2892600000000001 1.9029223426395088 12.404470000000002 3.2216394646093249 -0.030415411309607367 0.99999999999999989 0.66715580000000008 1.0000000180025095e-35 0.57208093442022767 14.833333333333334 0.33333333333333376 1.4722222222222225
decision_type=2 2 2 2 2 2 2 2 2 2 2 2 2
left_child=5 2 4 -4 -2 8 10 -8 -1 -3 -7 -11 -10
right_child=1 9 3 -5 -6 6 7 -9 12 11 -12 -13 -14
leaf_value=-0.050124796831820043 0.0087954059597979486 0.020547158688205617 0.00016988269359182481 -0.031010519253700665 -0.032429663281479629 0.039955085070782576 0.0072827230583332033 -0.042100701937783452 -0.015948368767895644 -0.051471029814706928 0 -0.015233412440115269 0.035258475299342583
leaf_weight=8.7381082922220248 164.64178889989853 5.8738821595907202 55.810192927718163 39.981065109372139 11.40842032432556 40.459471739828587 124.19675547629595 6.7439261525869361 7.5695245862007123 17.443706601858139 10.467548385262488 52.807454586029053 5.4134996235370636
leaf_count=41 742 25 238 170 49 226 597 29 36 76 55 229 28
internal_value=-2.96576e-05 -0.00525683 -0.000574352 -0.0125135 0.00567345 0.00864206 0.012122 0.00406053 -0.0175458 -0.0211053 0.0314091 -0.0255292 0.00282201
internal_weight=551.555 347.967 271.841 95.7913 176.05 203.589 181.868 130.941 21.7211 76.125 50.927 70.2512 12.983
internal_count=2541 1529 1199 408 791 1012 907 626 105 330 281 305 64
is_linear=0
shrinkage=0.05


Tree=43
num_leaves=13
num_cat=0
split_feature=180 119 23 12 137 10 156 33 67 7 41 95
split_gain=9.28373 7.03334 7.28317 12.7215 9.37387 6.27675 6.68217 5.45822 4.20012 5.81128 4.02662 3.59969
threshold=96.500000000000014 2.2928571428571431 16.833333333333339 17.833333333333339 3.0250000000000008 1.0345418333333336 0.21111111111111114 1.7580683000000004 9.3166666666666682 0.15268482962468014 1.5500000000000003 2.1000000000000005
decision_type=2 2 2 2 2 2 2 2 2 2 2 2
left_child=1 2 4 -4 -1 7 -7 -3 -2 11 -11 -10
right_child=8 5 3 -5 -6 6 -8 -9 9 10 -12 -13
leaf_value=0.0025625725324340863 -0.012151213317817532 -0.047507080010107283 -0.041606399726257765 0.029611384116815156 -0.013665915325164197 0.037058795861716141 0 0.010833971427463306 0.044386860747820403 0.022141361391989186 -0.033749207622318769 0
leaf_weight=277.12114562094212 6.0391628667712203 6.0576576292514783 27.877903014421463 6.389569178223609 127.84004820883274 28.364439338445663 20.70184850692749 6.3629211783409119 26.273458488285542 5.1148486435413343 5.2574557214975357 6.9954340308904639
leaf_count=1278 31 27 121 28 563 130 97 30 147 29 25 35
internal_value=-3.96949e-05 -0.0021899 -0.00449926 -0.0264462 -0.00245839 0.0133147 0.0217215 -0.0153137 0.0202607 0.0260377 -0.00226806 0.0361304
internal_weight=550.396 500.716 439.229 34.2675 404.961 61.4869 49.0663 12.4206 49.6804 43.6412 10.3723 33.2689
internal_count=2541 2274 1990 149 1841 284 227 57 267 236 54 182
is_linear=0
shrinkage=0.05


Tree=44
num_leaves=14
num_cat=0
split_feature=2 3 2 16 138 33 155 115 99 73 152 27 115
split_gain=9.3326 8.00671 6.6511 10.8239 7.33829 6.5745 7.43302 6.32396 5.00745 7.13323 5.00847 4.8032 3.45746
threshold=17.718250000000005 12.314250000000001 6.0477500000000006 5.8333333333333348 1.0576166757382452 1.407097 0.59166666666666679 1.9000000000000001 0.18333333333333338 0.14171880035596487 0.2794436500000001 9.8333333333333339 1.6333333333333335
decision_type=2 2 2 2 2 2 2 2 2 2 2 2 2
left_child=1 5 4 -4 -3 6 -1 -7 12 10 -10 -11 -2
right_child=8 2 3 -5 -6 7 -8 -9 9 11 -12 -13 -14
leaf_value=0.022967111608053713 -0.012401836204693538 0.034974008998961345 0.01248891443007861 -0.014308137348921696 -0.00628912221609322 -0.0085117704806546585 -0.01188410702335259 0.016383625439275153 -0.036173100806045501 0.026783295836658224 0 -0.019093493468814445 0.028559198256906889
leaf_weight=100.62820918858051 7.4499284774065044 20.524527542293072 47.899306118488312 146.3424119874835 17.718223422765732 67.846845678985119 15.349749758839605 39.337966173887253 45.703831270337105 10.885663688182833 11.410963594913481 9.239543601870535 9.3873617500066739
leaf_count=505 31 101 222 636 77 329 74 198 196 46 48 39 39
internal_value=-2.44699e-05 0.00285178 -0.00347954 -0.00741387 0.0149092 0.00965672 0.0178649 0.000229917 -0.0143645 -0.0199079 -0.0289156 0.00344747 0.00795301
internal_weight=549.725 455.647 232.484 194.242 38.2428 223.163 115.978 107.185 94.0773 77.24 57.1148 20.1252 16.8373
internal_count=2541 2142 1036 858 178 1106 579 527 399 329 244 85 70
is_linear=0
shrinkage=0.05


Tree=45
num_leaves=15
num_cat=0
split_feature=2 136 1 150 132 121 176 6 2 4 126 34 73 67
split_gain=8.83366 8.77266 7.19858 8.59647 9.21192 7.38331 7.18669 10.7633 7.64373 5.87175 4.87154 4.37375 3.13592 1.14943
threshold=9.9226500000000026 3.2892600000000001 8.5000000000000018 -0.01891980959078866 2.4166666666666674 1.8819444444444446 1.9029223426395088 0.13336801885937646 26.050000000000004 2.2949161841534074 -0.83333333333333359 16.700000000000006 0.13733128913781731 12.950000000000001
decision_type=2 2 2 2 2 2 2 2 2 2 2 2 2 2
left_child=2 6 3 5 -5 -1 8 -8 -2 10 -3 -11 13 -4
right_child=1 9 12 4 -6 -7 7 -9 -10 11 -12 -13 -14 -15
leaf_value=-0.049490521198937099 0.0088756450758232918 -0.03871874578088895 0.052396121469037188 0.014700436490092379 -0.019204309472859067 0 -0.024766791035121929 0.0088013544675250212 -0.026059955797873513 -0.059448170730360586 -0.0016409909366079075 0 0 0.0042177835287764759
leaf_weight=11.240373544394972 159.21373061835766 11.139985650777815 13.065389789640909 129.65942797809839 21.619573347270489 17.171713605523109 59.544616028666496 35.968347102403641 15.837751552462576 13.100822538137438 45.818700477480888 5.8832402825355521 4.9092511832714072 4.1937089413404456
leaf_count=55 721 49 74 653 95 84 253 155 70 56 199 26 25 26
internal_value=-1.80651e-05 -0.00494802 0.00818077 0.00445076 0.00943241 -0.0197927 -0.000518901 -0.0116474 0.00530077 -0.0198661 -0.0102983 -0.0441192 0.0347601 0.0443
internal_weight=548.367 346.507 201.859 179.691 151.279 28.4121 270.564 95.513 175.051 75.9427 56.9587 18.9841 22.1683 17.2591
internal_count=2541 1529 1012 887 748 139 1199 408 791 330 248 82 125 100
is_linear=0
shrinkage=0.05


Tree=46
num_leaves=15
num_cat=0
split_feature=2 4 156 99 68 137 127 187 6 6 177 70 155 165
split_gain=8.30339 7.72871 7.33411 11.1927 7.84052 6.58175 7.2798 8.55985 7.12683 6.42422 7.57859 6.88093 3.18363 2.6577
threshold=14.066950000000002 1.2051195148378608 0.17424242424242428 0.2678571428571429 3.5857142857142863 3.1250000000000004 0.36799886675241095 0.44152412938443669 0.065213970395011964 0.076415886200265862 1.8276354236026791 19.228347500000005 0.34848484848484856 1714.0606079100003
decision_type=2 2 2 2 2 2 2 2 2 2 2 2 2 2
left_child=1 9 4 -4 -3 6 8 -8 -2 10 -1 -11 -7 -14
right_child=5 2 3 -5 -6 12 7 -9 -10 11 -12 -13 13 -15
leaf_value=0.023313900615500163 0.0095878605344394043 -0.0074692529409309191 0.016627268713335218 -0.012767337449047934 0.022511018880474715 0 0.032719265596309652 -0.016568106288345621 -0.018759640134176289 0.0369326083441954 -0.011394991802998843 -0.011528826059406111 -0.0063982351812451634 -0.063397017216986706
leaf_weight=26.880482785403728 26.601898059248924 31.32808755338192 39.448791317641735 145.60407605022192 56.367606304585934 6.1520432382822063 22.293043747544289 11.879390865564345 84.857249572873116 40.639024205505848 33.545620530843735 6.6240414679050437 5.5260988622903815 9.3969342857599241
leaf_count=142 112 140 202 675 268 26 94 52 362 206 163 32 25 42
internal_value=-3.40601e-05 0.00395095 -0.000362574 -0.00617669 0.0112738 -0.00939565 -0.0050962 0.01418 -0.0115243 0.0152388 0.00335941 0.0290065 -0.0352637 -0.0471575
internal_weight=547.144 380.438 272.749 185.053 87.6957 166.707 145.632 34.1724 111.459 107.689 60.4261 47.2631 21.0751 14.923
internal_count=2541 1828 1285 877 408 713 620 146 474 543 305 238 93 67
is_linear=0
shrinkage=0.05


Tree=47
num_leaves=14
num_cat=0
split_feature=180 2 4 152 1 178 3 51 3 14 178 171 50
split_gain=8.13612 7.09905 9.08478 6.84803 6.26205 5.28582 4.72328 4.06092 4.64231 4.34716 3.99096 2.30713 2.27254
threshold=96.500000000000014 16.317000000000004 2.2190682636573906 0.33571405714285713 5.5000000000000009 -1.1583646907926071 8.4799000000000024 0.1218936795624715 9.466050000000001 5.8333333333333348 0.71363334347027918 0.24346321076331293 1.3164041108451781
decision_type=2 2 2 2 2 2 2 2 2 2 2 2 2
left_child=1 2 3 -1 -4 -3 -7 10 -9 -10 12 -12 -2
right_child=7 5 4 -5 -6 6 -8 8 9 -11 11 -13 -14
leaf_value=0.0035725076196665147 0.054894475978794301 0.0235702660835444 -0.018561730680616229 0.033681620515652655 0.0056112472939648765 -0.0030228179482701296 -0.025964728775494224 0.038000769739299584 -0.046326528568992026 0.004443316725831448 0.022321842439700468 -0.01700417757426893 0.0037509101369683131
leaf_weight=252.28538350760937 13.562655113637453 7.1239871680736533 78.597696617245674 20.228177696466446 35.764551803469658 45.685102969408035 57.622021868824959 4.6560735180974033 5.5896216779947263 7.289370946586132 7.2570440024137479 4.9931387007236481 5.3515031784772864
leaf_count=1194 85 30 345 101 163 192 249 27 26 37 36 25 31
internal_value=-3.82502e-05 -0.00205306 0.00102787 0.00610523 -0.0105856 -0.0132076 -0.0164248 0.0191578 0 -0.015739 0.0297111 0.00244555 0.0438499
internal_weight=546.006 497.307 386.876 272.514 114.362 110.431 103.307 48.6994 17.5351 12.879 31.1643 12.2502 18.9142
internal_count=2541 2274 1803 1295 508 471 441 267 90 63 177 61 116
is_linear=0
shrinkage=0.05


Tree=48
num_leaves=13
num_cat=0
split_feature=2 3 35 168 38 138 18 152 10 11 128 138
split_gain=7.93327 8.77309 10.4976 8.58599 7.3157 8.61086 7.05141 10.4099 7.14455 6.21114 3.36879 2.06103
threshold=6.0477500000000006 9.151900000000003 4.9000000000000012 3.5000000000000004 5.1000000000000005 1.0576166757382452 0.14166931279029146 0.27381815000000009 2.5962183333333342 1.7542165000000003 0.046072405162058863 0.14105882456060495
decision_type=2 2 2 2 2 2 2 2 2 2 2 2
left_child=4 2 3 -2 -1 11 7 -3 -8 -4 -7 -6
right_child=1 6 9 -5 5 10 8 -9 -10 -11 -12 -13
leaf_value=-0.031224141800584707 -0.031593924070398793 -0.0062276669557940652 0.039499639680554754 0.0059064477667677695 0.0020694278449089262 0.018340956552457089 -0.027020084177628363 0.022106251124629901 0.0040067484734733439 0 -0.023088141351546011 0.053062373325114764
leaf_weight=4.6215498000383368 17.372602999210358 226.12788147479296 31.965902648866177 88.602833449840546 4.6241301372647312 10.262452676892282 65.034777276217937 36.462170913815498 21.82769712805748 10.847827725112436 7.6920205503702155 19.382385209202766
leaf_count=24 76 1040 158 430 26 45 289 172 94 52 34 101
internal_value=-4.68951e-06 -0.00195514 0.00803155 -1.14808e-05 0.019409 0.0267465 -0.00636072 -0.00203471 -0.0186974 0.0286273 0 0.0457151
internal_weight=544.824 498.242 148.789 105.975 46.5825 41.961 349.453 262.59 86.8625 42.8137 17.9545 24.0065
internal_count=2541 2311 716 506 230 206 1595 1212 383 210 79 127
is_linear=0
shrinkage=0.05


Tree=49
num_leaves=16
num_cat=0
split_feature=2 114 62 82 86 22 72 174 73 27 189 44 174 47 111
split_gain=7.36475 6.71861 6.84323 6.52442 6.49176 9.32958 7.38813 6.93445 6.16366 5.78948 5.52546 5.51125 5.49819 3.18302 2.43246
threshold=9.9226500000000026 9.6333333333333346 0.13135322982907122 0.58333333333333337 1.3666666666666669 2.1270423333333337 1.4878617837093771 0.60526381909547744 0.10989869600924373 3.8333333333333335 0.36585755068623732 2.2321590000000007 0.457483987562123 4.6750000000000007 1.8333333333333337
decision_type=2 2 2 2 2 2 2 2 2 2 2 2 2 2 2
left_child=4 3 12 10 5 6 -1 9 -7 -6 -2 -4 -3 -5 -9
right_child=1 2 11 13 7 8 -8 14 -10 -11 -12 -13 -14 -15 -16
leaf_value=0.041894578530077491 -0.030855594857327497 -0.037156799998099281 -0.021045499771362917 0.031985802273606811 -0.022424242004781686 0.021368361216546169 0 0.0037699170910703663 -0.030401895487639014 0.0027842174298178569 -0.0047947697553821387 0.02129483968328795 0.0071804393231405216 -0.0060921561602879761 0.056838944087737819
leaf_weight=37.947146221995354 52.038230821490288 6.0118782371282569 49.672545373439789 8.8450882285833377 28.905226334929466 8.3759491145610827 13.871041677892206 6.7415155842900258 12.170390143990515 85.911392971873283 42.09872280061245 7.0920681059360495 170.47153677046299 8.0758404582738859 5.8349239379167557
leaf_count=215 227 29 214 39 131 45 77 32 61 423 182 30 774 34 28
internal_value=0 -0.00450896 0.000113522 -0.0145779 0.00753278 0.0193992 0.0307331 0.000304167 -0.00696435 -0.00326915 -0.0198995 -0.0146129 0.00518754 0.0116965 0.0344475
internal_weight=544.063 344.306 233.248 111.058 199.758 72.3645 51.8182 127.393 20.5463 114.817 94.137 56.7646 176.483 16.9209 12.5764
internal_count=2541 1529 1047 482 1012 398 292 614 106 554 409 244 803 73 60
is_linear=0
shrinkage=0.05


Tree=50
num_leaves=9
num_cat=0
split_feature=2 3 172 2 38 130 189 10
split_gain=7.20492 7.03281 8.61014 7.98696 8.34429 7.47341 7.25731 2.37006
threshold=29.234100000000002 9.151900000000003 0.69987488756646721 6.0477500000000006 5.1000000000000005 0.078888516666666811 0.11466497222146062 1.5208183333333338
decision_type=2 2 2 2 2 2 2 2
left_child=1 2 5 4 -3 -1 -5 -2
right_child=7 3 -4 6 -6 -7 -8 -9
leaf_value=0.024314527421143289 -0.045099728712074572 -0.039659548267327399 -0.033306633376319027 -0.022799728311156103 0.025634567450052631 0 -0.0018730109930616288 -0.0011086810014528388
leaf_weight=75.495313785970211 10.490509539842607 4.1379808932542792 8.8417956382036191 48.919744119048119 38.74951883405447 57.819019436836243 290.97234047949314 7.6331606060266486
leaf_count=374 50 21 38 216 190 282 1337 33
internal_value=0 0.00102754 0.0105497 -0.00239677 0.0174353 0.0140569 -0.00508966 -0.0302134
internal_weight=543.059 524.936 142.156 382.78 42.8875 133.314 339.892 18.1237
internal_count=2541 2458 694 1764 211 656 1553 83
is_linear=0
shrinkage=0.05


Tree=51
num_leaves=11
num_cat=0
split_feature=180 118 2 184 135 157 67 50 26 183
split_gain=7.29353 6.7746 7.49452 6.07325 5.99036 4.20153 3.89522 5.73025 3.43086 1.12647
threshold=96.500000000000014 7.7250000000000005 17.718250000000005 49.565000000000005 0.45867149999999995 3.0954545454545461 9.3166666666666682 1.3250280672684311 14.287833333333333 32.060000000000009
decision_type=2 2 2 2 2 2 2 2 2 2
left_child=1 5 3 -3 -4 -1 -2 9 -9 -8
right_child=6 2 4 -5 -6 -7 7 8 -10 -11
leaf_value=-0.050964824297042369 -0.012986377120171366 0.00010386823176842733 -0.021522957663496836 0.022669866628567428 0.0076948499913990628 0 0.012402182304805451 0.020474702051841751 -0.017498599276432131 0.0531338261151727
leaf_weight=10.166715085506437 5.9340730980038634 360.55071777105331 65.746939703822136 31.98627370595932 20.235218450427055 5.6003324538469306 6.9967295005917576 13.060918517410757 8.5030670911073667 13.410846963524817
leaf_count=45 31 1687 284 146 86 26 42 71 42 81
internal_value=0 -0.00190758 -0.000704543 0.00212267 -0.0140625 -0.0332175 0.0183299 0.0241202 0.00317332 0.0427363
internal_weight=542.192 494.286 478.519 392.537 85.9822 15.767 47.9056 41.9716 21.564 20.4076
internal_count=2541 2274 2203 1833 370 71 267 236 113 123
is_linear=0
shrinkage=0.05


Tree=52
num_leaves=13
num_cat=0
split_feature=180 118 2 68 135 157 180 84 171 28 72 46
split_gain=6.67822 6.20353 6.77396 5.67907 5.47049 3.89434 3.73998 6.00867 4.70379 3.14696 3.11921 0.1889
threshold=96.500000000000014 7.7250000000000005 17.718250000000005 2.3166666666666669 0.45867149999999995 3.0954545454545461 102.2 1.5000000000000002 0.26478804560356517 1.7651234878382331 1.4156325798481701 4.366666666666668
decision_type=2 2 2 2 2 2 2 2 2 2 2 2
left_child=1 5 3 -3 -4 -1 9 8 -8 11 -9 -2
right_child=6 2 4 -5 -6 -7 7 10 -10 -11 -12 -13
leaf_value=-0.049062011063258353 0.051332723103238033 -0.023826488091650971 -0.020541595998399043 0.003514794363497731 0.0073271351321372181 0 0.042562037238491113 -0.046751362432557821 -0.0063629026095178374 0 0 0.012168040326506124
leaf_weight=10.074115216732023 10.994672238826757 18.703400745987892 65.497807145118713 373.64083133637905 20.238296091556549 5.6003324538469306 10.556955784559255 5.2417314127087575 5.4616075456142417 4.3299188762903205 5.7970107048749924 5.0907922238111487
leaf_count=45 73 84 284 1749 86 26 58 25 29 23 28 31
internal_value=0 -0.00180736 -0.000653403 0.00202704 -0.013378 -0.0318552 0.0176378 0.00304798 0.0235492 0.0335941 -0.0220334 0.0433018
internal_weight=541.227 493.755 478.08 392.344 85.7361 15.6744 47.4727 27.0573 16.0186 20.4154 11.0387 16.0855
internal_count=2541 2274 2203 1833 370 71 267 140 87 127 53 104
is_linear=0
shrinkage=0.05


Tree=53
num_leaves=13
num_cat=0
split_feature=2 3 35 146 164 25 138 149 11 141 171 140
split_gain=6.24818 7.44356 9.17556 7.70308 7.14112 7.85513 6.54094 8.78465 5.83669 4.34852 4.32497 0.0372297
threshold=6.0477500000000006 9.151900000000003 4.9000000000000012 -0.22269000000000003 1642.0233154300001 7.166666666666667 1.0576166757382452 0.18561654326816415 1.7542165000000003 -0.13311559999999997 0.27942341325011971 -0.31815779999999999
decision_type=2 2 2 2 2 2 2 2 2 2 2 2
left_child=6 2 3 -2 10 -6 7 -1 -4 -8 -3 -9
right_child=1 4 8 -5 5 -7 9 11 -10 -11 -12 -13
leaf_value=-0.0091796225634879873 0.01362093676186462 0.0025564078552624703 0.037747930800043197 -0.013244677387719431 -0.010483676653152417 0.016645573627632689 0.020054729809121985 0.016361930767621102 -0.00050390184760198725 -0.025464442168881607 0.049206270857525852 0.056034293905483007
leaf_weight=6.9009222164750126 49.979678951203823 20.099075928330425 31.247221253812313 54.862354837357998 293.42509604245424 27.128983363509178 8.0333588272333163 5.2039762213826224 10.759423077106474 10.451651245355604 7.1173385605216017 14.942915096879002
leaf_count=37 244 95 158 262 1344 121 36 29 52 46 35 82
internal_value=0 -0.00171345 0.00754726 0 -0.00577765 -0.00798757 0.0174475 0.0328843 0.0270037 -0.0031023 0.0178393 0.0494096
internal_weight=540.152 494.619 146.849 104.842 347.77 320.554 45.5328 27.0478 42.0066 18.485 27.2164 20.1469
internal_count=2541 2311 716 506 1595 1465 230 148 210 82 130 111
is_linear=0
shrinkage=0.05


Tree=54
num_leaves=12
num_cat=0
split_feature=182 71 4 37 34 119 11 151 47 3 134
split_gain=6.28957 9.18882 8.17026 6.71147 7.39353 6.40611 6.09966 7.65685 5.86562 5.85853 1.62977
threshold=1.5000000000000002 8.0500000000000025 0.92717816773801986 13.510520000000001 15.700000000000001 1.7071428571428573 1.875874666666667 0.48680230000000008 5.366666666666668 9.5638500000000022 0.55000000000000016
decision_type=2 2 2 2 2 2 2 2 2 2 2
left_child=1 2 9 4 10 -4 7 -3 -8 -1 -2
right_child=3 6 5 -5 -6 -7 8 -9 -10 -11 -12
leaf_value=0.027037375311475088 -0.019301641382803165 0.026661352929895278 -0.011383069054635554 0.010569809001724606 0.0035515573192488807 0.0025166211788025944 0.019167990739217017 -0.025616201527185953 -0.032782199921983619 0 -0.072329044029724246
leaf_weight=35.080450445413589 6.6225031465292039 70.590441666543484 194.00106632709503 8.2949828058481199 5.6401492059230796 135.10324514657259 8.1076950281858462 6.0041643977165213 10.732735469937323 50.77767289429903 8.6089567095041257
leaf_count=180 29 328 907 35 25 645 37 27 48 242 38
internal_value=0 0.00127373 -0.00184595 -0.0222201 -0.0374253 -0.00553519 0.0152354 0.0216417 -0.00806679 0.0116206 -0.0549632
internal_weight=539.564 510.397 414.962 29.1666 20.8716 329.104 95.435 76.5946 18.8404 85.8581 15.2315
internal_count=2541 2414 1974 127 92 1552 440 355 85 422 67
is_linear=0
shrinkage=0.05


Tree=55
num_leaves=16
num_cat=0
split_feature=2 3 185 89 171 4 147 33 119 114 133 186 69 151 128
split_gain=6.39349 8.45926 6.78035 9.28143 8.02082 7.23594 6.0565 7.67774 7.08573 5.53905 5.02076 4.96056 4.23648 4.31323 3.76815
threshold=11.803850000000002 6.6376500000000007 0.64228173820558221 1.7750000000000001 0.21820167430196502 1.8192457808181641 -1.1560894444444443 1.8688759000000001 1.7638888888888891 11.550000000000002 -1.1499999999999997 0.42341947458675799 5.7888888888888896 -0.34900005000000006 -0.014134314842337374
decision_type=2 2 2 2 2 2 2 2 2 2 2 2 2 2 2
left_child=2 12 5 10 -5 9 7 -3 -8 -1 -4 -7 13 -2 -14
right_child=1 6 3 4 -6 11 8 -9 -10 -11 -12 -13 14 -15 -16
leaf_value=0.0085679209750361019 -0.0093756573265665888 -0.0072883730945913494 -0.021472412851294601 -0.010414528520896374 -0.070661099086664389 -0.036917699995973073 -0.027667704930538956 0.032150233956508088 -0.0015518031326745808 0.031413966848316495 0.022139704052368689 0.0019146882406265696 0.011745653025524293 0.032505216567600734 -0.034628324743681965
leaf_weight=94.506280742585659 5.3455032259225872 64.770671337842941 7.2970889508724239 24.412512570619583 7.6689815893769255 7.939383238554 71.083518370985985 14.189647287130354 47.457006797194481 42.925381079316139 22.365830093622208 89.694125272333622 7.8398114219307899 25.22981721162796 6.4201368987560254
leaf_count=490 25 281 35 104 36 37 309 62 204 238 108 434 35 115 28
internal_value=0 -0.00604348 0.00488139 -0.00937239 -0.0280283 0.00886107 -0.0106327 0 -0.0177311 0.0162402 0.00943009 -0.00107844 0.0128721 0.0235346 -0.0067574
internal_weight=539.146 242.336 296.81 61.7444 32.0815 235.065 197.501 78.9603 118.541 137.432 29.6629 97.6335 44.8353 30.5753 14.2599
internal_count=2541 1059 1482 283 140 1199 856 343 513 728 143 471 203 140 63
is_linear=0
shrinkage=0.05


Tree=56
num_leaves=15
num_cat=0
split_feature=180 180 83 51 171 102 115 51 178 141 180 36 15 43
split_gain=6.09932 5.75185 7.37804 7.8616 7.17059 7.26388 5.94111 3.53501 3.66251 3.16147 2.82684 2.77313 2.34197 2.17197
threshold=96.500000000000014 73.050000000000011 0.58333333333333337 0.10434725616236333 0.19940677188509745 1.3166666666666669 2.1000000000000005 0.1218936795624715 0.71363334347027918 0.058193999999999975 91.350000000000023 4.7083333333333348 9.7487333333333357 1.3035712000000002
decision_type=2 2 2 2 2 2 2 2 2 2 2 2 2 2
left_child=1 4 10 -4 6 -6 -1 8 13 -10 -3 -9 -13 -2
right_child=7 2 3 -5 5 -7 -8 11 9 -11 -12 12 -14 -15
leaf_value=-0.017945875031380731 0.052506969504791459 0.045514717391456627 -0.035507171155645063 -0.0061435310934134894 0.015236923755777954 -0.0010945218511376846 0.013017377161142691 -0.027941960816074182 0.030646408833795324 -0.016369677281306037 0 -0.0062059518992912113 0.03107194922245925 0.0021314073977288543
leaf_weight=66.709547430276871 12.495649248361593 6.0033372044563276 32.317209362983704 93.761520050466061 114.0528441593051 154.04616002738476 17.390705913305283 5.3895873501896885 5.2051073908805829 6.7922445237636566 6.7918402105569839 4.875768728554247 6.8436444997787476 5.2383705601096144
leaf_count=291 85 28 150 438 531 726 78 28 29 32 32 25 37 31
internal_value=0 -0.00170125 -0.0103292 -0.0142838 0.00157883 0.00569809 -0.0108779 0.0169989 0.0271553 0.000970023 0.0232247 0 0.0123632 0.0412038
internal_weight=537.914 491.073 138.874 126.079 352.199 268.099 84.1003 46.8404 29.7314 11.9974 12.7952 17.109 11.7194 17.734
internal_count=2541 2274 648 588 1626 1257 369 267 177 61 60 90 62 116
is_linear=0
shrinkage=0.05


Tree=57
num_leaves=10
num_cat=0
split_feature=2 114 155 100 113 143 62 28 10
split_gain=6.09402 5.44204 7.21663 8.45608 6.66838 8.38256 6.70249 6.51919 2.13351
threshold=29.234100000000002 10.775000000000002 0.63068181818181823 0.18333333333333338 2.4166666666666674 -0.99999999999999956 0.11373863824486914 0.77227532009904554 1.5208183333333338
decision_type=2 2 2 2 2 2 2 2 2
left_child=1 2 7 -4 6 -6 -3 -1 -2
right_child=8 4 3 -5 5 -7 -8 -9 -10
leaf_value=-0.020304798082169617 -0.042533206049562955 0 0.0084404192693530271 -0.035498868811187738 0.024545510054143283 -0.019719123816639067 0.019048935235170383 0.0033025328463378461 -0.00026763563421987373
leaf_weight=33.087492391467094 10.096993416547777 72.477738879621029 13.449633561074732 32.166526295244694 12.614674150943754 41.241857133805752 109.81472080945969 204.76431247591972 7.5480966866016379
leaf_count=157 50 359 61 144 64 195 535 943 33
internal_value=0 0.000973067 -0.00357864 -0.0215679 0.00663973 -0.00818122 0.011312 0 -0.0281188
internal_weight=537.262 519.617 283.468 45.6162 236.149 53.8565 182.292 237.852 17.6451
internal_count=2541 2458 1305 205 1153 259 894 1100 83
is_linear=0
shrinkage=0.05


Tree=58
num_leaves=11
num_cat=0
split_feature=182 68 61 135 13 155 39 37 34 186
split_gain=5.83907 6.633 7.96048 7.47844 9.39429 7.42395 6.82099 6.11773 6.74847 1.61504
threshold=1.5000000000000002 4.9500000000000011 1.0328857652610164 -0.81789509999999987 2.8333333333333335 0.59166666666666679 1.0329306968487797 13.510520000000001 15.700000000000001 0.58194630721450635
decision_type=2 2 2 2 2 2 2 2 2 2
left_child=1 3 -3 6 -5 -4 -1 8 9 -2
right_child=7 2 5 4 -6 -7 -8 -9 -10 -11
leaf_value=0.033948372477625235 -0.016955042709385949 -0.031514514578255486 0.023619369026982501 -0.032622555569005604 -0.0016911291563737642 -0.019093917468704608 0 0.009650352421780117 0.0028729769880604279 -0.069265647683814685
